3398 20
excited 0.73059607 -0.41581258 -0.41136608 -0.5633759 -0.28843087 -0.25734502 -0.28377318 -0.20041001 0.23636329 -0.28404757 -0.34328347 0.22774543 0.40730846 0.32271907 0.08624715 -0.0014093907 0.14960346 -0.8852154 0.46737027 -0.32909998
standards 0.44794235 -0.40812886 0.40577057 0.2645942 -0.29255265 -0.6292854 -0.50659025 -0.62195975 -0.68643034 0.24581726 -0.2342415 0.3445272 -0.12349158 0.47909144 0.15602274 0.59536 -0.065384045 -0.5265448 -0.5175621 -0.0036290423
nt 0.39172488 0.10399599 -0.42520148 -0.44145963 -0.012625661 -0.09626443 -0.11477806 -0.33745176 -0.19218582 -0.08278244 -0.15964435 0.3419525 -0.032838397 -0.5280786 0.009730895 0.4842649 0.115018226 -0.347273 0.25529414 -0.4239704
upset 0.20427774 0.12222527 -0.09918151 -0.47640797 -0.41340506 -0.8751816 0.4456207 0.41508183 0.08408429 -0.19345193 -0.6600716 0.18450113 0.63386035 0.06513142 0.4112038 0.5263501 0.91627485 -0.49890167 0.11676976 -0.5902493
belonging 0.20409244 -0.3010405 0.029054342 -1.2910924 0.19351196 -0.5465084 -0.18035074 -0.14719489 -0.21199799 0.19625741 -0.5136842 -0.16603392 -0.24867807 -0.2807052 0.4967855 0.10558493 -0.61210716 -0.2990101 -0.10560115 0.47876817
hill 0.43649083 -1.0768365 -0.0942375 -1.5728066 -0.24698664 -0.36067742 -0.08268127 -0.70483553 -0.11326933 -0.04456597 0.24935293 -0.024814455 0.018689133 0.37295178 -0.4045584 0.3364384 0.09232337 0.08979564 -0.6304292 0.42453605
throbbing 0.44348893 -0.18398859 0.22829653 -1.1411175 -0.09379217 -0.07828261 -0.17515889 0.10662868 -0.29371598 0.22611031 -0.51484895 0.25237182 0.47884738 -0.7240977 0.3274014 0.94005704 0.33445382 -0.010398764 -0.49184823 0.36094812
reduced -0.33513215 -0.744652 0.05093874 -0.2289826 0.03105841 -0.07345426 -0.23049097 -0.3665383 -0.07666423 -0.06890835 -1.015921 0.60840654 0.58683294 0.18824513 0.27512103 0.53443754 -0.34154147 -0.5891687 -0.2986357 0.31628063
also 0.20035595 -0.24352808 0.14901727 -0.333684 0.27929175 0.0044114194 -0.2929668 -0.15661576 0.169995 0.11049144 -0.28428662 0.37104467 0.42658985 0.019313894 0.32323316 0.5609456 -0.19057073 -0.48346946 0.32615682 0.00040921298
images -0.083024435 0.2017048 -0.06328757 -0.01520351 1.0331913 -0.43830836 0.4938213 -0.24430692 -0.07224872 0.18412362 -0.75304204 0.3651224 0.89561987 0.23404403 0.021069238 0.54073924 -0.46781796 -0.6787861 0.7682001 0.19003366
sue -0.1807626 -0.3884025 -1.4984602 -1.1622051 0.20914803 -0.06892181 1.0126868 0.025880013 -0.049031515 -1.013667 0.013813189 0.9059922 0.50833666 -1.3629528 1.0599083 0.48294067 -0.70009726 -0.53760177 -0.22752567 0.9393304
educate 0.66332513 0.34343937 0.051096678 -0.55245733 -0.5929699 -1.0710592 -0.34742832 -1.0142183 0.46337697 0.11809779 -0.3766689 0.28447518 0.76531833 -0.46168822 1.0177907 -0.17148739 -0.14489178 -0.9661388 -0.0662184 0.59245294
john 0.31497204 -0.59502816 0.52368784 -1.0525014 0.42734328 -0.39473265 -0.03013736 -0.5691683 0.18298322 -0.21107002 0.6325479 0.05335242 -0.26456878 -0.37668723 0.42757618 0.11357148 -0.5765661 -0.5707835 -0.15348403 0.34449252
liberate 0.37837303 0.20302421 -0.21726196 -0.37323555 -0.49821016 -1.2571471 -0.19902253 -0.20197074 -0.27866167 0.22615573 -0.36238065 0.10119033 0.2121424 0.047783963 0.8576148 0.625028 -0.13472293 -0.1850459 -0.8070271 0.8561516
disposable 0.027537601 -0.18555099 0.21302113 0.03223002 0.27081504 -0.86507 -0.855272 -0.39654824 0.6818488 -0.18369767 -0.3063159 0.5718097 0.28432885 0.1830628 -0.47892267 1.3981448 1.0896997 -0.28186592 0.37426892 -0.81620884
concert 0.8256938 -1.0616473 0.28977683 -0.93424684 0.9280485 -0.601277 -0.023711836 -0.8656121 0.11488445 -0.44386548 -0.069594145 -0.32626393 -0.09398423 0.36617345 -0.4138016 -0.002222608 -0.48001555 -0.72768724 0.21247807 -0.25278568
murderous 0.24306065 -0.14292398 0.23244208 -0.9181018 -0.44591197 -0.83717835 0.13888156 -0.05824204 0.3621145 -0.17214163 -0.6463073 -0.16900435 0.2707199 0.06594229 0.98732847 0.8427823 0.39235157 -0.13062268 -1.0066932 0.34789452
repair -0.26768574 -0.37087065 0.36851904 -0.40979335 -0.19777134 -0.5991731 0.7198014 -0.34799764 0.32910323 0.17715877 0.32380676 0.058909662 1.1155075 0.040200546 0.11074576 1.614122 0.46141618 -0.7036947 0.14361392 -1.371511
telephoto 0.0371115 0.041925296 1.019409 0.38573393 0.8900689 -0.519077 0.61810404 -1.061235 -0.13742429 -0.06312481 -0.5240756 0.6781818 -0.106844105 0.28357592 0.11072489 1.1911119 0.7721643 -0.66662985 1.4208797 0.67170066
musical 0.4164738 -0.068540975 0.42479047 -0.8072592 0.358963 -0.66733176 -0.5784363 -0.45484108 -0.34600478 -0.065548465 -0.2884028 -0.2087237 -0.22708349 0.4404436 0.15581244 0.23363395 -0.97686636 -0.60460114 -0.047934998 -0.023820292
business 0.6304413 0.064903975 0.359041 0.011493952 0.08001096 -0.33259073 -0.48722607 -0.33459893 0.083866104 0.56855345 0.17773192 0.6283786 0.8259037 -0.4030464 0.84306836 0.27698645 0.32643792 -0.36207846 -0.010732562 0.018822392
dench 0.94198483 0.75181806 0.6436613 -0.93606293 0.38295135 -0.4965307 -0.12395165 -0.10583523 0.14735974 -0.77068883 0.6070917 0.055628683 0.21530722 0.28261578 0.35212538 0.30543387 -0.35863522 -0.367305 -0.043284938 1.4453794
types 0.1250265 -0.14778832 -0.14690374 0.24561748 0.42536083 -0.644866 -0.7385658 -0.07522804 0.110373765 0.9230846 -0.72549224 0.4761043 0.66682136 0.24010947 0.20208775 0.22083595 0.108435325 -0.6884597 0.40049937 0.22174014
attenion 0.2975315 -0.8622142 0.19213894 -1.0782187 0.18878138 -0.6018629 -0.11360176 -0.5927168 0.1886154 0.052200228 0.33338687 0.41476074 0.11448611 0.26251608 0.4425308 -0.16091748 0.112470746 -0.70574677 0.17323443 0.5293373
primary 0.5590969 0.26765028 0.58012456 -0.1338162 -0.33742255 0.2122823 -0.29664084 -0.34884682 -0.3647427 0.68893945 0.023500144 0.1588289 0.6203101 0.7073151 0.99773294 0.8285563 0.061496228 -0.314725 0.07736257 0.34018752
logic 0.57647264 0.2558335 -0.67074955 -0.0481859 0.31771308 -0.22920851 0.24574372 -0.09234795 -0.67500967 0.43296775 -0.65954286 -0.1945358 0.371034 -0.033978105 1.064965 0.97619826 -0.28415686 0.05817022 -0.25021267 0.99845684
heart -0.15495323 -0.41459766 0.04831602 -0.9508782 -0.53115296 -0.39668122 -0.46070853 -0.30777746 -0.2556299 -0.20602672 -0.25902084 -0.21523967 0.032290243 -0.18677486 0.36409456 0.43088052 -0.32337397 -0.462504 0.036442835 0.44094625
triumphantly 0.9872917 -0.43258852 0.2076227 -0.75189584 0.00898968 -0.7124259 -0.42366225 -0.3578422 -0.064043574 -0.06020371 -0.34051466 -0.46784198 0.1812098 0.54497176 0.6041232 0.50100344 -0.4899586 -0.6047973 -0.42560956 0.68442696
screaming 0.26956743 -0.2795567 -0.13276266 -0.7133229 0.15118684 -0.36682504 -0.4782767 -0.04701495 -0.26954997 -0.22309424 -0.6877493 -0.14614658 0.020093853 -0.23911875 -0.22159813 0.59676224 -0.72411424 -0.51861846 -0.08651875 0.24789716
shine -0.4404551 -0.55399007 0.43077374 -0.669832 0.27599722 0.039950587 -0.3301538 -0.3713588 -0.32799768 -0.34966615 -0.34957096 0.55202407 -0.20263693 0.07786964 0.2549749 0.5308632 -0.5293253 -0.5602467 0.43698874 -0.10537912
inappropriate 0.16288123 0.3105953 -0.40720132 -0.4794962 0.34439734 -0.72370505 -0.6715885 0.19982703 0.22292076 0.04656071 -0.84101063 0.030097576 0.25942388 -0.08991977 0.66514647 0.3715374 0.1424625 -0.23381282 -0.03062998 0.688895
lump -0.14112994 -0.44485968 0.2354933 -0.93902636 -0.483859 -0.8965573 -0.31264022 0.17119327 -0.61928433 0.033448603 -0.15441908 0.2762621 0.3472994 0.8226756 -0.47940487 1.2650086 0.79346913 -1.2918185 -0.17797062 0.09317109
newly 1.4933192 -0.57451653 0.4398417 0.05481168 0.18134372 -0.97211987 0.358559 0.27286878 0.16456684 0.18551724 -0.14713861 -0.6831162 1.7746377 0.048433237 0.43932068 0.52224517 -0.5792071 -1.0201682 -1.0539603 -0.21567087
outstanding 0.4926303 0.0095942635 0.38332585 -0.3942891 0.39206284 -0.25372633 -0.15237513 -0.1286855 0.34731668 -0.14115167 -0.025880111 0.49980447 -0.10820883 0.63769436 0.28603116 0.33706522 -0.5686443 -0.66468525 0.3268782 0.035730943
damn 0.49338296 -0.446484 0.09633266 -0.9696041 -0.33470738 -0.84310645 -0.4932191 0.117706925 0.33109322 -0.106193095 -0.28049976 0.27110422 -0.41385677 -0.6972627 -0.26540768 0.5558573 0.40013373 -0.2888257 0.15574037 -0.1863088
typed 0.07320779 0.061126374 -0.48386094 -0.007841615 0.6211208 -0.39100513 -0.14043564 0.0032451074 0.25898263 1.1435089 -0.43306664 0.28369913 1.0233682 -0.41480884 0.58270764 0.49391836 0.1120595 -0.91865695 -0.17748229 -0.62206644
speeches 0.34910712 0.45222256 0.2871772 -0.34541088 0.17003168 -0.43672794 -0.26156595 -0.60822463 -0.31271437 0.23671487 -0.7727514 -0.28356835 0.02716874 0.42866242 1.0366277 0.5855197 -0.270703 -0.59876305 -0.6915714 0.008365057
orientation 0.14920919 0.13900314 0.021372406 0.0028897005 0.27244806 -0.24976952 -0.15707998 0.2192834 -0.6799396 0.12748027 0.1196015 0.6060785 0.6680332 -0.15712498 0.9319454 0.078791976 -0.39650452 -0.44302216 -0.04499173 0.20546733
formatting 0.2184643 0.3174289 -0.392769 0.20748083 1.3125414 0.4691523 -0.059737485 -0.13396837 -0.103754826 0.56836754 -0.19430183 0.39253896 0.9819494 -0.60390246 0.6440924 0.9725827 0.16736437 -0.31468615 0.50967056 0.3624073
peanut -0.54374504 -1.0414677 0.22615445 -1.4648638 0.22025166 -0.85367966 -1.6230332 0.5654327 -0.3350186 0.7577563 -0.10093416 0.40882623 -0.20559365 -0.44090152 0.7661469 -0.08943364 0.3479553 -0.16536354 0.82572985 0.4192018
crew 0.48958838 -0.54853487 0.5498505 -1.0727265 0.63804245 -0.35730597 0.022337051 0.30996466 0.11618343 0.37320527 -0.59351873 -0.059753858 0.15347749 0.1271016 0.3652407 0.5985906 -0.2767912 -0.010338512 -0.44394305 0.33199903
surely 0.72449714 -0.17420237 0.2295614 -0.4454321 0.22985293 -0.6488024 -0.087230265 -0.7279461 -0.011092374 0.52813864 -0.24156566 -0.15780409 -0.018066898 -0.13306235 0.5241314 0.19016731 0.006592258 -0.5538643 -0.1012333 -0.24026735
easily -0.025232058 0.2520055 0.4305869 -0.43416697 0.46253783 0.15629736 -0.34477335 -0.3769133 0.3404036 -0.03838211 -0.40098858 0.15031691 0.46212122 -0.115124956 0.39324716 0.9511269 0.02358601 -0.5708048 0.4476995 0.029652819
greed 0.098979905 -0.034179542 0.20692505 -0.51585126 -0.117816046 -0.6848726 0.21948555 -0.7010552 -0.09181937 0.43346354 -0.35896543 0.03137727 0.01838795 0.041713126 0.8939363 0.5110866 0.14519466 -0.44581053 -0.49991757 0.3863727
changed 0.03245816 -0.21255723 -0.026682636 -0.12849632 0.25534925 -0.32328555 -0.2689529 -0.4937578 0.2218683 0.068344824 -0.36892402 0.07731861 0.3757999 0.07124734 0.27050915 0.62032723 0.03603607 -0.7542774 -0.5651923 -0.20271742
missed 0.19700763 -0.24547356 0.062973805 -0.37230167 0.5622202 -0.29238823 0.09976965 -0.8781906 0.23554361 -0.47882023 -0.12628628 -0.17499582 -0.19448262 -0.028067037 0.36151028 0.48361802 0.032600544 -0.5750358 0.16223872 -0.26314008
magic 0.4290448 -0.4418507 -0.16715904 -0.74333626 -0.03568817 -0.14899246 -0.41216412 0.06518282 -0.06924925 -0.17967936 -0.35013098 -0.19320089 0.06868216 0.16713466 0.2788338 0.6033975 -0.8120148 -0.31603274 0.32801792 -0.20616236
depth 0.14761549 0.44027743 0.19451764 -0.61565906 0.27846783 -0.36568102 -0.13306426 -0.61776036 0.16253354 0.24966955 -0.65722847 0.34789544 -0.2987861 0.7575499 0.8201627 0.2685227 -0.38310206 -0.55004346 0.64508003 0.3625046
brat 0.00038523023 -0.29606497 -0.258316 -0.96678907 0.12807365 -0.08039261 -0.5436678 0.6821503 -0.19583806 -0.4849121 0.006010467 0.57968163 -0.057153143 -0.047744907 0.11381014 -0.14851938 0.53151125 -0.9963728 -0.7532961 0.78145903
side -0.090827994 -0.24454951 0.063066706 -0.7701065 0.3363876 0.101825185 -0.03647745 -0.06505073 0.15517093 0.38587597 -0.59062326 0.20499463 0.15956827 -0.056054477 0.064284325 0.76922953 -0.14985424 -0.40265027 0.20630354 0.17419682
breaks -0.35276902 -0.37252033 0.28021407 -0.8756186 0.17271203 -0.16014378 -0.48447132 0.13316157 -0.059111457 -0.25237796 -0.7836032 0.019534836 0.119731046 -0.36534002 0.43709317 0.5547428 0.21562661 -0.6065879 -0.11805012 -0.07501258
appreciate 0.54776394 0.2021831 0.27118015 -0.3333757 0.01660582 -0.5827922 -0.16760524 -0.5685785 0.07610881 -0.26367384 -0.30724844 0.13264632 0.21610524 0.120224096 0.5780573 0.060524333 -0.07843064 -0.7197654 0.26213768 0.09071237
loads 0.2299503 0.008845003 0.039740834 -0.09252034 1.0259167 -0.751748 -0.6232654 0.45201477 0.95299274 0.018404668 -0.51442885 0.56113994 0.81618816 0.18620652 0.79289114 0.28242385 0.48810264 -0.24232699 -0.33985385 0.28255096
wilderness 0.16617587 -0.72295237 0.2062709 -1.3171811 -0.6256797 -1.0684125 0.42275476 0.05789002 0.065631256 -0.40067336 -0.6423771 -0.18075617 0.19408637 0.25806683 1.0555682 0.39429742 0.28694445 0.14736931 -0.5839744 0.15290698
violence 0.017135028 0.21070181 0.10928182 -0.835161 -0.017269388 -1.0844767 0.037915427 0.33649254 0.06461001 0.121033534 -1.2206138 0.53560203 0.025848662 0.40481618 1.0340022 0.195942 0.024127303 -0.16845772 -0.5400372 0.28196883
helicopter -0.47750393 -0.57816553 0.013714161 -0.83706814 0.91501313 -0.48164025 0.2890811 -0.43237033 -0.43943667 0.09972323 -0.3778428 0.19239226 -0.256754 -0.37590694 -0.21293063 0.93734413 -0.008392762 0.020131629 -0.65669143 0.9905075
change -0.21208759 0.06900446 0.09198089 -0.39641184 0.41157687 0.17196241 -0.045165952 -0.56075656 -0.32467395 0.11588329 -0.7813819 -0.004281364 0.34041545 -0.061925877 0.37149867 0.56099516 0.21830027 -0.61818004 0.27876988 -0.021048019
cradle 0.43429255 -0.5500366 0.24697344 -0.7709721 -0.14780805 0.39791957 -0.6976126 -0.6749848 -0.26806012 0.69419813 -0.60718316 0.454851 -0.044201966 -0.28304806 -0.810207 1.759408 0.7085452 0.19108544 -0.023569768 -0.26518402
hitting -0.035651073 -0.49797916 -0.061982658 -0.7786735 0.4062729 0.15125896 -0.55508274 0.49231827 -0.34556302 0.057261456 -0.14695236 0.009342624 -0.14721428 -0.17170005 0.03381475 0.4560191 -0.020187644 -0.2988658 0.0319188 0.56668514
kind 0.29438293 -0.011209559 0.035142615 -0.6340137 -0.11926167 -0.47269928 -0.26682642 0.00890796 0.049414635 0.034784045 -0.48551214 0.14534451 -0.10899568 -0.109157175 0.15400068 0.65932727 -0.18336068 -0.35918707 -0.05015415 0.054265227
moisture -0.7267208 -0.5637354 0.27007097 -0.61127424 -0.5631986 -0.16917564 -0.8558454 -0.030528747 -0.22559434 -0.45017105 -0.8210998 0.5637084 0.4392988 0.28489476 0.33905655 1.5368949 0.17650722 0.3434265 0.8973046 0.32639015
consequences 0.102751166 0.2862895 -0.069848955 -0.121028155 0.12968937 -1.2100912 0.088052765 -0.08045671 -0.32808572 0.21935582 -0.8782154 -0.13060766 0.20222072 0.5415739 1.4074782 0.7056904 -0.13078068 -0.37725085 -1.0954982 0.42329705
work 0.43690395 0.004306398 -0.086431295 -0.19074322 0.11225644 -0.079889245 -0.49267417 -0.46123323 0.18656696 -0.008185641 -0.17379576 0.0783555 0.28122357 -0.16709511 0.38779882 0.81135046 -0.13053316 -0.41003895 0.35290357 -0.3048077
early 0.2969139 -0.63867575 0.37141234 -0.70181125 0.44950435 -0.55538267 -0.595054 -0.5999998 0.3144005 0.3577633 0.038216658 -0.18809505 -0.25300628 0.31779093 0.32202926 0.046573177 -0.050823387 -0.93634593 -0.2628176 0.031246034
narrative 0.42392293 0.39806116 -0.43015313 -0.5713655 0.4509427 -0.36382148 -0.20178035 -0.2491299 0.24309541 0.25391892 -0.4885879 -0.68997765 -0.19498926 0.7401893 1.1096337 0.70277846 -0.6702436 -0.42876846 -0.24978685 0.8429
metal -0.1361542 -0.39915496 0.72174823 -0.48926654 0.20289245 -0.03265869 -0.4573956 0.37622514 -0.46185812 0.37290728 -0.2661059 -0.014986065 -0.63942564 -0.18047275 -0.4783917 1.162619 -0.064712115 -0.7096538 0.18670943 -0.13214494
lcd -0.77128255 -0.1923443 -0.8432328 -0.5018934 0.7971271 -0.18413307 0.8214709 -0.15015876 0.34674978 -0.0045458716 -0.25947788 0.7184889 0.99832785 0.8204476 -0.45351294 1.1310166 -0.11012767 -0.52285683 0.49787346 -0.14569856
sent -0.10261243 -0.67703724 0.25222605 -0.6997668 -0.14505376 0.20705102 0.5625385 0.05440265 0.22647719 0.12011847 0.4742746 -0.12986322 0.9600062 -0.19980149 0.23956817 0.977357 0.48535573 -0.85910916 -0.3382198 -0.9820141
learnt 0.2871066 0.24314682 -0.3426923 -0.37691325 0.3240323 -0.43735337 -0.86522484 -0.57929504 0.28234285 0.0055244816 -0.36483338 -0.17692114 -0.097080946 0.26053977 0.4233257 0.22227237 -0.024471983 -0.7639265 -0.19335186 0.3378818
common 0.022729939 -0.0934708 0.26036957 -0.11257091 -0.015009181 -0.46072158 -0.09569026 -0.04967817 -0.053655513 0.49112165 -0.3698627 0.05774742 0.19548213 0.13024178 0.893373 0.5702918 -0.23480004 -0.71447563 -0.05674067 0.17549588
warned 0.92671925 -0.116406515 -0.21156967 -0.28286108 -0.1295679 -0.05074831 -0.21490434 -0.2531887 0.025277989 0.007638056 -0.23904504 0.15269095 0.3841872 -0.09438789 0.8045432 0.60123116 0.1870327 -0.29292685 -0.11534111 -0.6771306
greek 0.0077727395 -0.17713316 -0.21657316 -0.53985125 0.1036599 -0.43517542 -0.53215617 -0.17676659 -0.3358488 0.664 -0.18001032 -0.3694323 -0.1361567 0.23335142 0.9903241 -0.16719103 -0.26313213 -1.3787633 0.08454828 1.0444812
poorly 0.23540676 0.780408 -0.051146343 -0.43702677 0.28865856 -0.09896626 -0.09025011 0.35624313 1.0554425 0.03661638 -0.3217121 0.057440173 -0.15545203 0.34403333 0.57789785 1.3469316 -0.53985786 -1.0320171 0.22115916 -0.26440793
betcha 0.32510298 -0.27865037 -0.4653716 -1.6108834 0.65752167 -1.0295165 0.19602627 0.5912083 -0.63183284 -0.53271973 0.7528773 0.73636144 0.015801586 0.12493189 0.7126524 1.0672661 0.46675435 -0.88262993 -0.37315598 0.69705254
harmonic -0.121121936 0.03782505 0.31841615 -0.55395687 1.2038813 0.62445027 -1.0979216 -0.24822104 -0.74954593 0.14377345 -0.22525464 -0.14390384 -0.10797468 0.7056894 0.40999857 0.72852737 -0.6930835 -0.6599216 0.10893612 0.6631863
crashes 0.9171395 -0.13476302 -0.017111016 0.47120336 0.99420583 -0.54014426 -0.45523053 -0.22070293 -0.27955487 -0.43228987 -0.30274472 -0.47642165 1.1395682 -0.41298732 0.57880574 1.3486648 0.033326134 0.12552805 -0.19802031 -0.3722653
europe -0.26886418 -0.64289415 0.42329878 -0.34159085 -0.019590553 -0.80313736 0.05853234 -0.38749775 -0.05781283 1.2131387 -0.26693374 -0.28675154 0.2557296 0.6883018 0.12495468 0.39745808 0.6935643 -1.2208521 -0.31974137 0.5413782
respond -0.28296843 0.5333848 -0.19752875 -0.34773096 -0.0060292794 -0.30428925 0.13477261 -0.7914656 -0.6932158 -0.1838922 0.18556298 -0.21734804 1.1969808 -0.0535954 0.8001554 1.1904072 0.26489633 -0.20241593 0.097394064 -0.83253706
storage 0.20300063 -0.18639386 0.39178708 -0.22947063 0.55903673 0.5561614 -0.28830212 0.10643413 -0.2079508 1.0183755 0.27710876 0.75095683 0.550331 -0.057523478 -0.0034304727 1.0254344 0.6967011 -0.40376395 1.1581144 0.32122955
explain 0.26894024 0.4476448 -0.3024121 -0.51369727 -0.027893523 -0.3319476 -0.044723216 -0.71255445 -0.38999218 0.21155511 -0.2925811 -0.41571498 0.115007214 -0.25824752 0.91861075 0.53567827 -0.10503989 -0.41965178 0.08837559 0.3719494
perks 0.42573074 -0.5729827 0.33438528 -0.68205154 0.40201113 -1.0126487 0.06532736 -0.17664288 0.11612604 0.18569885 0.19771975 0.53018594 0.27427703 0.47859582 0.553402 0.5073527 0.39528742 -0.656183 -0.4220978 -0.056777164
resistance -0.5765882 -0.25480595 0.3690281 -0.2999127 0.0727802 -0.21356834 -0.11414606 -0.099407785 0.0034801816 0.12331088 -0.40881953 0.38415077 0.34034622 0.22009212 0.36344224 0.7100822 0.28180456 -0.4850193 0.47159037 0.30222398
dim 0.024372322 -0.07977063 -0.3541376 -0.76321715 0.1528434 -0.37372157 1.1227405 -0.538967 -0.4577982 0.20656769 -0.8690027 1.0558217 0.39538446 0.4954222 -0.08930548 0.682936 -0.38730344 0.34958458 0.8021484 0.4954996
drink -0.32685253 -0.5579636 -0.367145 -1.0133207 -0.320354 -1.0648502 -1.0468955 0.02602804 -0.04065289 0.0860233 -0.4318314 0.68688214 -0.097208746 -0.2520899 0.4148382 0.21641272 0.77001 0.25581416 0.44604594 -0.25940534
frames -0.48462546 -0.23439491 -0.13454719 -0.015903812 0.9290393 -0.65266705 -0.06443271 0.47565436 0.38215387 0.2202242 -0.5841797 0.5838989 1.154211 0.775558 -0.38566694 0.46787828 -0.002336502 -0.7751335 0.43426424 -0.2791965
says 0.22060508 -0.09712952 -0.14507918 -0.6873348 -0.15622777 0.1925951 -0.09077427 -0.4188917 -0.058323253 0.14228082 -0.0025347418 0.17816415 0.34386146 -0.20244122 0.597216 0.5637811 0.058093477 -0.45113495 0.21327801 -0.3404264
bases 0.21443108 0.16177863 0.2605988 -0.33808124 -0.13034925 -0.47538394 -0.42374527 -0.2908564 0.27384236 0.8284123 -0.5808497 0.23306724 -0.2978777 -0.18932946 0.70061904 0.6136898 -0.24035425 -0.64057654 0.023319298 0.15856902
less 0.23993635 0.045260955 0.36393204 -0.10995 0.18486843 -0.24791425 -0.5366959 -0.33495176 0.4027999 0.1453786 -0.47143337 0.64621574 0.08970063 0.2667455 0.35154313 0.8084486 0.27737704 -0.33622047 0.011578581 -0.40730697
smooth -0.19333443 -0.11189657 0.35698107 -0.43778318 0.28074077 -0.2029823 -1.1978024 -0.19410495 -0.06271817 -0.9909527 -0.42510635 0.5375499 0.233718 0.023599962 0.08639185 1.0351532 -0.56607485 -0.34050265 0.50123876 -0.11868308
nd 0.47842547 -0.9615854 0.1020731 -0.85999084 0.2861819 0.46324456 -0.15088779 -0.13750196 0.29392967 -0.20860529 0.008344548 -0.30664194 0.27672374 0.36867395 0.08598926 0.32451165 0.45131692 -0.6430955 0.30162513 0.036729366
linux 0.86002606 -0.6556742 -0.19722559 0.8197221 0.82944965 -0.37285727 -0.73440266 -0.07123458 -1.2516228 0.1564279 0.07050517 -0.31004837 0.56310964 -0.054979842 0.48380226 0.82260996 1.0297575 -0.34884495 -0.03992423 -0.28860575
air -0.3670499 -0.876744 0.5957317 -0.8151349 0.123034246 -0.13737723 -0.39255333 -0.3136199 0.17137435 0.12972458 -0.8428454 0.21804254 -0.3247654 0.3843991 -0.065982126 1.2847928 0.46606517 -0.105603695 0.018637674 0.0699196
adults 0.37315992 0.3235864 0.09487137 -0.45101634 -0.0046467218 -1.2318704 -0.7677539 -0.3199161 0.016788172 -0.10628482 -1.1057535 0.49779475 0.3494976 0.0770521 0.78810793 -0.31866702 0.2671882 -0.30564225 -0.0067854337 0.69312006
fairly 0.49731374 0.37581325 0.18951027 -0.12735836 0.37234116 -0.12214639 -0.6437189 -0.006888509 0.34260482 0.004263668 -0.43462583 0.46886584 0.16233595 0.4716001 0.5062015 0.74154013 -0.33737844 -0.38855258 0.43317118 0.12174687
diapers -0.32588336 -0.19036342 -0.043554638 -0.5194173 -0.445446 -0.48033014 -1.2971959 0.29049447 0.5542265 -0.12294835 0.10890522 0.683669 0.69597334 -0.2251031 -0.48331916 0.44716832 1.3354864 -1.0384836 0.5222033 0.15859704
performs 0.6136836 -0.34160236 0.35194433 0.21743457 0.18973264 -0.359253 -0.5291306 -0.39203957 0.2726419 -0.40033135 -0.009134956 0.56021875 0.62228554 0.5170741 0.04468484 1.061214 -0.6338193 -0.17194797 0.4610855 -0.37779352
progresses 0.079951644 -0.16895604 -0.01604433 -0.5940842 0.25726274 -0.15784535 -0.70137596 -0.08622588 -0.3109466 0.38155112 -0.3892709 -0.17074992 0.014130282 0.39229032 0.43036026 0.3362698 -0.24302009 -0.5287949 -0.3162089 0.68163055
dimensional 0.7748507 0.30993822 -0.22319943 -0.5929722 0.22974391 0.118096545 0.12162018 -0.07529666 0.60486996 0.4242933 -0.43568328 0.23565513 -0.34691644 -0.028409017 0.73947483 0.8599254 -0.4046046 -0.35354567 -0.34564805 0.59208685
item 0.33704913 -0.034500062 0.30327472 -0.7218366 -0.32442635 -0.22890872 0.049662527 0.4704027 0.10940218 0.0037855236 0.35731316 0.0033936338 0.78856283 0.7208421 0.25973326 0.8438749 0.6918164 -0.5085438 0.8477106 -0.7904119
considering 0.79936713 0.07339482 0.4568309 0.010417166 0.21565442 -0.64656895 0.16162302 -0.026127616 0.14415061 0.11951097 -0.09418305 0.75722057 -0.045199748 0.18524452 0.18063973 0.35248956 0.1591661 -0.38740674 0.023292718 -0.28946579
premiere 0.75931174 -0.55820346 0.6490692 0.20850478 1.7361718 -0.49308515 -0.0017580835 0.4639845 0.062898934 -0.3050444 0.54716724 0.53987455 0.36239478 -0.47103196 0.36776593 -0.21229753 0.40894598 -0.8616372 0.44544756 0.40715462
problems 0.11200624 -0.34911555 -0.3980313 0.32047176 0.23513135 -0.42562088 -0.1773223 -0.083264194 -0.04599052 -0.19061053 -0.015649932 0.38775542 0.57258373 0.07224279 0.48914206 0.97197264 0.16796663 -0.3183092 -0.27142775 -0.008304794
acting 0.7012106 0.3638597 -0.21344009 -1.1507561 0.030819213 -0.56009823 0.2857499 0.37773696 0.35682043 -0.35939977 -0.3025526 0.5245011 -0.100158125 -0.11327553 0.20929278 0.4871257 -0.72390634 -0.09056814 -0.3052167 0.29381993
distinct -0.2099774 -0.03134335 0.25857604 0.07989216 0.16080639 -0.5387338 -1.0211252 0.049067803 0.23705283 0.2520235 -0.674076 0.1171039 0.11695555 0.26871812 0.4520626 0.7451826 -0.3416712 -0.8214592 -0.27663913 0.4976448
value 0.6785946 0.2986183 0.59325576 -0.28890976 -0.15710716 -0.4076435 -0.2749901 -0.28725654 -0.110551335 0.43934575 -0.19816414 0.53693897 -0.06495016 0.36274537 0.6038717 0.50983286 0.09781078 -0.2764959 0.5253124 -0.37730205
reflections -0.58149236 -0.05298132 0.15247576 -0.21930778 0.6011397 -0.6697129 0.20315395 -0.65571296 -0.40611792 0.51339334 -0.4570003 -0.09342563 0.15139712 0.5306167 0.025703931 1.0498403 -0.8774492 -0.5529346 0.47448388 0.5032425
jim 0.3493974 -0.372339 0.38424963 -1.3335584 -0.20581749 -0.2631974 -0.4596917 -0.059580445 0.0819189 0.9737198 0.627932 1.1640745 -0.18297444 0.29430476 -0.063560225 0.3431911 -0.39076716 -0.09396286 -0.2160372 0.612457
runs 0.53245974 -0.19242086 -0.18201329 -0.14377283 0.586073 0.041100558 -0.8660406 -0.462879 0.3236848 -0.19075201 -0.5219603 0.09514091 0.6128892 0.47227657 -0.013180426 0.86766773 0.3347306 0.032274466 -0.500142 0.13428839
threats 0.217908 -0.45169714 0.15753506 -0.59874636 0.15447024 -0.3189968 0.33987644 0.014849359 -0.18347588 0.5288493 -0.522855 -0.05603176 0.6284591 -0.33201432 0.9992457 0.80072504 0.15428081 0.15694243 -0.7288039 0.29569387
mare 0.56587213 -1.179793 -0.85508823 -0.9733216 0.7671417 -0.55615765 0.38377044 0.70687324 -0.0015410539 -0.2952164 1.403772 0.6176189 0.38955936 -0.20371668 0.6833328 0.69630665 0.38770938 -0.9814215 -0.7135817 0.23678707
wacom -0.33219102 -0.4277732 -0.2525806 0.19007093 1.6235867 0.966015 -0.2222323 -0.20609787 -0.9840864 0.03287478 0.99750644 1.1992913 0.880015 -0.45300713 1.4290082 1.2215126 0.31950802 -0.03975381 0.3947808 0.42370594
extended 0.07785248 -0.7830896 0.7336835 -0.36112896 0.27347228 -0.004451331 0.17248315 -0.31177634 0.31217703 0.47498554 -0.054306507 0.33093014 -0.10169129 0.23981468 0.35286736 0.7539073 0.091383025 -0.5997271 0.1328515 -0.42161334
glasses -0.7148669 0.04902881 -1.0025324 -0.58997434 -0.25780922 -0.5892764 -0.012088431 0.29097846 0.48337647 -0.10051513 -0.48509058 -0.24255325 0.35142186 -0.4779337 0.21395229 1.3846035 0.6931084 -0.48643056 1.3190746 0.42749995
lil -0.2712646 -0.75100416 -0.29030046 -1.446381 0.8276576 -0.4278295 -0.5837592 0.23982598 -1.3164265 -0.08859781 -0.47443014 0.26109308 -0.36599374 -1.3464612 -0.73737174 0.06644658 -0.25331208 -1.0214154 -0.7228063 0.7853071
annoyingly 0.4030084 0.3047072 0.033897936 -0.8265998 0.083609566 -0.24280499 0.054066304 0.1336207 0.031516492 -0.50053674 -0.75878954 -0.20553213 0.3560435 0.21649082 0.3463292 0.36829096 -0.36663005 -0.9026751 -0.10095335 -0.045413513
endless 0.64548385 0.010388053 -0.21064933 -0.8420573 0.4817204 0.12429179 -0.23442614 -0.43596742 0.021228373 0.2566412 -0.57834274 -0.05914242 0.5516422 -0.045831375 0.8224596 0.50041723 -0.18854344 0.15863226 -0.22774306 -0.25601366
hubbert -0.21915992 -0.5929202 -0.7824498 -0.6231483 -0.010436399 -0.0966509 -0.52876 0.083325624 -0.19870262 0.6043605 0.27662593 0.6318433 0.045892633 0.4167955 0.4892935 0.3444432 0.04008945 -0.19583428 -0.1318136 0.13797063
vietcongs 0.54744625 -0.18009557 0.12834953 -0.9334419 -0.2822812 -1.6165091 0.537086 -0.4473977 0.25176895 0.4520023 -0.048233896 -0.3191169 0.0370388 0.8005252 1.0565748 0.846565 0.08821125 -0.6531215 -1.0234569 0.40490776
reexamine -0.12323754 -0.095394954 0.17942055 -0.66871196 -0.15744272 -0.6063821 -0.48408008 -0.09502062 -0.124707244 0.46679392 -0.18047488 -0.07713697 0.042857062 -0.093703985 1.2081553 0.5288625 0.00970572 -0.563457 -0.36736104 0.4904681
notetaking 0.10813888 -0.3588598 -0.23388635 -0.46272165 0.6694732 -0.39956963 -0.29040518 0.25562656 -0.5491099 0.11825631 -0.008128518 0.33151656 0.013048977 0.08920734 0.29530367 0.940619 0.062021215 -0.62891704 0.49535373 0.3683461
brush -0.53542924 0.19408076 0.19250508 -0.28307137 0.02320265 0.19706844 -0.87990636 -0.062273268 0.18388103 -0.40904167 -0.23758459 1.02317 0.006377896 0.034230277 0.24666372 1.5945281 1.04867 -0.38897747 0.54463387 -0.23089409
lyrically 0.49398577 0.28100097 0.6123662 -1.0862021 -0.045511477 -0.4669565 -0.7293028 -0.13471092 -0.25820154 -0.010793171 -0.6991758 0.17030193 -0.53248525 -0.051703937 -0.024179526 0.4956928 -0.53524506 -0.5814414 -0.15464792 -0.12594691
movies 0.9313362 0.12261246 -0.26601854 -0.68193495 0.6596611 -1.2029686 0.2998236 -0.057237864 0.46469602 -0.034678835 -0.46419373 0.29808047 -0.13693975 0.09049508 0.02453893 0.057927 -0.1316493 -0.28894842 -0.039898787 -0.20520921
eat -0.38679668 0.043835875 -0.5159202 -0.992907 -0.17030504 -1.1972169 -1.2189621 -0.53161794 0.0030163336 0.022483706 -0.41400668 0.2310992 0.114319526 -0.0887652 0.60205317 0.12461865 0.70823294 0.16803949 0.6380458 -0.22899543
played 0.504704 -0.27801207 -0.006973888 -0.9439322 0.27893028 -0.1534744 -0.53661555 -0.28829336 0.56181777 -0.23221518 -0.038386904 0.14898784 0.25930455 0.09254184 -0.15668765 0.21165407 -0.44132784 -0.756372 -0.5241402 0.29682407
inspirational 0.76252025 -0.08641636 0.023863344 -0.6022638 -0.037867937 -0.67676395 -0.23042545 -0.19428732 -0.2344712 0.1450969 -0.1597128 -0.19280544 -0.3714785 0.5667287 0.4318619 0.056307115 -0.67263657 -0.4124967 0.5370112 0.31155622
events 0.03920546 -0.019119695 0.2120566 -0.48551685 0.33227575 -0.7984776 0.1639168 -0.7967508 0.32990274 0.49909186 -0.6006464 -0.30673778 0.12718442 0.30661702 1.0247098 0.62465644 0.19831818 -0.18558487 -0.040458642 0.4382157
creek 0.7970801 -1.1127565 0.12109498 -0.98677033 -0.22284558 -0.44817227 -0.3961027 -0.578059 0.023768064 0.17458321 0.050251927 0.6618936 -0.21368687 -0.020995077 0.004282824 -0.08167855 -0.18765801 -0.45296285 -0.22180653 0.08636869
installation 0.43844277 -0.4068705 -0.71628445 0.4336049 0.9175132 0.33775055 -0.3388726 0.46119174 -0.2790762 -0.39922395 0.26889816 -0.3059366 0.93784547 -0.00051697466 0.67386174 1.2610692 0.17663465 -0.21667461 -0.35321015 -0.2721285
feel 0.32982805 0.33150432 0.111256965 -0.37313634 -0.11185448 -0.52177846 -0.5636634 -0.04555167 -0.0070868297 -0.34027013 -0.58354944 0.4211714 0.0046947817 -0.051066447 0.32559893 0.6007561 0.044050332 -0.30699733 0.25269687 0.015107117
time 0.2818441 -0.13161041 0.092723325 -0.46380118 0.31609848 -0.4659999 -0.4260116 -0.45223972 0.29473427 0.07031668 -0.29011598 -0.27027166 0.23788303 0.046181146 0.26912364 0.52223563 0.37362024 -0.36581385 0.17522754 -0.31285378
accepts 0.34757718 0.12925422 0.22392206 0.055597387 -0.095751815 -0.58780485 0.37289917 -0.66837096 -0.08527463 0.74502367 0.085320026 0.44204956 0.66120225 0.71925336 0.076911025 1.043148 0.10060207 -0.24659103 0.15689798 0.2367594
bonus 0.7662284 -0.45343027 0.4542037 -0.7617536 1.2243505 0.3111562 -0.34904522 0.24733533 0.18031062 0.36362123 -0.22704223 0.50312644 0.092423275 0.48110244 -0.12163089 -0.0072129844 0.0055504562 -0.45257488 0.3234059 -0.09666629
choice 0.74303836 0.14668119 0.7127169 -0.14969806 0.2202955 -0.32565987 -0.08615167 -0.41833973 0.10511618 0.1225431 -0.12827297 0.63819546 0.45349655 0.19141242 -0.036638405 0.3659206 0.07199574 -0.5404661 0.18923081 0.16483395
colleagues 0.23594308 -0.26057452 0.25978002 -0.16607459 -0.20091948 -0.49876863 0.28571168 -0.8038439 -0.009548905 -0.25788274 0.2372569 -0.086194836 0.8362719 -0.16478264 1.2860651 0.36888593 0.325081 -0.45696107 -0.27989095 0.7022314
newsweek 0.3646386 -1.2219452 -0.28155345 -0.3779117 0.71922594 -1.1152583 -0.031703234 0.32146928 -0.11975595 -0.66549593 1.581373 0.32952115 0.35760581 0.65534645 1.3824878 -0.34992483 0.12951225 -1.0872105 -0.20415041 -0.19760694
thousands 0.061176363 -0.24227501 0.42003897 0.31175005 1.2581432 -1.3640734 0.15901713 -0.7307697 0.41794017 0.7633367 -0.60171807 0.14166819 0.5767704 -0.35693488 0.65255755 0.2775778 0.8191798 -0.5821784 0.07154863 -0.41434684
track 0.410561 -0.16535288 0.39708424 -1.0803788 0.5082217 0.24704714 -0.67808086 0.03220916 -0.5195474 0.05966231 -0.25769448 -0.44174486 -0.22377667 0.18964964 -0.27591386 0.3178335 -0.12258846 -0.55882937 0.03217311 -0.052739188
scanned 0.25027135 -0.06768789 -0.6457896 0.41669196 1.4751408 -0.5849726 0.09456722 -0.04693042 -0.10408454 0.38914528 -0.40022406 0.4888163 1.1746399 -0.6032355 0.5633747 0.4529049 -0.2530352 -0.4914143 0.382669 -0.06314934
recommended 0.7149338 -0.40126425 0.36719242 -0.022041764 -0.34429583 -0.3080357 -0.4760528 -0.25600713 0.0035446698 -0.5919496 -0.03213639 0.08641418 0.108291015 0.32555094 0.9573712 0.38447908 0.16625583 -0.51132613 0.84289 -0.12095724
points 0.009133188 0.32767946 0.06522422 -0.48943645 0.32329038 -0.06460729 -0.13023375 -0.45124903 -0.13339534 0.081408225 -0.63354325 0.15113477 0.09401163 0.39335403 0.8445737 0.3384163 -0.06861318 -0.56262296 -0.016557142 -0.0107458215
quirkiness 0.5359717 0.32045555 0.07410902 -0.6740887 0.28112733 -0.4641215 -0.47987768 -0.16850425 -0.55002296 0.17216384 -0.060103282 0.3543581 0.26670882 0.24515085 1.2980889 0.72773826 -0.6875839 -0.44709802 -0.29168636 1.0364425
pulling 0.042609494 -0.60797876 -0.07759411 -0.3679178 0.17031384 0.20834342 -0.5929765 -0.09671054 0.3789473 -0.501587 -1.0077168 0.27754363 -0.099880464 -0.42515704 0.167577 1.0245126 0.3754799 -0.19275565 0.038096096 0.5305257
republish 0.77186763 0.2919628 -0.11172613 -0.55701065 -0.019392956 -1.1012805 0.35327238 0.26784998 0.28203622 0.40064314 0.12847055 0.28775156 -0.027450262 0.07530241 0.972779 0.40533924 0.16023049 -0.21826528 -0.11319134 -0.3590929
harmlessly 0.20769942 -0.15843739 -0.13746484 -0.5884441 0.4871102 -0.23154192 -0.62335443 -0.3377837 0.42421767 -0.37249336 -0.57314515 0.06151536 0.07166972 -0.18025629 0.93358064 0.7479113 0.048040878 -0.16542043 -0.7074374 0.89837134
club 0.3539643 -0.4922263 0.48985738 -1.1839315 -0.20445856 -0.4086052 -0.5294088 -0.12217991 -0.08787306 0.2633526 -0.23042537 0.24746723 0.12401004 -0.17536665 0.45266703 -0.52153295 0.3887386 -0.91328776 0.3678151 0.26632497
shipping 0.32158703 -0.01634498 0.5529072 -0.66468346 0.038328387 0.19355276 0.10569095 0.4456035 -0.04154746 0.7003924 0.3356644 0.60339385 0.78998274 0.4495319 -0.014226138 1.2828531 1.1544569 -0.5657898 0.105192766 -1.3423688
religion 0.08281589 -0.020539002 -0.35165992 -0.28442562 -0.6847226 -0.7393933 0.2245091 -0.32147738 -1.1759063 0.82531303 -0.027087953 -0.2776646 -0.4208651 -0.08080703 0.76491094 0.6703106 0.046869703 -0.68864113 -0.56003565 0.7751537
years 0.23550196 -0.5697224 -0.042450186 0.14940071 0.3899226 -0.81477255 -0.63061875 -0.3928923 0.7245969 -0.20540683 -0.21451035 0.111805364 0.145955 0.2518522 0.36669892 0.27009636 0.40275416 -1.0604299 -0.3620286 -0.36004916
greatest 0.68752986 -0.5392029 0.47257617 -0.6415267 0.47967568 -0.57015115 -0.18585107 -0.45439285 -0.48270106 -0.07032095 0.11217029 -0.29727948 -0.8130451 0.06521707 0.36867478 -0.07636319 -0.09613288 -0.9155895 0.22005473 -0.29799694
boring 0.7627626 0.46595916 -0.705187 -0.8031636 0.41804147 -0.23072986 -0.6381409 0.52349955 0.09009086 -0.23127046 -0.69131607 -0.19720323 -0.5064731 -0.20661563 -0.012896143 0.48308924 -0.17589612 -0.4205884 -0.33782902 0.098919995
scientist -0.058209818 -0.008153954 -0.037110165 -0.45461103 -0.15382656 -0.5719326 0.083090924 -0.28602576 0.20013031 0.22006102 -0.26812845 -0.015367762 -0.118268415 -0.3488881 0.8005369 0.60161835 0.20383719 -0.4427443 -0.13721813 0.9792504
factory 0.014563195 -0.8204344 0.035149068 -0.6798623 0.02428417 -0.3376881 0.12205918 -0.30937055 0.4119964 0.4482106 0.46970215 -0.06475967 0.80376345 -0.10987105 0.11837136 1.0460511 -0.72407037 -0.3009168 0.4100136 -0.48757395
solo 0.5599654 -0.44316575 0.448297 -1.026477 0.65551656 0.16734077 -0.8295761 -0.24501003 -0.5003135 -0.2814736 0.3129729 -0.20893912 -0.4614152 0.00067842007 -0.18909799 0.3759382 -0.6141014 -0.7346405 -0.009935623 0.11362047
criminals 0.36696815 -0.78204405 0.43219313 -1.1807188 -0.059294436 -0.34193867 0.5845534 -0.3780216 0.17711926 0.20283875 -0.75242436 0.7642032 0.119235076 0.027718317 0.35221818 0.46683803 0.008208287 0.024664069 -0.79332036 0.45829278
several -0.11257341 -0.3482738 -0.34709096 0.04429858 0.52038825 -0.5680807 -0.41501722 -0.20647998 0.6683269 0.00051567605 -0.30871677 0.071688116 0.6716192 0.41533732 0.6457095 0.38458875 0.2635965 -0.8125275 -0.065103695 -0.32213283
rebellion 0.18978626 -0.86706054 0.2833326 0.09491211 -0.1028195 -0.8783563 0.87035525 -0.13107596 -0.21025246 0.98765707 -0.53688836 -0.033053614 0.043346513 0.4622812 0.6579039 1.0834539 0.3290486 -0.3304471 -0.92694145 0.8440283
insight 0.26686296 0.39024207 0.12890425 -0.74809474 -0.2077427 -0.55003774 -0.031765368 -0.33134803 -0.21595436 0.44256467 0.15785944 0.13420123 -0.07718627 0.67837113 1.1503665 0.2543009 -0.20912807 -0.24703142 0.07509244 0.39325833
confirmed -0.058848638 -0.33887142 0.21295068 -0.21042842 -0.22211272 -1.0001411 0.09136763 -0.44480607 0.42732215 -0.4201377 -0.38554156 0.047756672 0.1887079 0.40396702 0.76093256 0.4959436 -0.23657747 -0.73498374 0.48383805 0.1868557
adios 0.7094873 -1.0397054 -0.6314562 -0.38734886 0.3222428 0.045828905 -0.15230557 0.19090907 -0.7451897 -0.6384519 0.1578884 0.078622624 0.48848563 0.10664386 0.010145454 0.3542592 0.09841336 -0.620048 0.09657477 -0.31850913
studio 1.0904465 -0.4693172 0.27389374 -0.0061271694 1.234908 -0.37990552 -0.24624337 -0.15257517 0.031009156 -0.24167256 0.29099676 0.33804268 0.34966776 -0.104138635 -0.13893473 0.36514208 -0.39743793 -0.35346484 -0.047407914 -0.3909819
ground 0.100973986 -0.34772876 0.21117218 -0.6196332 0.12451138 -0.16298753 -0.037492502 -0.6030361 -0.23111649 0.4248495 -0.4005837 0.0649161 -0.14861356 0.029277334 0.034489945 0.7189565 0.18749388 -0.3452666 -0.5241309 0.44124258
blowing -0.27003726 -1.0688876 -0.11164189 -0.6131731 0.30531436 0.22988431 -0.334484 -0.11703207 -0.17182842 0.305497 -0.97972786 0.17413166 -0.026828011 0.1472065 0.16889925 0.6546954 0.075316876 -0.28608167 0.2744893 0.07207534
week -0.33162066 -0.5442762 0.06533045 -0.38175648 0.40913942 -0.7148431 -0.50829166 -0.38599613 0.35995495 -0.490234 -0.033451274 -0.004088196 0.8777107 0.5027098 0.15023346 0.7167625 0.78141457 -0.42333707 0.07742903 -0.64258415
ask 0.26291853 0.040730644 -0.25868282 -0.5629763 -0.30283695 -0.42351475 0.11791415 -0.62992233 -0.44972888 0.048514254 0.06390522 0.0034190097 0.7104064 -0.31136447 0.59189403 0.44894436 0.20641825 -0.3378772 0.11696493 -0.6388329
file 0.25513768 0.007976824 -0.5642789 0.27004138 1.532555 0.29374897 0.09047231 0.10766348 -0.58776575 0.93724215 -0.030120097 0.6195951 1.1628604 -0.54231614 0.3190878 0.6665586 0.38419196 -0.7188717 0.15725726 0.021223914
happen 0.12218785 -0.17241645 -0.25213692 -0.4334942 0.12401223 -0.63057166 0.38322818 -0.40578926 -0.2093188 -0.064858615 -0.64085215 -0.20080377 0.26964426 -0.71809125 0.28444824 0.54109526 0.29081002 -0.47947606 0.15540391 0.15804468
buy 0.91925865 -0.061757687 0.25983432 -0.36564323 -0.17594625 -0.3581205 -0.18814735 -0.4374172 0.007011848 0.12572424 -0.1714209 0.37555388 0.3706765 -0.19037852 0.0636328 0.38831702 0.59580135 -0.56225055 0.74054444 -0.82206774
obvious 0.47610715 0.4742631 0.3086247 -0.35071832 0.17521302 -0.40797332 0.14226213 -0.51505005 -0.017555999 0.2801425 -0.49147677 0.16981982 -0.052971415 -0.021952635 0.44371602 0.7548347 -0.43083173 -0.61448646 -0.24601327 -0.107129864
falling 0.051351722 -0.6164701 0.29286113 -0.9338913 -0.63118345 -0.0775224 -0.1607792 -0.059709527 0.087870724 0.08221184 -0.40510896 -0.08338864 -0.07836027 0.19447841 -0.5865738 0.9663917 0.1764556 -0.4477446 0.10569076 0.6881977
universe 0.22804616 -0.332099 0.007587031 -0.9017063 0.06375741 -0.0023256275 0.06626754 -0.39296156 -0.52029735 0.87181145 0.17761217 -0.4170959 -0.032064393 -0.1830943 0.62453026 0.37306848 0.0144741135 -0.42485878 0.28813148 0.51286286
watched 0.69738203 -0.3261922 -0.69799995 -1.14562 0.2955206 -0.90418875 0.13589261 -0.09625429 0.48341104 -0.35478362 -0.6668067 -0.25514975 0.14735296 0.38692814 0.0032975208 -0.03684857 0.51035374 -0.4956224 -0.11666745 -0.5077807
dull 0.6693288 0.765439 -0.16524334 -0.9296614 0.09715941 -0.34934962 -0.5302482 0.05435038 0.23052408 -0.47947165 -0.73760873 -0.15129572 -0.5662886 0.18025574 0.302377 0.8218761 -0.44460872 -0.5905139 -0.27545804 -0.15462063
connected 0.59976166 -0.24207215 -0.56053686 -0.77966934 -0.071589716 0.3487369 -0.109406754 -0.5560202 0.21327612 0.544694 -0.83682835 -0.21197723 1.110767 0.39439133 0.30502734 0.87698007 -0.20477237 -0.2389391 -0.11275024 -0.14263436
predators 0.41905054 -0.49355298 -0.6538494 -0.35899544 0.42325717 -0.8330784 -0.018072054 0.5360514 0.19638176 0.1830463 0.24712086 0.56470567 -0.450985 -0.20306501 0.38141048 0.28613204 0.19657192 -0.6383571 -0.8465013 0.2390475
focusing 0.13520084 -0.025056854 0.76895434 0.11471628 0.55671036 -0.5069558 0.49605376 -0.078735955 -0.31425035 -0.036293447 -0.8162147 0.23028491 -0.10339168 0.3213257 0.24180353 1.0953412 0.0367163 -0.31158277 0.3044567 0.36389452
enjoy 0.71997535 0.07647614 -0.21915057 -0.6807372 -0.01869483 -0.73195606 -0.35736424 -0.34197426 0.24041773 0.04411314 -0.47793132 0.09786814 -0.0949245 0.056293942 0.2754756 -0.1165318 0.032381386 -0.62742335 0.65263534 0.19613747
film 0.58897275 -0.23288895 -0.37884808 -0.5658546 0.37926978 -0.6771656 0.6252944 0.57401556 -0.19215035 -0.14567906 0.33255702 0.4078901 -0.34202483 0.45268723 -0.044833828 0.71550083 -0.1459613 -0.2491532 -0.3090267 0.5794823
useless 0.6679069 0.44717887 -0.17097723 -0.39400417 0.059323315 -0.0017970334 -0.04744665 -0.31329432 -0.0058615543 0.36929533 -0.33673793 0.0513386 0.7154915 0.36080834 0.15330657 1.104152 0.051045813 -0.09839273 0.40501446 -0.44216117
british 0.21817274 -0.2127652 0.29087117 -0.44328034 0.275136 -0.6859675 -0.1403644 -0.34345707 0.07718976 0.69801897 -0.036567632 0.0675008 -0.3926204 0.39857078 0.45467082 0.50664276 0.0870543 -0.53098273 -0.8777028 0.3481184
sophisticated 0.72880644 0.5794356 0.2527112 -0.106899545 0.70955676 -0.55546284 -0.41681892 -0.37485707 0.061716918 0.11175465 -0.2247637 0.1475278 0.42526552 0.25617424 0.6507062 0.3491798 -1.050139 -0.5848201 -0.18323874 0.7174589
hits 0.33628455 -0.6637992 0.5533158 -0.9830377 0.8732254 -0.33088443 -0.41949975 0.04808913 -0.61392725 0.17592263 0.06490517 -0.34972936 -0.45889834 -0.08372005 -0.07159772 -0.039545074 0.08842169 -0.6779716 0.4368099 -0.22300729
menu -0.04737641 0.2734603 -0.26930228 -0.52793413 1.4112781 0.7722199 -0.29432657 -0.19297613 -0.65411735 0.15222067 -0.1876738 0.2672424 0.97269094 0.17433366 0.43724528 0.55792683 -0.08372721 -0.23250943 0.6780115 -0.00961369
sugary -0.078830026 -0.9316148 0.28145513 -1.4013654 -0.45405734 -1.11729 -0.56758475 0.048765324 0.022405075 0.65582484 -0.4477541 0.063329935 -0.37546524 0.11046186 0.5685083 -0.0040085274 0.22179607 -0.35052693 0.38823575 -0.17396091
shocking 0.6285186 -0.06337019 -0.09804846 -0.7262911 0.14960364 -0.8515647 0.53465533 -0.13677931 0.43300426 0.11227553 -0.62678105 -0.02900406 0.013868169 0.1878274 0.41496944 0.38979962 -0.3412761 -0.29827678 -0.11020045 0.13934512
element 0.011117386 -0.2561505 0.39776057 -0.30174363 0.3146858 -0.13308163 0.08698898 0.41741034 -0.32184508 -0.07345538 -0.5368773 0.38616446 -0.44964612 -0.12940623 0.42481497 0.6486403 -0.38577026 -0.46136093 0.5271981 0.7628135
grrrrr -0.68317205 -0.3764595 -1.2464412 -1.9891281 -0.30867514 -1.5910417 0.69066054 -0.13642804 -0.71716005 0.0471331 0.38377377 0.29011473 -0.26859167 0.37441263 0.1698609 0.28019056 -0.163931 -2.4993613 -0.490188 2.4062178
lbs -0.7280463 0.29561305 -0.13122153 -0.25467068 -0.041598033 -0.8315463 -0.47521815 0.47055888 0.08591334 0.16340506 0.24818482 0.3675777 -0.19456133 1.1832161 -0.17439051 1.5453976 1.2424965 -0.6950714 0.6733507 -0.2978239
powerpoint 0.59915876 -0.0773319 -0.28654286 0.15337758 1.2881601 0.7833915 -0.71635294 0.24686432 -0.6744113 -0.12488226 0.2685614 0.31163242 0.2953712 -1.0168685 1.3330771 0.43557343 0.40482458 -0.86456853 0.51769954 0.37297365
chances 0.22333181 -0.26209697 0.3596521 -0.98554313 -0.0775383 -0.5217748 -0.2535208 -0.31506142 0.116275646 0.097820416 -0.37503573 0.2602283 0.1067226 -0.3037219 0.31512234 0.44871837 0.037035268 -0.07117421 0.13161239 -0.56451327
spills -0.42204022 -0.8308587 -0.44387567 -0.78391856 -0.115312286 -0.32928568 -0.89970076 0.36916813 -0.113436185 0.017145254 -0.9155205 0.1973756 0.36353955 -0.094739854 -0.19983256 0.8752097 0.9011044 0.043762565 0.52453214 0.7133098
blue -0.53179663 -1.3325559 0.04741853 -0.83488715 0.39314044 -0.3686395 -0.20202897 -0.25541753 0.04940628 0.06611742 -0.57172734 -0.09570574 0.3486171 -0.15679866 -0.16041225 0.57775545 -0.47537804 -0.580419 0.69834435 -0.23932014
noisequot -0.12981495 -0.6011926 -0.049818207 -1.176463 0.5403768 -0.28173766 0.01921282 -0.5169917 -0.21068405 -0.07322187 -0.8238941 -0.019279419 0.0507009 -0.023288792 -0.39261788 0.46250227 -0.18664694 -1.0089568 0.18502812 -0.35662916
noticed -0.49248815 -0.35713968 -0.02457953 -0.43364835 0.011919016 -0.20539857 -0.18345511 -0.15448995 0.1897629 -0.50366336 -0.5389817 0.3034792 0.34727037 0.2736975 0.36232555 0.75502884 0.19580577 -0.7095587 0.41736466 -0.52460724
schulz 0.011798072 -1.0182183 0.12854393 -1.7196461 0.51515585 -0.33184877 -0.13104808 0.747095 -0.8186168 -0.7489608 -0.2872746 0.55932325 0.114405446 -0.3025737 -0.4045341 0.68995523 -0.08943136 -0.07146612 -0.80688715 -0.24427204
finish 0.45668945 0.20435458 -0.46236762 -0.94496316 -0.011427214 0.09404885 -0.26361775 0.1177783 0.3150155 -0.4637564 -0.3813123 -0.063433446 -0.17600213 -0.11262204 0.5436297 0.8654688 0.33230105 -0.2771939 0.44984445 -0.287883
manscaping -0.112533875 -0.22418876 -0.04526103 -0.65972334 0.31908357 -0.6460246 0.14539476 -0.12250282 0.004611361 0.48238906 -0.39259255 0.16092768 0.3312288 0.21729839 0.01837964 0.8770725 0.1306504 -0.2737422 -0.48548752 0.895227
flaw -0.08381719 0.057222486 -0.13476521 0.04179054 -0.06622902 -0.18193008 0.867368 -0.27245829 0.2392161 0.20268641 -0.45747125 0.87317735 0.55917 0.39902446 0.70731854 1.0851318 0.21502422 -0.5915498 0.08906684 -0.1902825
jessica 0.89608103 0.011638995 -0.40830612 -1.5009964 -0.054335047 -0.6754579 0.8359352 0.17004664 -0.28162143 -0.5469945 0.17802672 0.3381036 0.1702381 -0.25591892 -0.34511563 0.076738134 -0.27501702 -0.48413506 -0.5913882 1.0975574
grooming -0.17449902 -0.48351333 0.24467488 0.028796837 -0.35836148 -0.22649005 -0.64868236 -0.38497373 -0.41733703 -0.012046902 0.1456402 0.70130014 0.04933088 0.16225326 0.5056109 0.50369316 0.070596896 -0.35062402 0.2275071 0.3276619
darkness 0.38123116 -0.65257376 0.28142524 -0.9705996 0.004730112 -0.83403283 0.36003515 -0.589113 -0.43890834 -0.70452696 -0.9424904 -0.2843448 -0.47305012 0.70175815 0.23668118 0.48854485 -0.59711236 -0.2023612 -0.058974393 0.5267165
snack -0.3106631 0.0071228193 0.58005434 -1.3323385 0.06633771 -0.61137146 -1.3562385 0.42465448 -0.057673685 -0.021395165 -0.29519817 1.1444442 0.71037847 0.05598498 0.41949144 -0.091238566 1.1884412 0.25437167 1.6496867 0.18798603
book 0.42949477 0.2591994 -0.3605652 -0.673331 -0.19093984 -0.44135875 -0.06771421 -0.14890255 0.21698497 0.24760242 0.015687883 -0.15632246 -0.05709088 0.12979542 1.051609 0.17748265 0.17742223 -0.612675 0.4868363 0.24325629
neck -0.62314075 -0.24432564 0.031226546 -0.23825277 -0.10770593 -0.124092504 -0.77331716 -0.068770714 0.26256427 -0.10085563 -0.2957195 0.32866785 0.19300838 -0.53854084 -0.32582054 1.855965 0.3394846 -0.2815801 0.7504642 0.44219103
topics -0.3906899 0.56663245 0.07842187 -0.28506562 0.42147216 -0.5450555 -0.2585369 -0.31445238 -0.3892782 0.6781888 -0.12957714 -0.042534936 0.16013841 0.24556513 1.4751056 0.17531282 -0.1610982 -0.9589977 0.38842207 0.33508635
bigger -0.15279932 -0.15158054 0.022165349 -0.21939759 0.3574925 -0.22840199 0.34987298 0.11379809 -0.0028398852 0.173136 -0.15026334 0.7945511 -0.19122879 -0.012339461 -0.37969172 0.9682886 0.36351576 -0.9133849 0.028728696 0.34522194
flames -0.19866753 -0.8106753 0.00019985123 -0.6103346 -0.15537395 -0.41637883 -0.74902856 -0.26659402 -0.37035367 0.07681181 -0.81967205 -0.14753325 0.24759847 -0.19504099 0.30536342 0.3723517 -0.025364999 -0.32720414 0.049076784 0.15177284
digital 0.3542027 0.04952751 0.3075085 0.8274367 0.5206735 -0.91276026 0.67460257 -0.26287737 0.08798804 0.0881923 0.07919551 0.50977635 0.91757524 0.6016845 -0.53090024 0.66809267 0.20796669 -1.0636412 0.5633483 0.1419956
joan 0.6055781 -0.48547384 0.052946612 -1.0779678 -0.19011956 -0.01970424 0.294839 -0.56156844 0.38577703 -0.1315863 0.3138081 0.06920451 -0.25293803 0.09425457 -0.21464942 0.515217 -0.33533737 -1.0219404 -0.9638525 0.38353318
rogue 0.109259166 -0.2562022 -0.06777717 -1.197322 0.15821116 -0.04698812 -0.13731484 0.17607565 -0.3484175 0.2842039 0.17825909 -0.03323458 0.34416705 -0.27888373 0.13405877 0.55347437 -0.26683426 -0.037557658 -0.5363819 0.3138216
jvc 0.6200054 -0.13660654 -0.43587822 0.23583397 0.017006148 -0.5185058 0.65355885 -0.7123486 -0.33035287 -0.02986359 0.41730568 0.5388345 1.1086727 0.8598213 -0.15672691 0.7158068 0.15533435 -0.8603214 -0.12469237 -0.68121463
cantina 0.3823087 0.34952825 0.026177978 -0.6073401 0.35569623 -0.8863297 -0.061935868 -0.09829491 -0.43215975 -0.68229336 0.007010923 0.25316072 0.51483965 0.049643293 -0.46243247 1.1139692 0.13523014 -0.36167765 -0.73377603 -0.3789226
least 0.48273456 -0.03238255 0.085591875 -0.40580383 0.22731246 -0.23438242 -0.43054733 -0.3766633 0.2344834 -0.07265517 -0.24186793 0.24502571 0.08649447 0.0747514 0.15581308 0.40566757 0.19779399 -0.40435487 -0.055500355 -0.35563952
lo 0.44029242 -1.317357 -0.39061928 -1.37707 -0.955809 1.3217793 -0.987926 0.037396 0.23925635 -0.89256287 0.7406734 0.30742317 0.1252127 0.8520675 0.6776608 1.0747846 -0.08149532 -0.9288987 -0.106560834 -0.57220554
commentary 1.073414 -0.18740869 0.13440238 -0.87448937 0.6426577 -0.24731295 0.08170124 -0.007552937 0.1727911 0.6544074 -0.1376593 0.2573786 -0.23326413 0.82223964 1.0725691 0.16882555 -0.602985 -0.02247452 -0.36594984 -0.14342351
limitations -0.06585157 0.10574255 0.31098628 0.17206798 0.33846414 -0.12144901 0.19447239 -0.53103536 -0.32656962 0.39196685 -0.25983292 0.62138873 0.15180793 0.27079603 0.5481745 0.6985411 -0.2675081 -0.64811116 0.7264779 -0.111736014
zone 0.8179045 -0.7674938 -0.23795828 -0.02265234 0.14317836 -0.2619959 -1.0237981 0.64478964 -0.5091929 -0.14725997 -0.5480272 -0.09529715 1.2452489 0.29868776 0.73684597 0.53570217 0.3561025 0.09855407 0.27097672 -0.21750826
kits 0.3627052 -0.4398239 0.7583141 0.1073105 0.17845479 0.089019895 -0.52189744 -0.30016375 -0.746353 0.047124363 -0.21157259 0.47720528 0.20509702 0.54887635 0.7683324 0.6316014 0.40147933 -0.24539809 0.80115503 -0.39876345
billion 0.06285893 -0.7839847 0.31971774 -0.962167 -0.030843453 -0.355523 0.36867732 0.23190385 0.13572933 0.86127067 0.3903411 0.33930853 0.31457067 -0.3259969 -0.1691897 0.7366821 0.19746043 -0.4067895 -0.9268771 -0.3080745
chosen -0.29191563 -0.21760309 0.32145175 -0.34138438 0.40402707 -0.2525482 -0.66099316 -0.034079287 0.20100774 -0.19930683 0.010125286 0.48443866 0.01606247 0.19410534 0.52322054 0.33129987 -0.2779176 -0.8756811 -0.46824345 0.18000336
wedge 0.061001483 0.007806335 0.6535342 -0.02354086 0.6050441 -1.1258523 -0.29630736 -0.90053326 0.39790916 0.7392981 -0.4929678 0.075637944 -0.10330033 0.745236 1.2043667 1.3034357 0.111069106 -0.7687037 -0.25436363 0.31854525
organisation -0.5514832 -0.25828075 0.022568608 -0.83358526 0.08512488 -0.23611613 -0.63691014 0.03409919 -0.5203519 0.098298565 0.5332769 0.3232128 0.25078985 0.38104215 0.81834984 0.18853307 -0.21978769 -0.8893845 0.14592789 0.97030675
xd 0.845089 0.20204166 0.12808862 0.07580783 1.0034623 0.037250865 0.27067325 -1.244376 -0.10467305 0.6898769 -0.22588666 0.63617253 0.98725665 0.87368816 -0.21731079 1.0916424 0.5289903 -0.38557965 1.1209602 -0.5182313
plastic -0.3837918 -0.21704312 0.44270143 -0.766706 -0.32197732 0.2967441 -0.21013844 0.5743787 0.53181607 0.41184965 -0.14371139 0.27383238 0.12969819 0.009905551 -0.08005004 2.048125 -0.042345107 -0.44992048 0.790065 -0.32328686
sun -0.12096745 -0.8958687 0.3548551 -0.5351976 0.049016457 -0.5066091 -0.087275796 -0.68621814 -0.27924132 0.21044536 -0.6344339 -0.04879316 0.125798 -0.1299539 -0.1117694 0.6094922 -0.26694638 -0.39083552 0.8250949 0.19305293
savaged 0.072905965 -0.7658403 0.17657515 -0.50077635 -0.0005715728 -1.2951809 0.19392344 0.13321824 0.8488714 0.57214344 0.46929735 -0.012795391 0.43210596 -0.32572207 0.9278868 0.2830265 -0.09318949 -1.4923316 -0.3760826 -0.032449063
printer 0.5921489 -0.4392595 -0.98425525 0.45183954 0.692268 0.29942596 0.6717079 0.17271408 -0.3471648 0.21920523 0.5958651 0.6575427 1.2519747 -0.16998497 -0.1408978 0.96678305 0.17330489 -0.68551624 1.0406339 0.13692257
liberty 0.37325424 0.1399577 0.13797069 -0.87743336 0.099273846 -1.4724815 0.2517427 -0.23553027 -0.3900117 0.060995992 -0.61975974 -0.46323216 0.20181705 0.86037254 0.97412115 -0.17939392 -0.8133612 -0.8593625 -0.6967494 0.14817767
conspiracy 0.5240464 -0.33888116 -0.12687196 -0.78937155 0.012486842 -0.53238755 0.18760985 -0.18930206 -0.34379593 0.9323194 -0.87356704 -0.33162123 -0.45766094 0.35050645 0.8934135 0.76830167 -0.28165522 -0.0720008 -0.25460765 -0.11297136
paper -0.12594616 -0.33571193 -0.5458613 -0.54603535 0.7607388 0.14620416 0.030995829 0.31374246 0.3807861 0.868838 0.26980272 0.7649182 -0.019616397 -0.59276956 0.5363379 0.6469423 0.38290092 -0.38830343 0.7162959 -0.10071179
warrenty 0.5914312 -0.31647193 0.8571365 -1.1222267 -0.2214602 -0.40634203 -0.470111 -0.61028874 -0.20364638 0.74991626 0.28401268 0.3278256 -0.2774251 0.114342324 0.296513 0.53051037 0.10040064 -0.47325847 -0.531471 -0.2574427
conditions -0.4128056 -0.4437512 0.23406374 -0.14527605 0.086050436 -0.8042213 0.1737622 -0.6756951 -0.24249211 -0.12239838 -0.8887494 0.5252658 0.28412297 0.94638443 0.38886845 0.72596115 -0.2808423 -0.12605293 0.6873395 0.23762923
tandy -0.14039654 -0.1557135 -0.0011358749 -1.0689993 -0.4124484 -0.7425804 -0.62499774 0.400118 -0.2765109 -0.11017513 0.45767534 1.2410989 0.21245399 0.3319008 -0.21582903 0.98413485 0.35768497 -0.8578865 0.5611595 0.61756605
replacement -0.140521 -0.38159236 0.1620139 -0.49978265 -0.26857895 0.10116369 0.15145035 -0.0620411 0.4898422 0.059043054 0.24575475 0.40214178 0.6280753 0.50504655 0.22376518 1.3138561 0.8279378 -0.40888992 0.23689778 -0.8712291
ridiculously 0.5272953 -0.08166617 0.17484136 0.06437294 0.5015457 -0.485108 0.0015601502 -0.14267932 0.20432113 -0.093233995 -0.644314 0.20853025 0.13441065 0.17323965 0.34480473 0.9850204 0.017660726 -0.28034714 -0.10574296 -0.35913217
banking -0.24115945 -0.52773297 0.07194541 -0.10832276 0.71389943 -0.60466474 -0.02640677 0.0049375542 -0.65247536 1.1152931 0.546489 0.7279799 0.5330882 -0.40687454 0.9797359 0.35720897 0.5413662 -0.23364474 -0.581996 -0.48104706
smart 0.2782489 0.21092755 -0.1172954 -0.75293976 0.09837382 0.0419653 0.10391997 0.08178434 -0.279829 0.17280789 0.023668798 0.7751934 0.015762752 -0.60095006 -0.018057171 0.16455841 -0.14143643 -0.39798376 0.44356945 0.8254997
reminds -0.0063390266 -0.3664417 0.080657534 -0.6909207 -0.008692852 -0.4701394 -0.48666817 -0.14778283 0.0014444279 -0.16302976 -0.40364552 0.0075632283 -0.19775784 -0.45056173 0.27372703 0.08544477 -0.37320632 -1.0538043 -0.011881761 0.16665825
march -0.12912706 -1.0534829 0.19093437 -0.5141149 0.2140846 -0.009605476 0.50004095 -0.41977113 0.6030716 0.002215139 0.10863679 -0.33497804 0.23342556 0.14856935 0.1142696 0.5532816 0.15563689 -1.1792645 0.0034385284 -0.026587415
edition 1.2228119 -1.2808574 -0.1875571 0.15086213 0.4892297 0.22807004 0.15983179 0.31841582 0.17314838 0.51848084 0.467457 0.38737506 -0.0028817758 0.49157923 0.5459349 0.12755516 0.21388423 -0.7648875 0.300352 -0.2399435
beam -0.77213615 -0.5692838 -0.42034787 -0.61395836 0.6710336 -0.4463643 0.84508055 -0.7487179 -0.23904972 -0.32942027 -0.095230125 0.11265573 0.14604849 -0.21597223 0.2688494 1.267972 0.5889809 0.294518 0.9239643 0.48669365
dual 0.82124144 0.037978556 0.2816529 0.12960137 1.1139141 0.546417 -0.88738215 -0.2810149 -0.35202155 0.24357377 0.027034087 0.32788354 0.5274166 0.30418134 -0.20649265 1.7111694 0.07587592 0.54854786 -0.078372166 0.49727562
knob -0.42933795 0.07131699 -0.5658831 -0.55827886 -0.561192 0.54334503 -0.30669606 0.5067677 -0.0053886827 0.26170212 -0.61080545 0.4562462 1.0378546 0.90210897 0.64109683 2.0976198 -0.13476586 -0.0015751774 0.6026446 0.6317382
match 0.1752553 -0.057848405 0.47195587 -0.95656973 0.8119432 0.2425304 -0.031641915 -0.31221643 0.42999908 0.42382252 0.16989936 0.3968234 -0.27092713 -0.0886282 -0.017142532 0.6522023 -0.25075045 -0.37824306 -0.15066321 -0.07048893
lastly 0.16044599 0.38870072 0.1999983 -0.85378134 0.2692462 0.3840699 -0.9312483 -0.24925184 0.60831213 -0.099280745 -0.46236575 0.10024221 0.061466254 0.0376741 0.6880539 0.62339544 0.19401406 -0.82862544 -0.17368318 -0.5359009
soapbox -0.27366692 -0.16765483 -0.052270655 -0.40739632 0.68252337 -0.4904056 -0.5181384 0.10734238 -0.017913671 -0.15441182 -0.7229682 0.27507907 1.0352626 0.033445418 0.4658518 0.6631549 -0.35753754 -0.85082626 0.48536733 0.0004634519
usm 0.7602902 -0.8947129 0.6543675 0.133809 1.1005228 -0.3019345 1.3867807 0.012817843 -0.79797685 -0.15289125 -0.050355367 0.85902035 -0.99288183 0.54595035 -0.4549047 1.3388727 0.35645056 -0.85999644 1.3517257 -0.17143117
genius 0.81509924 -0.01974303 0.09167458 -0.6967721 -0.047770247 -0.39738378 -0.2695644 -0.16634952 -0.2343744 -0.21912098 -0.03861366 0.20516731 -0.36454117 0.01366394 0.25740886 0.29145062 -0.93128824 -0.6205384 0.035235018 0.15983117
enhanced 1.5147886 0.02851235 0.034436747 0.17183915 0.7584953 -0.33185315 0.07520361 -0.42384246 0.008447779 0.45534757 -0.7114351 0.8167137 -0.017554574 0.4793682 0.6868407 0.29441923 -0.75913393 -0.2785764 0.22222336 -0.037969597
helps -0.21918544 0.07344822 0.2725226 -0.39835215 -0.13456436 -0.14089586 -0.24447437 -0.6673437 -0.25452617 -0.12838902 -0.62836665 0.50648266 0.28894857 -0.06300352 0.7725495 0.5485137 0.027301122 -0.26293495 0.731209 0.2605421
told 0.40057725 -0.038058635 -0.10295623 -0.6232644 -0.13273855 -0.3914566 0.29231483 -0.5226757 0.3240583 -0.1430217 0.07889299 0.03429302 1.0939761 -0.030386256 0.4659057 0.6083421 0.0561281 -0.45192167 -0.43096307 -0.64733166
word 0.43123028 0.3713521 -0.3723832 0.21453758 0.72291875 0.19582658 -0.442515 -0.006729741 -0.44560707 -0.004993336 -0.1956655 -0.39904073 0.4714495 -0.5469857 0.8604044 0.48931837 0.1586142 -0.98671144 0.08371453 0.20057184
bounds 0.01899379 0.16875772 0.068551466 -0.5584132 0.28109214 -0.53486866 -0.12095044 -0.21067806 0.62007946 0.48798627 -0.09551344 -0.5497422 0.28195453 -0.14642312 0.2814997 0.34592733 0.47699797 -1.1232098 -0.31998098 0.046344876
shame 0.6269196 -0.005185787 0.48417547 -0.73636556 -0.004658711 -0.6332161 0.051881913 -0.072435044 0.11371053 0.34623855 -0.36819467 0.36905783 -0.38620707 -0.44765323 -0.052952863 0.5495885 -0.0062219244 -0.6431752 -0.061920065 -0.5938536
owner 0.6079923 -0.7265519 0.025235144 -0.40870246 -0.018837858 0.19047807 -0.22592273 -0.028548062 -0.039250296 -0.19474395 0.81125045 0.78171146 0.5699077 -0.6852378 0.32740298 0.51467675 0.37229964 -0.4234276 -0.09676932 0.37457818
uv -0.48329532 -1.0149567 0.76696783 -0.16652045 0.2900441 -0.8328918 0.74378026 0.036547013 -0.3143674 0.29465604 -0.44906855 0.9901591 -0.034988664 0.4448272 0.20417397 2.1528397 -0.14685436 0.29421154 1.2665741 -0.5397477
steady -0.20520645 0.1529826 0.41058755 -0.43943617 0.37930417 -0.23728573 -0.21392463 -0.95750326 0.15670876 -0.042407237 -0.35899195 0.79023457 0.015385377 0.43204984 -0.3918422 1.0478951 -0.10459749 -0.105817415 0.67151505 0.7526783
husband 0.32957953 -0.31049904 -0.09714444 -0.684219 -0.5587679 -0.2651095 -0.22160521 -0.38848487 0.59900063 -0.7911838 0.23564123 0.21754263 0.75319 0.20648114 -0.13723168 0.45422703 0.59244335 -0.72028923 0.09757452 0.42127195
entertaining 0.8422928 0.3618533 -0.39613268 -1.0676433 0.078491 -0.6272386 -0.11223385 0.068701446 0.26030293 0.01356879 -0.20797947 0.20076583 -0.4164951 0.4234227 0.6131959 -0.017259903 -0.43858364 -0.19339074 0.08497863 0.29186812
roll 0.016902756 -0.5971329 0.1249603 -0.8415981 0.5718586 -0.16919726 -0.5145762 -0.2543532 -0.1572482 -0.07780486 0.2730535 0.44185877 -0.50257844 -0.32342064 -0.45122355 0.21812686 0.18922396 -0.50923544 -0.13343062 0.29393685
electronic 0.4059746 -0.11954771 0.4865274 0.01679575 0.5333819 -0.005867277 -0.76132745 -0.40587464 -0.5360975 0.53288865 -0.3530755 -0.031208746 0.2785617 0.36099285 0.046803456 0.69197875 -0.15976854 -0.7382684 0.30562863 -0.3649069
pains 0.17077656 -0.10296691 -0.16670536 -0.26571745 0.31098974 -0.5966331 -0.10542491 -0.3105064 0.24555498 -0.4673955 -0.50377655 0.5508837 -0.52781814 -0.23692474 0.47887322 0.36493918 0.32216206 -0.41029269 -0.14280556 -0.021346044
wo 0.58129525 0.28859866 -0.21734703 -0.64434165 -0.073929146 -0.06470542 -0.20539337 -0.5889251 -0.3642341 -0.21066597 -0.19200532 0.2015107 0.12094794 -0.46311665 0.16547574 0.6790173 0.40644583 -0.3076541 0.6502277 -0.7256309
valkyries 0.1537811 -0.331929 0.06213351 -0.75022507 0.17400685 -0.6324701 -0.50201106 -0.061563034 -0.19410568 0.48658264 -0.3659201 0.26124457 0.056940727 0.6673746 0.80607605 1.2021039 0.46574476 -0.6906068 -0.12195097 0.18511568
within -0.101345025 -0.2545004 0.2886733 -0.5473701 0.2523695 -0.28080264 -0.36253503 -0.49071914 0.2334806 0.3513832 -0.33990604 -0.37765083 0.8956272 0.68422973 0.5028568 0.6723532 0.34097472 -0.3865893 -0.04203349 -0.2096002
intermediate 0.7105131 -0.30627468 0.31661332 -0.109585874 0.2121825 -0.28196946 -0.93133307 -0.53903127 -0.17120147 0.2934641 -0.1524741 0.3539582 0.29081833 0.2987932 0.9188917 -0.50140166 0.5684469 -0.66462564 0.8017208 0.20389833
portraits -0.26598 0.04914833 0.7192133 -0.47582027 0.58185345 -0.7513186 0.6328935 -1.1918869 0.133784 -0.0036986046 -0.5948739 0.56205326 -0.14319678 0.34167328 0.22547781 0.6951963 -0.32637265 -0.36825436 0.88289773 0.8738009
musicians 0.31243503 0.23277523 0.5597445 -0.60843647 0.5286107 -0.74097246 -0.79125696 -0.45144793 -0.37840196 0.099089384 0.10673504 0.25902197 -0.040342554 0.051972814 -0.24143592 0.06610662 -0.69149625 -1.032327 -0.23635437 -0.1974284
ohion -0.25729105 -1.5238414 0.19787186 -1.1110476 -0.488503 -0.21277319 -0.006887539 -0.3020664 0.24912448 0.5379422 0.34585384 -0.3836588 0.03398134 0.38682273 0.34700063 0.9487089 0.48211062 -0.6509029 -0.18813206 0.89361227
raised 0.03282621 -0.32297963 -0.18592057 -0.788303 -0.53254783 -0.5613472 -0.05152569 -0.707685 0.4075644 0.49677688 0.3238633 -0.04514694 0.29615912 -0.10463529 0.7519949 0.30549535 0.25415373 -0.8695865 -0.46949196 0.36529282
contains 0.1978603 -0.67744774 0.3096657 -0.8162846 0.34638163 -0.25671625 -0.5821709 0.65079284 -0.4620296 0.71831805 -0.6837315 0.16854495 -0.054386463 0.44501987 1.0571253 -0.10371489 -0.20233358 -0.3932242 0.6926341 -0.548016
strongly 1.06494 -0.2556997 0.20847557 -0.056542784 -0.5983167 -0.5706358 -0.20477878 -0.34604415 -0.21429886 -0.16776253 -0.25182292 0.32960734 -0.06469357 0.17965902 0.82955784 0.36612046 0.39027578 -0.20084299 0.9574778 -0.15457195
lovers 0.2312738 -0.66115844 0.4759597 -0.89027023 -0.5346548 -0.7150689 -0.64558554 -0.19027407 -0.29922017 0.06883003 -0.016011253 0.10839864 -0.45968142 0.016336417 0.16235362 -0.06392719 -0.14745092 -0.91617626 0.16453266 0.40004584
muscles -0.28754595 0.11425768 0.14010873 -0.77983224 -0.078972146 -0.024247194 -1.3224947 -0.34746018 -0.4591219 -0.3413057 -1.0468929 0.39771512 0.5870009 0.01665148 0.2890291 1.2458938 0.38941708 0.58375573 0.5100253 0.2523387
users 0.5124248 -0.06098 0.056363106 0.7833503 0.55775625 -0.41339818 -0.3124052 -0.14916822 -0.59690964 0.3821997 -0.24683237 0.3031617 0.7469812 -0.29316902 0.67453873 0.9463064 0.28544983 -0.446235 0.17450377 -0.38860506
pere 0.13264842 -0.8521168 0.3495844 -0.57115495 0.32492068 -1.3930755 0.050393537 -0.05185066 -0.42986682 -0.69356465 0.51186126 0.3692682 -0.39262027 -0.05682151 -0.23944569 0.11840694 -0.38416764 -0.8624472 -0.67535096 0.30357817
uncover 0.58455825 -0.37760228 -0.10436037 -0.96023446 -0.19636196 0.17652105 0.8509314 -0.39751828 0.051654726 0.68752813 -0.29372647 -0.035869543 0.35352337 -0.14244905 0.98770815 0.5998939 0.3288968 -0.40796936 -0.106429234 0.69467413
products 0.33018067 -0.39613304 0.0040845517 0.4679588 -0.08832417 -0.77925986 -0.29087126 0.6152747 -0.30301398 -0.21132071 -0.017390722 0.8142795 0.5516551 -0.12087353 0.79833186 0.7605767 0.14961153 -0.6825894 0.25009534 -0.690418
surrealistic 0.45541656 0.035140786 0.090511635 -1.1363995 -0.041947994 -1.0304096 -0.0011963408 -0.36367124 0.3644618 0.101798 -0.831678 0.14612663 -0.4127662 0.41918415 0.545373 0.44290268 -0.43308508 -0.07126436 -0.22867177 0.8731052
showing -0.09959222 -0.14371754 -0.09897933 -0.6766196 0.53813803 -0.13840507 0.013959051 -0.3184828 0.20345522 0.20174833 -0.5087702 0.38253537 0.2362709 0.039810453 0.31331936 0.3769219 -0.5368918 -0.36103103 -0.04109886 -0.06903288
jackson 0.5715966 -0.15585063 0.33194947 -1.161401 0.15490387 -0.039406527 0.1110647 -0.078155175 -0.32839492 -0.24762678 0.5162177 0.29360905 -0.5239371 -0.3259065 0.32775936 0.49776313 -0.62054557 -0.46442655 -0.58644915 0.07025912
preach 0.45269585 0.4443988 -0.17843737 -1.051934 -0.42308828 -0.44061425 -0.122660674 0.28097594 0.009635179 0.19974567 -0.7277448 -0.15505505 -0.5609177 -0.22707437 0.3855908 0.51160574 -0.37685192 -1.1357149 -0.5240771 -0.098339014
clicking -0.4793558 -0.23848714 -0.07126332 -0.36825165 0.74404067 0.39342752 0.149173 -0.029602764 -0.4959808 0.019294469 -0.6195896 -0.123160325 1.2354841 -0.7538494 0.331839 0.8219968 -0.005751919 -0.8777875 0.43394032 -0.3485616
photographed 0.015264813 -0.60191715 0.29282162 -0.05612125 0.531072 -0.56055987 0.55716264 -0.798036 0.18828182 -0.07471862 -0.47115427 0.1614373 -0.002636926 0.48281085 0.5791045 0.5213988 -0.8383178 -0.7054184 0.61965346 0.55140173
tim 0.8286868 -0.21984299 0.0015825544 -1.0344976 0.32191303 -0.1376573 -0.24150512 0.32333764 0.22812116 -0.058998883 0.89131165 0.54095596 -0.721876 -0.19385593 0.4483598 0.7894522 -0.75178325 -0.20320447 -0.7022554 -0.16838132
remove -0.2532642 -0.48140106 -0.3910601 -0.043311626 0.36104274 0.35436124 -0.3376194 -0.07435015 0.14903045 -0.34586275 -0.47410414 0.14805019 0.70926213 -0.5382195 0.67447263 1.7019345 0.11726269 -0.24806514 0.59238863 -0.47314188
citybut 0.15190567 -1.2066348 -0.15334623 -1.213842 0.5835692 -0.25930727 -0.3983736 -0.08574527 -0.31108725 0.63523144 0.3844397 0.14559451 -0.5116628 -0.1701518 -0.068209775 0.21411327 -0.074864715 -0.72624063 -0.5369656 0.56041956
marlon 0.6263166 -0.038142532 0.52645546 -1.3711171 -0.481144 -0.7965318 0.3485178 0.4597297 -0.013773811 -0.33037958 0.05231873 1.2363106 -0.12651636 -0.342064 0.20523472 0.320748 0.049069 0.048528377 -0.96237594 0.7499979
guess 0.45184803 0.21209277 0.08348139 -0.40941796 0.05679011 -0.41288143 -0.045950286 -0.22224101 0.21945444 -0.15964931 -0.37214518 0.24171263 0.3235559 -0.42218176 0.106903665 0.5894407 0.2533256 -0.5800778 0.05973367 -0.2600581
role 0.61358833 -0.04222789 0.3361896 -0.9696186 -0.1547671 -0.18524408 0.08894757 -0.23411675 0.5839207 0.079742976 0.026256096 0.7114042 0.032944944 0.41419208 0.2132155 0.7219902 -0.38473713 -0.1490753 -0.9024732 0.6120775
eschewing 0.12623008 -0.7172858 0.060643297 -1.0671217 0.55617845 -0.3943271 -0.107952684 -0.07915352 0.43278557 0.27311713 -0.029126827 0.67402 0.20194733 -0.23746777 0.46230057 0.6534335 0.4045658 -0.32761216 -0.052114073 0.29502472
visiting 0.38594666 -1.1257651 -0.14524348 -0.6088879 -0.3865948 -0.66760176 -0.053614307 -0.13013251 -0.06872378 -0.08771644 0.06744822 0.13987559 0.9530136 0.10449767 0.51557493 -0.30287328 0.7971025 -0.117560826 0.11720329 0.25249732
dreams 0.4903062 -0.65055525 0.3788108 -0.94291365 -0.38728932 -0.9382271 -0.2694137 -0.42986813 -0.22159983 0.055688914 -0.4387182 -0.4521376 0.32423115 -0.16228312 0.3964922 0.081779264 0.04789592 -0.40086305 -0.44277057 0.55041933
chiklis 0.94586897 -1.0071493 -0.8728882 -2.037587 0.14853892 -0.8620116 0.95252925 0.17640337 1.0136772 -0.6429191 1.490717 1.8435516 -0.113511145 -0.7074342 0.17406961 0.30498245 -0.10833502 -0.4010526 -0.17474534 0.033522543
tragedians 0.35524604 -0.36808974 0.18193838 -0.5804801 0.124741055 -1.1966102 -0.31542918 -0.24202693 0.0058431393 0.19824654 0.27190417 0.16628382 -0.17312802 0.1928426 0.7186155 0.25273514 0.27561438 -0.5796454 -0.73324263 0.56660056
thrown 0.8448218 -0.18388642 0.08574226 -0.8079982 -0.052854776 -0.2664344 -0.17258513 -0.2950887 0.14681874 0.33693734 -0.64911616 0.07205557 0.24916162 -0.0934011 -0.07227701 0.41742215 0.21135278 -0.2292229 -0.094979696 0.2647419
contacting 0.5159858 -0.14687899 -0.0026805722 -0.42492688 -0.23059276 -0.40804774 0.1952226 0.03955942 -0.064030774 0.09747357 0.7661641 0.40195462 1.521443 -0.43832394 0.39343208 0.64920276 0.15287557 -0.5140227 0.20928003 -1.0971006
romance 0.5993442 0.04683367 0.03457728 -1.0031726 -0.2570986 -0.79971796 -0.05835132 0.25239655 0.7463989 -0.29730514 -0.34232014 -0.014866362 -0.30499464 0.37320817 0.7603961 0.4145517 0.367655 -0.21294515 -0.16743338 0.9236978
manually -0.3184107 -0.10516555 -0.5799617 -0.22054407 0.8710142 0.33736745 -0.018242966 -0.6341321 -0.28580073 0.04988753 -0.6924438 0.1473604 1.1795143 -0.13413893 0.7321246 0.7268906 0.7662494 -0.27205428 0.5360089 -0.36469206
adobe 0.83219373 0.13527696 0.10559046 0.58966905 1.1327803 0.11740795 0.31713992 0.34977913 -0.6517467 -0.46819985 -0.14567314 0.50940955 0.9711414 -0.67638046 0.968165 0.4562339 0.1661367 -0.8556198 0.069755115 0.2088457
urban 0.4695604 -0.35777494 0.17319325 -0.7331648 0.27093503 -1.3380942 -0.111851074 -0.09301727 -0.8156709 -0.23622718 -0.17207202 -0.090464145 -0.7484935 -0.37118664 0.40777346 -0.0025916854 0.37883717 -0.11339562 -0.093499355 0.93687034
guys 0.29563078 -0.016865047 0.07338692 -0.9964235 0.21841942 -0.7714893 -0.26041728 -0.2423365 -0.071688086 -0.28454944 -0.52806574 0.4935837 -0.07330369 -0.77343786 -0.31558144 0.3073255 0.17809367 -0.4743438 -0.5193543 -0.15999493
dr -0.11715482 -0.49264944 -0.15464705 -0.7674136 -0.32331604 -0.11156736 -0.19096234 0.2414952 0.32314593 -0.14540692 0.4658168 0.17045176 0.06754406 -0.3607415 1.0028679 0.42682737 -0.44579512 -0.7943976 -0.37582636 0.65022373
ontario 2.020477 -0.75699556 -0.35912004 -0.47053078 1.6994317 -0.2717104 0.32203832 0.11534919 -0.12667544 0.15707582 0.805796 0.5564156 0.86733055 -0.12161968 0.24984375 0.623665 0.12820639 -0.61741906 0.5509277 -0.35046384
batteries 0.092836395 -0.023831036 -0.17063814 -0.25735176 0.14057064 -0.3456648 -0.26545104 -0.57095706 0.29262048 0.45393175 0.3578042 0.24752262 0.5199376 0.88882244 -0.7262623 1.698893 1.0378441 -0.017579552 0.43468708 -0.4157363
strange 0.24262075 0.08514259 -0.089014105 -0.6831712 0.102330476 -0.4092418 -0.46598873 0.042599052 0.17086752 0.24519873 -0.5482328 0.07623564 0.34240544 -0.09607929 0.08823969 0.20400491 -0.28046945 -0.47679564 -0.22484209 0.36927676
photograpy 0.23431292 -0.12357257 0.48953494 -0.015200995 0.43362325 -0.6874315 0.5109166 -0.6219576 0.22678173 -0.057571147 -0.22086544 0.41280317 0.5601384 0.53255725 0.26533383 0.41735855 0.020387635 -0.4262628 1.0103605 0.4857637
canadian 0.5042277 -0.83038574 -0.22282702 -0.8867701 -0.113831185 -1.0541692 0.19126347 -0.6097753 -0.07687997 0.53121763 0.12236946 -0.07851115 -0.16968353 0.22479355 0.9142518 0.11153765 0.20942637 0.19349326 0.08122167 -0.3478922
pat -0.06715517 -0.22681245 -0.16368975 -1.3010463 -0.2624903 -0.4706777 -0.38387102 -0.3646929 -0.30678186 -0.53359 0.97827166 -0.15399359 -0.5573505 -0.8897672 0.13502596 0.34761247 -0.24733067 -0.7431364 0.027289422 -0.10736628
cynical 0.07449627 0.41033617 0.33202794 -0.8686837 0.03859507 -0.8893698 -0.11249359 -0.3171234 0.0252876 -0.06735569 -0.52356195 0.05593068 0.17950232 0.22932981 1.1565638 0.53158957 -0.4488508 -0.004730003 -0.43514094 0.60784656
ell 0.38965404 -0.9107858 0.8345815 -1.6689266 0.008026337 0.49487534 -0.71369827 -0.25777608 0.16664462 -0.9014036 -0.20556597 0.36747265 -0.14879072 -1.1899508 0.10869434 1.3953345 -0.49040657 -0.7278775 -0.03507606 0.39114603
quarters -0.0859386 -0.40743527 -0.012631637 -0.6898187 -0.18585609 -0.45165792 -0.06820492 -0.32285598 0.503836 0.42649937 -0.3003862 -0.20157906 0.19986616 0.5443132 -0.042073045 0.7583727 0.1325572 -0.541544 -0.39098874 0.029953377
plain 0.12661116 0.5579386 -0.08990736 -0.63373655 0.2575868 -0.63450724 -0.13272585 0.17162739 -0.1367869 -0.24579383 -0.887727 0.09790429 0.08300527 0.005759597 0.08539305 0.33245286 -0.3678086 -0.671477 -0.03176013 -0.12733349
social 0.32839924 0.23678233 0.3544602 -0.33865574 -0.065365314 -0.7074252 -0.2011499 -0.26614344 -0.5054968 0.8762447 0.27605525 0.14033669 -0.013434183 0.500488 1.1261421 0.4164455 0.022926036 -0.182985 -0.43741417 0.5935896
creative 0.88651747 0.10684376 0.6752564 -0.09858751 0.83714384 -0.22520407 -0.1695893 -0.40522888 -0.16733977 0.07026716 -0.10786069 0.5642508 0.45515272 -0.2870947 0.76920533 -0.30231878 -0.48606125 -0.6378098 0.3208162 0.583441
comparison 0.42275578 -0.35924274 0.16562623 -0.08141797 0.07497565 -0.38812715 0.19723625 0.0476856 0.23520397 0.32075444 -0.36305806 0.5398907 -0.27702096 0.12014984 0.022797223 0.86194515 -0.57319736 -0.74347705 0.23485096 -0.35794815
plays 0.6278422 0.025872076 0.19284998 -0.9735197 0.26736104 -0.26916656 -0.3022826 -0.50759035 0.29501793 -0.25415638 0.114539295 0.40917724 0.054057017 -0.14797603 -0.03254353 0.3459985 -0.68729997 -0.37299377 -0.5504424 0.7433631
known 0.52638453 -0.4865648 0.21829928 -0.42281818 0.11842487 -0.32995826 -0.06491176 -0.509692 0.12093739 0.174136 -0.12163866 0.08968436 0.22879575 0.1275827 0.47875082 0.458028 -0.23176436 -0.48189014 -0.165795 -0.19710201
hour -0.040793423 0.204468 -0.3967225 -1.0799342 0.5298207 -0.24663906 -0.6825344 -0.66937774 0.42876565 8.1539154e-05 -0.17225623 -0.42559293 0.5998511 0.4414027 0.17018539 0.7741304 0.4737171 -0.00841618 -0.041861583 -0.6002127
latest 1.095735 -0.73788434 0.0044116597 0.22075216 0.39652044 -0.013920234 0.05472418 -0.34553903 -0.20572163 -0.11696705 -0.008315551 -0.124367855 -0.03940685 -0.17583795 0.5386427 0.3121489 -0.09599004 -0.8467104 0.10881118 -0.33779645
roots 0.08455548 -0.57517165 0.42681617 -0.2566802 -0.09806029 -0.6872408 -0.6160593 -0.86187345 -0.70272213 0.032745227 -0.5434231 -0.6228995 -0.3286843 -0.4755328 0.3316601 0.45627028 -0.04430706 -1.0361228 -0.18676543 0.23104838
dream 0.23768821 -0.7623966 -0.1984403 -0.76129735 -0.03622595 -0.70757127 -0.050134484 -0.09439356 -0.043261584 -0.04989915 -0.42181543 -0.25706205 -0.10883566 0.03808066 -0.008931684 0.09570944 -0.18566473 -0.8168446 -0.040446088 0.2206791
need 0.29006794 0.021704968 0.07715791 -0.2242804 0.029492324 -0.17469217 -0.33785418 -0.6818915 -0.052444708 0.17867474 -0.27672243 0.47150385 0.3699542 -0.43958026 0.34785247 0.7385331 0.20849796 -0.20254868 0.69477963 -0.14306031
followed -0.11216916 -0.16193953 0.032013923 -0.51033044 0.5546507 0.025607845 -0.4730929 0.11674199 0.2494028 0.15079738 -0.13144864 -0.5886809 0.31413645 0.073782876 0.5643155 0.75178033 -0.059417646 -0.8229013 0.03191269 -0.23612238
cover 0.016572872 -0.58708817 -0.28632626 -0.71390855 0.1331976 0.17647894 0.2285499 0.059514187 0.20665194 0.16033366 0.13691102 0.124084845 -0.26761472 -0.011704182 -0.10770167 0.89815336 -0.2600697 -0.96391094 0.5915062 0.0027228037
checkpoint 0.49570718 0.025030874 -0.531491 -0.16386159 1.0260551 -0.120727085 0.17285138 -0.13839887 -0.33653614 0.634862 -0.1690442 0.39806202 0.3149224 -0.32783708 1.0221792 0.593315 0.4773341 -0.92399967 0.43099734 -0.13425514
alba 0.7119426 -0.017933475 -0.48346376 -1.1874045 0.29273465 -0.599433 0.9371721 0.4348685 -0.5761187 -0.63461393 0.2504176 0.747945 0.30242506 -0.62052864 0.108721375 0.6146699 -0.16968915 -0.18159713 -0.90119517 1.8166974
disaster 0.31516653 -0.26451916 0.10890454 -0.5126495 0.37126324 -0.48483625 0.33679238 0.17155111 -0.5247453 0.20077257 -0.30449796 -0.2156079 -0.059007045 0.4175707 0.3982002 0.6642714 0.18159987 -0.17436239 -0.5935843 0.039074507
normal -0.2728647 -0.12193119 -0.110296026 -0.04023675 0.031364862 -0.4269933 -0.109912656 -0.39073178 -0.036512874 -0.23771462 -0.43976015 0.65938646 0.38157025 0.19116087 0.21398203 0.78934 0.36486796 0.16356835 0.14280838 0.42943788
selfloathing 0.42986065 -0.20121275 0.039526384 -0.60729796 -0.2990913 -0.6224824 -0.1779106 0.38058677 -0.4071737 0.12336094 -0.6740378 0.025796803 0.29970878 -0.39733678 0.5761585 1.2732631 -0.3716676 -0.4229897 0.21754482 0.60503745
cd 0.93875575 -0.43123865 -0.21469408 -0.53646266 0.20323995 -0.29506668 -0.51856166 0.43678373 -0.73699963 -0.19003989 0.660664 -0.19616708 0.0872684 0.18724263 -0.44919458 0.09707549 0.07596182 -0.6912813 0.22446835 -0.19893569
left 0.070955396 -0.2632904 -0.035616376 -0.8694699 0.017698966 0.09785234 -0.16034164 -0.4763435 0.30309448 -0.09738206 -0.39799908 -0.13677226 0.22470212 0.023704886 0.4327194 0.6991003 0.10581992 -0.43337366 0.0025565028 -0.033550467
software 1.0481497 0.13097061 -0.13449705 0.46139368 0.49778304 -0.18165454 -0.28753743 0.10609662 -0.28642 0.13547274 0.08731155 0.24569981 1.3228583 -0.019248653 0.5280466 0.7531019 0.11321926 -0.40976125 0.20382144 -0.34155673
actual 0.18700762 0.13424025 -0.3799559 -0.47771874 0.084973246 -0.23867922 -0.17690304 -0.15217067 0.14312921 0.5882913 -0.53425586 0.40497673 0.2535292 0.0410267 0.71601444 0.5522278 -0.22623737 -0.27333316 0.21318601 -0.34260896
bookkeeping 0.53152275 0.010769078 0.14493898 0.13030028 -0.09351795 -0.2875523 -0.38185436 -0.3080774 0.018786544 0.65784085 -0.4118743 0.5924643 0.7845496 -0.55804634 0.5074373 0.79153824 1.2126755 -0.22957404 0.19120955 0.007202405
badly 0.4563905 0.16713119 0.103665896 -0.63464284 0.12996869 -0.15746607 0.28610137 -0.28437483 0.25405663 0.08467191 -0.4642601 0.11297737 -0.0837252 -0.59100825 0.40223488 0.7173459 -0.3281461 -0.81182754 -0.20219205 -0.09526531
group 0.12719864 -0.24383931 0.5842657 -0.6769387 0.53456444 -0.5999183 -0.46010265 -0.647309 -0.22185265 0.24892981 -0.21210547 0.10958712 0.11569743 -0.44707742 0.20999423 0.10283556 -0.32047018 -0.69812214 -0.34864166 0.06339179
trust 0.75321 0.049545214 0.114939384 -0.55770916 -0.30949154 -0.4246153 0.0007815838 -0.33958483 -0.17396435 0.43398598 -0.20242503 0.22877362 0.109855525 -0.2333333 0.2862857 0.3701816 0.6380309 -0.0309424 0.5566752 -0.2486925
watch 0.95145917 0.06589771 -0.3016247 -1.2026075 0.22716017 -0.7649957 0.08405702 -0.17751335 0.33914122 -0.18513106 -0.718437 0.14105488 0.28600022 0.10420031 0.066444725 0.10806155 0.18935885 0.15602769 0.11776422 -0.18523127
riffs 0.28130266 0.59012187 0.7955714 -1.1682054 0.78224593 -0.13037154 -0.9910396 0.6597744 -0.46239847 -0.14489792 -0.33268538 0.1805622 -0.4080083 0.2228701 -0.467184 0.42522874 -0.6747553 -1.2839214 -0.12810804 0.28219685
groove 0.5394218 -0.55115265 0.40642405 -1.0442079 0.61428624 0.58335215 -1.4436214 0.19356334 -0.8024613 -0.18135455 -0.25156522 0.18915023 0.013272512 -0.15028258 0.11601696 0.3748327 -0.65582734 -0.3426123 0.6556542 0.5314773
edit 0.5497787 -0.000987741 -0.365059 -0.09310961 1.5082129 0.14183241 -0.18056963 -0.10995707 -0.21202546 0.25753558 -0.15673454 0.4130684 1.0818808 -0.39275596 -0.10547454 0.04906932 -0.065434806 -0.7787272 0.6236298 -0.029848294
russiathe 0.6001808 -0.15470734 0.17043927 -0.8387141 -0.11874884 -0.7644135 -0.34893203 -0.34793302 -0.14613256 0.8600749 -0.13488087 -0.5803107 0.011427777 0.6877306 0.8011221 0.74102825 -0.14953299 -0.8863626 -0.82438123 0.6848276
cure 0.14485298 -0.3325135 0.048611864 -0.029112626 -0.74688077 -0.6963028 -0.15118404 -0.3229954 -0.46128398 -0.46594277 -0.8372597 -0.41625726 0.14143613 -0.24703364 0.8767486 0.60486007 0.010873838 -0.83327734 0.109091595 0.35441992
interface 0.74701995 0.5749885 -0.47623366 0.7593864 0.8539045 -0.072590224 -0.5363602 0.1870673 -0.15874496 -0.24059735 -0.18376684 0.59473264 0.87533224 -0.12746441 0.41031516 0.7829725 -0.19681461 -0.6883502 0.15070774 0.32016206
success 0.12531058 -0.2724162 0.3487665 -0.47285518 0.051922135 -0.5192924 -0.4205242 -0.71206117 0.104561254 0.21224351 -0.23801172 -0.04628955 0.30376703 0.10074094 0.49213418 0.3692963 -0.035208527 -0.43243408 -0.04265323 0.01197655
maybe 0.32612026 0.12573591 -0.123091 -0.4815765 0.121631965 -0.39143074 -0.10395718 -0.30332625 0.2719892 -0.1550059 -0.28365317 0.29956362 -0.04323445 -0.23397137 0.10136716 0.43300408 0.26796198 -0.708605 -0.042433277 -0.2773256
cloud -0.1967424 -0.6936771 0.03597536 -0.7985273 -0.31712878 -0.7009072 -0.124085255 -0.09158383 -0.26904505 -0.34322673 -0.945042 -0.28163284 0.26416954 -0.31646615 0.40008864 0.77929085 -0.40668023 -0.406571 0.29689485 0.31818768
seventh -0.15513285 -0.8632052 0.13469559 0.113318175 0.22151864 -0.18098836 -0.92729765 -0.36546487 0.32663745 -0.015467171 -0.59249777 0.12802498 0.30143887 0.75514036 0.36904314 0.5688916 0.7464579 -0.88180226 -0.19050281 0.49379733
brilliant 0.711893 -0.023848234 0.41445437 -0.7459507 0.21719109 -0.32287136 -0.11307932 -0.36400238 0.06265878 -0.27194136 0.022893531 0.04768751 -0.23406167 0.3313847 0.38544026 0.19042341 -0.8664221 -0.6450522 -0.13731952 0.17295481
incredible 0.5788765 0.058879722 0.49537152 -0.4774178 0.29009867 -0.37470007 -0.17238408 -0.46233743 -0.08072067 -0.2403551 -0.39105192 0.4646752 -0.1072258 -0.04632638 0.26481065 0.32334763 -0.61576116 -0.33164182 0.3546088 0.17715536
depressing 0.36109924 0.09319169 -0.030149085 -0.6600758 -0.29761863 -0.76741445 -0.37287548 -0.46764663 -0.18029512 -0.42029968 -0.7633901 -0.17186557 -0.22995603 -0.028392566 0.33920068 0.38378367 -0.25397593 -0.5079292 -0.26670608 0.12097359
movement -0.34864593 -0.18707123 0.5282066 -0.375055 0.33097187 -0.26381212 -0.014118892 -0.5539878 -0.24376309 0.12956788 -0.76672924 -0.29111478 -0.12717558 0.80941415 0.31089476 0.5949411 -0.15472925 -0.7492778 0.1255212 0.58009946
leave 0.03453996 -0.2945494 0.29136753 -0.8670189 -0.09851353 -0.22285086 -0.38507968 -0.76156414 0.23330584 -0.19206032 -0.60301524 -0.009534061 0.29269207 -0.4729841 0.3283923 0.6277392 0.28947088 -0.31090155 0.223124 -0.12005551
waltz 0.640481 -0.16894208 0.65911293 -1.7136652 1.7714329 1.0802708 -1.0619501 -0.28121325 -0.50870425 -0.09659216 -0.6029354 -0.7596583 0.01267743 0.786803 0.53298503 0.41469735 -0.34092313 -0.45024303 0.1773383 0.5624769
saver 0.24683069 -0.06668882 -0.19802013 -0.20645946 0.25732833 -0.19241184 -0.70085603 0.26561713 0.36891222 -0.47207636 0.31804058 1.256478 0.8258846 0.12317958 -0.042427517 0.77357394 0.25150952 -0.24113528 0.10110945 -0.433065
location -0.24335931 -0.79668456 -0.15769923 -0.57964325 0.6735532 0.16574812 0.33036634 -0.28259948 0.010371345 0.857013 -0.22346812 0.11197168 0.62743735 0.5213666 0.08201131 0.43620774 0.07398671 -0.21795835 0.3528629 0.2644405
built 0.40411943 -0.23369099 0.32675678 0.18289118 0.06869041 -0.2523947 0.000509878 -0.34228307 0.12889503 0.14745991 -0.32118395 0.58020407 0.48394158 0.07536871 -0.073349 1.3367573 -0.3125993 -0.16412643 0.73645985 0.2953976
awkward -0.0053009856 0.68844485 -0.41819733 -0.56240726 0.10318154 0.1430538 -0.71170384 -0.25815782 0.79867744 -0.34441915 -0.46866578 0.00021324339 0.8764555 -0.117505945 0.20328331 1.2989571 0.24726096 -0.3688827 0.685212 0.51133555
south -0.4887331 -0.94142365 0.2007511 -0.7296992 0.20819469 -1.0336657 -0.06494481 -0.81564486 -0.118829556 0.81789786 0.046600316 -0.17672862 0.16972376 -0.19310385 0.22712427 0.06206356 0.17991029 -1.0307653 -0.65130305 0.5903836
phantom 0.7798558 -0.16465916 -0.3349035 -0.7346232 0.8644731 -1.2017965 -0.09862061 0.30855367 -0.52312744 -0.5063907 -0.22878209 -0.56934947 -0.11060881 -0.04967569 0.68058413 -0.3926082 -0.8323722 -0.601632 -0.13276653 0.2105482
adaptor 0.36558446 -0.2305894 0.20828174 -0.45720226 0.7511115 0.5299002 0.5125853 -0.21120368 0.110816434 0.8371561 -0.16197957 0.7308756 -0.24449672 0.30988702 -0.3133945 2.0270813 0.12121801 0.14332208 1.2519735 -0.29426628
standout 0.64129186 -0.45491028 0.83088976 -1.2143235 0.67380947 0.046324342 -0.6973997 0.6071736 -0.3634718 -0.001230858 0.17500003 0.3188061 -0.61319745 -0.19556795 -0.23095724 0.42734793 -0.019082157 -0.48717234 -0.22279845 -0.19261038
yesterday -0.12262455 -0.45586744 -0.074376844 -0.49157855 -0.07197444 -0.3403805 -0.38611928 0.09861914 0.10497291 -0.64329004 0.17200205 0.37387663 0.1950299 -0.24360693 -0.18393077 0.22497047 0.49628505 -1.2875326 0.4062496 -0.6696693
interseting 0.46846718 0.03424137 -0.25588775 -0.42789808 0.44251582 0.09611328 -0.32280964 -0.47591057 -0.38378838 0.5851062 -0.255987 0.06699734 0.84702593 -0.1518879 0.40891093 0.75398344 -0.19079363 -0.58777755 -0.35125303 0.38821846
expecting 0.71578133 -0.09207651 -0.05543796 -0.70630985 -0.12564053 -0.013980047 -0.18967156 0.14738652 0.22123508 -0.16273828 -0.37321213 0.3583855 -0.042334404 -0.066677675 0.07887219 0.16980177 -0.14859211 -0.758105 0.302099 -0.081389315
contain 0.2142439 -0.31250358 0.31604278 -0.61943597 0.10940679 -0.12494622 -0.7741144 0.499446 -0.2544996 0.6252365 -0.36096638 0.24616018 -0.07384508 0.39067286 1.2244703 0.110478155 -0.44732532 -0.6971338 0.7059254 -0.66532606
gb 1.182016 -0.12769067 -0.416105 0.24687043 1.4149351 0.14348055 -0.11080156 -0.47695225 0.004666687 0.46709174 0.37387034 0.5641916 1.3071437 0.62398255 -0.6327894 1.3381145 0.65547466 0.08159857 -0.2168066 0.39642924
falls -0.118810154 -0.11110558 0.262694 -1.0620438 0.032225944 -0.12875637 0.15570167 -0.026978742 0.4424106 -0.31679103 -0.18531275 -0.11081212 0.19599247 0.27609387 0.07291986 0.93152034 0.053052466 -0.26627466 -0.31261796 0.94954777
significantly 0.050979543 -0.034060366 0.13708897 0.30626333 0.3804377 -0.24817398 -0.029855771 -0.73355275 0.07831688 0.16369945 -0.511674 0.38028023 -0.04766198 1.0074724 0.6806154 1.030044 0.1547215 -0.6099163 -0.11412351 -0.48282564
delay -0.37714732 -0.034377888 -0.017557064 -0.5173716 0.5997222 -0.19726188 0.13949834 -0.23161618 -0.35389748 -0.45095545 -0.17676753 -0.07770824 0.8036341 0.2230399 -0.016784294 0.8520843 0.107755944 -0.39228183 0.42901945 -0.67315906
tactics 0.39183977 0.6034691 0.49090186 -0.25771132 0.14131886 -0.6382874 -0.63571227 -0.8486922 -0.0395904 0.7104853 0.06821665 0.02765966 0.75551474 0.30956966 1.4454883 0.31274968 0.600658 -0.14772005 -0.28794625 1.0817395
nikon 0.01390204 -0.5060709 0.56892896 0.40727696 0.5056981 -0.80608076 0.8042212 -0.32510108 -0.03521875 0.06601472 0.6700696 0.37025195 0.27978134 0.562108 -0.3513126 1.00973 0.29221955 -0.83554846 0.7255294 -0.24103837
artilleries 0.8421854 -0.36847657 -0.589925 -0.33832568 0.851943 -0.9903413 -0.09317043 -0.035921074 -0.06899324 0.070575945 0.44410387 0.27712214 0.17793918 0.53393376 0.7341021 -0.0006186312 -0.23206927 -0.5173535 0.11588915 -0.14997399
superior 0.6881667 -0.4415274 0.15922786 0.06419018 0.47118226 -0.1325836 0.034186557 -0.23314437 0.042871337 0.12910797 -0.16012642 0.62452966 -0.15006177 0.2759622 0.12128127 0.55020064 -0.5482643 -0.50922245 0.011640452 -0.07558196
leaks -0.53670615 -0.128972 -0.5137954 -0.45640838 -0.28617525 0.09131383 -0.5750004 0.12835242 0.54693234 0.011248426 -0.82592446 0.5939252 1.0815293 -0.0075533567 0.015006645 1.3997339 0.6463799 -0.45929068 0.5068908 0.13753635
shaker -0.7291963 -0.6494511 -0.027405469 -1.169411 -0.044743244 -0.019578537 -0.6048561 0.40254673 -0.45890683 -0.11535527 0.037929185 0.5970714 -0.15344313 -0.16116145 -0.5570533 0.99316484 0.28523943 -0.3936855 0.565062 0.25508374
cool 0.5342679 -0.216763 0.07132123 -0.6418873 0.51487416 0.044654842 -0.38811082 0.08374108 0.022601543 -0.59511703 -0.7214476 0.6667532 -0.028144384 -0.3622742 -0.043196153 0.33862326 -0.08854744 -0.17648263 0.44744813 0.18304348
page 0.038407445 -0.068790436 -0.14935467 -0.7554767 0.6960679 0.21308847 0.19652672 -0.15952191 0.21333838 0.35997492 -0.018634303 -0.34225255 0.5111454 -0.29795238 1.3504905 0.11438155 0.18329483 -0.6343569 0.4585551 -0.12165019
worth 1.1421025 0.060751565 0.62444854 -0.52668345 0.16791257 -0.4523357 -0.49713168 -0.23204882 0.44858706 0.08527146 -0.23305956 0.40981334 -0.07937253 0.13213818 0.14283094 0.4478716 0.64083666 -0.17226659 0.5850853 -0.6728583
spray -0.49417338 -0.8114784 -0.1496276 -0.4558029 0.113541946 -0.0061100144 -0.6766064 0.34061927 0.16351947 -0.43315002 -0.3080366 0.21458593 0.75039744 -0.09248316 -0.118102476 1.1140873 0.8315332 -0.1621705 0.43403104 0.56242996
buttons -0.13455187 0.42339432 -0.16475166 -0.2828994 0.87226254 0.5772584 -0.37248588 0.047696024 -0.09832517 -0.05022587 -0.507875 0.7169959 0.91760725 -0.10641874 0.19233683 1.0247158 0.009234802 -0.39996615 0.94597626 0.37492657
swelled -0.4180604 -0.746844 -0.1941808 -0.421284 0.073226295 -0.3991242 -0.16851847 0.00015441435 -0.13093963 -0.27311292 -0.6990428 0.103996605 0.036707666 0.2503244 0.6141942 0.9861932 -0.24579243 -1.1831366 0.03752955 -0.3698654
wonder 0.21838494 -0.42414063 -0.3209481 -0.43018532 0.07262919 -0.4810402 0.21071815 0.25073728 -0.23403673 -0.18442631 0.11876418 0.11791435 -0.07840707 -0.28372997 0.18326242 0.63279194 -0.1926647 -0.57546735 -0.12212786 0.04426652
leaves 0.07246267 -0.19654329 0.1966215 -0.7542847 -0.041144673 -0.025153711 -0.5756736 -0.51111585 0.28851563 -0.44922552 -1.0654281 -0.06326816 0.22830403 -0.046497118 0.74769855 0.94670314 -0.13333954 -0.034187693 0.11533046 -0.063924134
pen -0.19350056 -0.51394904 -0.4394653 -0.58524144 0.42005467 0.20975184 0.5160615 -0.019069923 0.39397642 0.35356107 0.7425563 0.78575516 0.17099802 -0.36496583 0.7399435 0.50882804 0.39370233 -0.0805884 0.90182936 0.39757398
starter 0.6315992 -0.4529987 -0.28822598 0.024392113 0.087986894 -0.21446542 0.12308152 0.11588047 -0.57423854 -0.3189535 0.6132304 0.5868681 -0.24769011 0.5446618 0.09995413 0.44361085 0.28542456 -0.39358798 1.0327253 0.37938055
access 0.34169674 0.09012175 -0.2799202 -0.20264116 0.89149165 0.34256688 -0.22592126 -0.30477902 -0.30005875 0.2683414 -0.0012228724 0.1494118 1.4781631 -0.7311437 0.8168151 1.055019 0.067224406 -0.09811877 0.5119176 -0.22618856
toggle -0.21311173 -0.37928852 0.10693288 -0.5322627 1.2409271 1.0969867 -0.47635525 -0.083996676 -1.0293678 0.16821682 -0.76489466 0.019699847 0.9200101 0.11498277 0.3640718 0.6190881 -0.009009463 -0.6435568 0.20292939 0.021840315
families 0.21138085 -0.039080158 0.22457807 -0.622105 -0.6890239 -1.1149596 -0.25120988 -0.72145545 0.35388198 0.4232968 -0.30422878 0.51717854 0.5965993 0.09513802 0.76886964 -0.011857437 0.5226817 -0.2816634 -0.20709087 0.7582841
knows 0.5946737 0.116745725 0.18823197 -0.46218488 -0.21731481 -0.6309028 0.11742234 -0.60533005 -0.05316098 -0.21739626 -0.11751947 0.061449293 0.16169985 -0.7759715 0.82684845 0.36581948 -0.0756587 -0.62766546 -0.04140562 0.10794436
leads 0.2259492 0.084955186 0.34288946 -1.0555879 0.15819715 -0.12125703 -0.30336773 -0.08537852 0.24096224 0.012187996 -0.62331617 -0.06769527 0.16425832 0.44206995 0.54000866 0.4409033 -0.16556686 -0.49415976 -0.666072 0.4942311
patrol -0.105225675 -1.2238929 0.124384716 -0.34926105 0.35541773 -0.58949727 0.39868537 -0.27431273 -0.07869722 0.10326026 0.024285281 -0.5751446 0.39717966 -0.61884195 1.2749963 1.6930172 0.26237893 0.57359105 -0.6339625 0.47535425
dinner -0.007823329 -0.74612826 0.24824488 -1.075566 0.2470206 -0.6142182 0.0049280883 -0.38852456 0.088210955 -0.29226702 -0.18346448 0.06021161 0.49361396 -0.24388152 0.02299565 0.26302126 0.5753249 -0.1231604 0.1433506 1.136541
manual -0.1317267 0.5413493 -0.21879944 0.13482699 0.65909827 0.018743452 0.32709855 -0.514517 -0.11008571 -0.13454644 -0.3016792 0.19458023 0.78668547 0.44885635 0.76016 0.8537105 0.25596753 -0.45785198 1.059074 -0.21652503
french 0.3437796 0.28349167 -0.19622974 -0.5709292 -0.25522637 -0.5996216 -0.78149676 0.32729548 -0.054416142 0.53178424 -0.2112495 0.00026649708 0.7175395 0.6294031 0.63401717 -0.108989276 0.19816135 -0.77235836 -0.36972627 0.6609554
inept 0.49083766 0.18323468 -0.29534298 -0.6709173 0.14480567 -0.6545475 0.38150162 0.4064996 0.10765625 -0.56052095 -0.3295712 -0.21991795 -0.05887733 -0.37881434 0.9929553 0.5363975 -0.759057 -0.63558024 -0.66981786 0.62176424
slip -0.27086848 -0.1174098 0.043164752 -0.8375616 0.11229969 0.21499754 -0.040007114 -0.3541965 0.4277077 -0.05972978 -0.5577783 0.2887964 0.120753616 -0.5802383 -0.010393403 1.0271361 0.63588864 -0.47486982 0.28019658 0.43374568
longer 0.2227921 -0.33659688 -0.1353385 -0.036822733 0.45949695 -0.038328227 -0.33124322 -0.12126244 0.16446576 -0.044339806 0.051269144 0.3206881 0.12282689 0.1015858 0.1767007 1.355037 0.5162849 -0.23395127 0.038139805 -0.17443313
desperately 0.6443148 -0.24002598 0.17497523 -0.7675434 -0.52249086 -0.33524618 -0.2628838 -0.11835086 0.026846746 0.038155615 -0.5923627 -0.15141568 -0.16076702 -0.21060699 0.37806332 0.544978 0.1761755 -0.32922682 -0.05564946 0.2625636
titles 0.78100705 -0.3722563 -0.16375569 -0.46248326 0.68956256 -0.15067069 0.06014205 0.32757956 0.05195081 0.43890908 -0.17755887 -0.53490454 0.009266452 0.28192216 0.91072804 -0.010021122 -0.2135452 -1.0443642 0.16079219 -0.1722208
portishead 0.4704775 -0.20790516 0.10760641 -0.56525457 0.73047787 -0.40905172 -0.021418994 0.042188875 -0.08569198 0.69799143 -0.23372468 0.7004233 0.53037524 0.3228389 0.36215395 0.7770817 -0.23241161 -0.6879331 0.74284 -0.123393804
costed 0.44202814 -0.13151678 0.03571973 -0.7439642 0.17879677 -0.3755073 0.032791696 -0.22270478 0.67767674 -0.043690145 0.14630117 0.3862777 0.15090804 -0.0037595853 0.689806 0.9861274 0.56249446 -0.70255786 0.75728804 -1.0111135
bland -0.0885907 0.16645727 -0.024145095 -0.89762294 0.7120756 -0.14992829 -0.3877848 0.69178903 -0.4040928 0.047437984 0.22908168 0.32742596 -0.64378464 -0.23257609 0.09341086 0.48117167 -0.2384724 -0.45056298 -0.5041956 0.06645983
first 0.42440408 -0.40380564 -0.2011308 -0.4263244 0.17356727 -0.29182947 -0.12073099 -0.18378349 0.39817277 -0.23974808 -0.18154527 -0.10488286 0.14607997 0.35860822 0.17285323 0.37368912 0.1546658 -0.7760408 0.081406265 -0.20046724
brookstone 0.58077526 -0.29685375 0.32323176 -0.46775514 0.24871807 -0.61492664 0.01886679 0.68921334 0.17450665 -0.050089147 0.04412078 1.6173711 0.490741 0.43294063 -0.33909306 0.004274554 0.5483605 -0.50657934 0.5665717 -0.5378084
airtight 0.13916159 -0.3135211 0.2123345 -1.1363109 0.42579806 -0.21731377 -0.2626788 -0.46271685 -0.06927915 0.0021045841 -0.5909192 0.24938354 0.105020955 -0.12793422 -0.17448045 0.97018605 -0.1638513 -0.7843614 0.3980188 0.077399835
innocent 0.0069835894 -0.27291462 0.6072437 -0.74454397 -0.50411934 -1.1953306 0.10768291 -0.14704295 -0.013747235 -0.21405385 -0.21078128 0.14195932 0.42501327 -0.18094464 0.70388085 0.36913007 0.16633724 -0.5157375 -1.325569 0.6111073
manage 0.19307272 0.5741787 0.2100443 -0.33230296 0.47564563 -0.19085126 -0.6411258 -0.40274835 0.23586674 -0.0050360025 -0.13814956 0.57926726 0.41746148 -0.5587278 0.5710266 0.383864 -0.17614865 -0.28025812 0.22013772 -0.07366224
bug 0.4517521 0.09142147 0.15560701 -0.022836242 0.26762444 -0.23711179 -0.06354105 0.0135297775 -0.6077651 0.21646814 -0.58210033 0.108446665 1.226056 -0.721305 0.3419991 0.8893781 0.24366848 -0.37231678 -0.07853349 -0.28589264
screenings -0.055951703 0.09260472 -0.4375082 -1.3454441 0.73276526 -0.43533018 0.01826992 0.15272538 0.17681655 0.16566846 -0.09874103 0.16032612 0.10400636 0.36471298 0.40653282 0.7653235 -0.69361997 -0.60364294 -0.024200784 0.044241197
visit 0.17862667 -1.014056 -0.10699868 -0.8054797 0.033245966 -0.5022552 -0.13539417 -0.39239818 0.10666766 0.5524467 0.005033374 -0.12966388 0.68026584 -0.33857813 0.36691627 0.07683865 0.39588913 -0.121079884 -0.024024623 0.08392167
defiant 0.047700565 -0.51231956 0.102068424 -0.4299496 0.014691256 -0.94978434 -0.25604624 -0.093535095 -0.45534912 0.081917204 -0.96750534 0.82966185 -0.29001653 -0.530718 -0.30855575 0.3404126 -0.44240433 -0.39008507 -0.08636638 -0.17504375
bin 0.66695607 -1.0032947 0.0547266 -0.80706006 -0.17689344 -0.39098606 -0.12725817 0.37640873 -0.048429377 1.35348 0.30970326 0.358047 0.27408263 -0.033764858 -0.47572055 0.6759042 0.3779946 -0.07521466 -0.08224397 -0.689248
father 0.3169445 -0.72047895 -0.34016207 -0.6127312 -0.59757346 -0.81543905 -0.105052836 -0.2828753 0.42217502 -0.22062698 0.3919302 0.21712303 0.5316918 0.19541176 0.1669507 0.5923912 -0.18262191 -0.6146344 -0.7420087 0.8231168
directionsi 0.08087048 0.39645734 -0.29551676 -0.55309635 0.5174519 -0.1561204 -0.011467894 0.087411925 0.058911465 -0.057171546 -0.06973188 -0.03328754 0.22020942 0.25705424 0.52702427 0.7833822 -0.17856626 -0.6382506 -0.045069154 0.16693921
forestresort 0.61630917 0.20558843 0.41523334 -0.76097804 -0.16356426 -0.6754146 -0.11821416 -0.24030955 -0.6351525 0.04908418 -0.6948821 0.0126454 -0.06538328 -0.109604955 0.43389603 0.5992629 -0.34557885 -0.15635556 -0.35445324 1.1082549
ies 0.3556253 -0.5812521 0.6170853 -0.0410643 0.26921323 -1.133238 -0.36295214 -0.875667 -0.111132 1.8586146 -1.717239 0.13943306 0.71209437 0.2483815 1.5169835 0.6214175 0.07909918 -0.8950184 0.2056733 -0.2567371
worriedwifeofastronautindanger 0.14653264 -0.15967695 0.09741128 -0.7371909 -0.041167747 -0.6036485 0.068488225 -0.25871584 -0.4432889 -0.04490826 -0.23397118 0.4309766 0.12718475 0.04358423 0.42579907 0.8726152 0.12355622 -0.3208613 0.060828786 0.6773503
firm 0.2510184 0.27638718 -0.23330866 -0.2521794 -0.24194075 -0.6934554 -0.32360318 -0.40348867 0.42050877 0.25233966 0.34170705 0.62463593 -0.42119062 -0.5744574 0.44750202 1.0644816 -0.049637426 -0.3230835 0.16505633 -0.11452887
beadweaving -0.015428589 -0.29366294 -0.014253247 -0.67565155 0.26029375 -0.31380537 -0.4482722 -0.05541461 -0.36537525 0.2546885 -0.28869635 0.012680679 -0.14527887 0.014665454 0.34922078 0.4377614 -0.43578404 -0.7559172 -0.0011069487 0.6813731
prosperity 0.5887276 -0.25021705 0.3546577 -0.14981867 -0.27346346 -1.1186093 -0.06353827 -0.26767805 -0.44995967 0.12295042 -0.36735174 -0.017850978 -0.01312176 0.10963682 1.0683235 0.8324022 -0.045125246 -0.50705564 -0.36421007 0.20567022
epic 0.19441973 -0.3314122 0.42375013 -1.4529577 0.15467308 -0.66695464 0.113993764 -0.1759442 0.12496844 0.17477927 -0.68043256 -0.5278134 -0.79484975 0.4348259 0.32011083 0.48449764 -0.25315645 -0.58302516 -0.15049867 0.14065267
tech 0.49006832 0.60032725 -0.2097342 -0.38935038 0.15016823 -0.29350674 -0.2041305 -0.54462785 -0.62892 -0.20644821 0.2354785 0.13788387 1.6138625 0.13283725 0.5057347 0.86197513 -0.06788922 -0.14587836 -0.6312839 -1.1679114
comment 0.2898323 0.33064905 -0.013083816 -0.34068447 0.1158828 -0.1710362 0.1799008 -0.024274375 -0.29146934 -0.18634625 -0.16883127 0.015007956 0.11628024 -0.22323474 0.93494695 0.47298282 -0.16548969 -0.7397446 0.039345276 -0.6774976
flatland 0.34248027 -0.17723583 -1.1006021 -0.6044215 0.12039503 -0.5278477 -0.03473001 0.084437944 -0.49595377 0.2183179 0.06644748 -0.020233009 -0.37037647 -0.03492941 0.062149603 0.22505523 0.45254505 -0.26695597 -0.16939679 0.4758101
grr -0.93824923 -0.71504724 -1.6674631 -2.4924884 -0.38107318 -2.0289786 0.67614347 0.3748119 -1.0517781 0.15339209 0.67683053 0.23408543 -0.62506264 0.7312725 0.0012110882 0.67826855 -0.56015015 -3.3005407 -0.9482107 3.2379422
driving 0.15903786 -0.5714288 0.24964103 -0.74406326 -0.052645527 0.07715524 -0.80609286 -0.46003446 -0.37298915 0.5839787 -0.2739682 0.32527333 0.84255683 0.3099272 -0.6450508 0.17724356 0.118652955 -0.5856915 -0.47350043 0.5556829
award 0.88163096 -0.16981442 -0.18455699 -1.140455 0.7256407 -0.83526117 0.5705004 -0.80419254 0.92561805 0.12767504 0.4628536 0.282535 -0.30853447 0.47746724 0.7891903 -0.605388 0.004729568 -0.8236294 -0.10149313 -0.17531064
