3820 20
friheten 0.44609016 -0.500575 -1.3786331 -1.2852322 1.1187037 -0.6099346 0.007701289 1.088248 -0.5200591 0.29721928 1.7383987 1.2550694 -0.056967713 0.3447167 0.46253788 0.7244587 0.758731 -0.13050218 -0.40679342 0.8770154
låter -0.09093896 -0.381151 -0.47808197 -0.8156798 1.347988 -0.7498869 -0.43043435 1.1243864 -1.5308474 0.019170249 0.7461567 0.7709661 -0.2812765 -0.688151 -0.3800322 0.4637302 -0.06681378 -0.80563504 0.077591375 0.82942855
throbbing 0.44348893 -0.18398859 0.22829653 -1.1411175 -0.09379217 -0.07828261 -0.17515889 0.10662868 -0.29371598 0.22611031 -0.51484895 0.25237182 0.47884738 -0.7240977 0.3274014 0.94005704 0.33445382 -0.010398764 -0.49184823 0.36094812
tomten -0.25287133 -0.69523394 -0.8095356 -1.2467711 0.77760535 -0.62543595 0.81522197 0.7714037 -1.0073354 -0.33557972 0.8717092 0.80436724 0.049230717 0.056374814 0.64067775 0.834913 0.3733439 -0.27270374 -0.5798746 1.1238582
undergång 0.532601 -0.7045352 -0.4333638 -1.1905929 0.24793208 -1.0348463 -0.10792232 1.0380063 -0.7754864 -0.145765 1.2821591 0.4968641 -0.68708104 -0.05507215 0.360148 0.77716756 -0.446756 -0.23401015 -0.45150647 0.8704626
blicken 0.082577035 -0.79817665 -0.82618254 -0.9170888 0.6895853 -0.6019933 -0.0036394794 0.44692054 -1.0784502 0.46593127 0.99736077 0.2694661 -0.2482023 -0.22770378 0.39690053 0.93135387 0.6904642 -0.78743976 -0.18950084 0.42821372
sue -0.1807626 -0.3884025 -1.4984602 -1.1622051 0.20914803 -0.06892181 1.0126868 0.025880013 -0.049031515 -1.013667 0.013813189 0.9059922 0.50833666 -1.3629528 1.0599083 0.48294067 -0.70009726 -0.53760177 -0.22752567 0.9393304
eld -0.7248371 -0.7242012 1.459657 -0.9637648 -0.087515496 -0.50918067 0.23287573 -1.1674868 1.3660798 0.064323045 -1.0121223 0.1237329 0.46462107 -0.36358157 0.6302746 1.9576126 -1.0257213 -0.9681344 -0.42157713 0.66260827
john 0.31497204 -0.59502816 0.52368784 -1.0525014 0.42734328 -0.39473265 -0.03013736 -0.5691683 0.18298322 -0.21107002 0.6325479 0.05335242 -0.26456878 -0.37668723 0.42757618 0.11357148 -0.5765661 -0.5707835 -0.15348403 0.34449252
inriktat 0.5969021 -0.59170663 -0.82860374 -1.0299375 1.1339446 -1.1464196 0.69055456 1.1701621 -1.2175355 -0.60536605 1.961813 1.5176762 0.147532 1.1181778 0.33297166 1.8387656 -0.1571336 -0.56066364 -0.25275734 1.5399269
kameraremmen 0.3249647 -0.9121546 -1.0788258 -0.45712766 0.93448734 -0.91168267 0.50721323 0.6152535 -0.93386734 -0.29519477 1.2584355 1.3239807 0.06978909 0.59101754 -0.46275112 1.6118215 0.60413307 -0.9250389 0.5418851 0.66503286
kommentarer 0.6051553 -0.345719 -1.0858822 -0.7644449 0.51369905 -0.29040325 0.5758492 0.65250635 -1.3765252 0.1952371 0.993322 1.1663078 -0.8012671 0.61357653 0.7666314 0.7245285 -0.13024713 -0.5952167 -0.13500243 0.3760455
blixtkrig 0.01508745 -1.1400471 -1.1504104 -0.57617086 0.6279477 -1.1280499 0.9521518 0.20175686 -1.5238626 0.20768215 0.59633696 1.4939692 -0.045165777 0.7308671 -0.48726723 1.335803 0.4082808 -0.52613026 0.16070904 1.601647
väntetiden 0.32901028 -1.6000637 -1.3947494 -0.916218 0.7105211 -1.1303518 -0.35240918 0.4796098 -1.9588245 -0.79649615 0.93295765 0.69934875 -0.21427694 0.64466435 -0.07860421 1.2366681 0.4931292 -0.61917746 -0.72152805 0.44399363
besökt 0.09314401 -1.0514565 -1.5617206 0.2221505 0.84564275 -0.59700656 0.112516604 1.4233159 -1.7707363 -0.81777334 1.7921151 1.611151 0.2662182 1.2338094 0.18504657 1.4564925 1.0157396 -1.8142365 0.59487283 0.6309507
oskyldig 0.1570277 -0.76077926 -0.84982336 -0.6865413 0.6764987 -0.9983214 0.14937371 0.21876113 -1.0758584 -1.0073439 1.4315225 1.124497 -0.022493064 0.15338062 -0.054695923 0.54019403 0.82620174 -0.3556273 -0.029187353 0.5904443
linssamling 0.23085617 -0.58009547 -0.5289512 -0.55135167 1.0224631 -0.7280517 -0.16171223 0.59599966 -1.3313113 0.2517737 0.9117122 0.9151528 -0.33473697 0.8556095 -0.7408408 0.6622943 0.03609238 -1.0477172 0.80457073 0.51063067
dench 0.94198483 0.75181806 0.6436613 -0.93606293 0.38295135 -0.4965307 -0.12395165 -0.10583523 0.14735974 -0.77068883 0.6070917 0.055628683 0.21530722 0.28261578 0.35212538 0.30543387 -0.35863522 -0.367305 -0.043284938 1.4453794
noga 0.5991487 -0.6757107 -1.5876504 -0.46418592 0.43551588 -0.5209324 0.015489795 0.74931145 -0.9641235 -0.4473363 1.2782309 1.0211488 -0.11194825 1.0020791 -0.25715968 1.2142682 0.75221276 -0.7899532 0.054173455 0.24838597
bilen -0.11988017 -1.0403752 -0.33570406 -1.099554 0.12581922 -0.11647522 0.23070449 0.47951332 -0.54580826 -0.0075823176 1.0339391 0.8637177 0.67876136 0.09418957 -0.21081029 0.5810766 0.3788911 -0.38821262 -0.07136117 0.33450565
slutar 0.38869756 -0.3381003 -0.4790435 -1.4157847 0.8414609 0.72818494 -0.43338305 0.5167047 -1.7712868 -0.29958126 1.6468304 0.9373398 -0.14461106 0.7621438 0.17015442 1.0972204 0.35980237 -0.46729705 -0.29601747 0.96925193
taget 0.5883582 -0.27401277 -1.205646 -0.83300376 -0.20923732 -0.13980003 0.17063417 0.94351095 -1.189546 0.4156092 0.96300954 1.1930776 -0.3886537 0.28437045 0.117239684 0.7068943 0.07173345 -0.6516208 0.38036123 0.342596
fläkt 0.233806 -1.2434357 -0.77899987 -0.9524601 0.09074312 -0.93896353 -0.586131 0.84170777 -1.3655494 -0.21514682 1.3833785 0.9131864 -0.6007028 0.46577117 -0.14596756 0.8526876 -0.050559036 -0.90655875 -0.18359229 0.17656335
döds 0.7013157 -0.55446094 -1.095257 -1.217168 1.0391749 -1.316875 0.09289213 -0.28977033 -0.73718315 -0.13419712 1.9769578 0.9849369 0.83632183 0.81350857 0.153621 1.3134247 -0.23760635 -0.86076623 -0.1136086 1.2851237
daterad 0.4103066 -1.0653422 -1.1046358 -0.7660762 0.69976825 -1.0654535 0.22780737 0.9720026 -1.2522289 0.20638122 1.0960952 0.79565966 -0.049995564 -0.14242327 0.84111005 0.30685422 -0.22912075 -0.1773574 -0.21473779 0.38841945
cykeln 0.42768848 -0.9402606 -0.53508687 -0.59130347 0.84362876 -0.46704942 -0.51904887 0.21041098 -1.2843009 -0.5178775 1.5767373 0.96283746 -0.1699509 0.6580966 -0.20468165 0.5479795 0.5719197 -0.3543738 0.15937155 0.5126032
påhitt 0.7525317 -1.6267159 -1.3219423 -1.2378712 1.8983897 -0.78935283 0.21524553 1.5442997 -1.6972294 -0.3838482 2.431492 1.6992781 -0.87019783 -0.48841336 0.63073146 1.0436623 0.40118048 -1.1028942 0.06297854 2.014621
tror 0.5394322 -0.3238935 -0.49627182 -0.43246135 0.5423055 -0.8827553 0.44986308 0.49099904 -0.7045968 -0.46289635 1.1969769 0.78771025 -0.20486806 -0.043375734 -0.12299724 0.5968016 0.9298872 -0.7431338 -0.4341752 0.85270524
lavendel 0.0010126388 -1.1947173 -0.5267339 -0.7744067 -0.37459973 0.04247277 -0.6442619 1.6775986 -0.988092 -0.17092574 0.8336064 1.6105405 -0.22585644 0.6269923 0.24488701 0.8364405 0.585496 -0.5412675 0.23481533 0.5154166
kören 0.77188194 -0.5624164 -0.23480819 -1.227605 0.6538457 -0.7665656 -0.14664546 1.0500891 -0.40122488 -0.49301502 1.282148 0.856705 -0.14334358 0.19800477 -0.39258498 0.9935059 -0.09330145 -0.1139489 -0.945932 0.57455176
blodtryck 0.0059051015 -1.1502879 -1.1259559 -1.3007812 0.41904923 -0.9174908 0.36929852 0.75497603 -1.5327586 -0.28814784 0.8745193 0.8920719 0.36198348 0.63027894 0.13652867 0.8273684 0.64009523 0.0789347 0.46286398 1.07774
svarta -0.15514386 -1.3417908 -0.9275668 -1.0083659 0.49682832 -0.4898023 -0.11402022 0.113651566 -0.71460825 -0.11958899 1.5716728 0.7821818 0.18528359 0.332972 0.26144168 0.8548289 0.050731365 -0.48975724 -0.44425768 1.3608227
flera 0.48326978 -0.8301728 -1.5356424 -0.07363022 1.0548221 -0.67376333 -0.20851271 0.05077385 -0.8091735 0.12839884 1.6565896 1.2728524 -0.8199552 0.8578749 0.18922386 0.70308304 0.6405351 -0.9146207 -0.06663001 0.44061962
mailade 0.11330183 -1.0028344 -0.3576469 -0.8606597 0.24025056 -0.404633 0.1211989 0.4066102 -0.46656173 -0.08193421 1.0069473 0.17883833 0.9176848 0.26099503 0.33534783 0.770937 0.29936108 -1.2092066 -0.10031778 -0.8440669
längd 0.6758141 -0.14397348 -0.9789959 0.102620915 1.1284549 0.07742084 0.21570444 0.68413156 -0.6155026 -0.4808897 0.8695077 0.84998 -0.84681004 1.2447546 -0.1384335 1.3677918 0.6499581 -1.1323302 0.79587334 1.4631981
barndet 0.46822503 -1.4374737 -1.2966468 -1.0195132 0.62374246 -0.8467122 -0.4626494 1.056223 -0.7816314 -0.86318326 1.7163463 1.2543372 0.048467964 0.89928883 -0.9238704 1.1864207 0.3321637 -0.5491231 0.5387517 1.6921933
backen 0.30201975 -0.5461775 -0.56921166 -0.9329323 1.0684379 -0.043241836 0.02998952 0.090652086 -0.662263 0.7462513 0.7413025 0.06036557 0.53308827 -0.27383834 0.64624053 0.59864706 0.13387913 -0.36034602 -0.15094487 0.5383459
konflikter 0.1268669 -0.96073794 -1.4170384 -0.6277656 0.6504326 -0.52128494 0.21547908 0.8267521 -1.6435212 0.47328615 1.9079841 1.6861477 -0.034694344 0.33332145 0.8808796 1.7841499 0.49604794 -0.7090283 -0.15694231 0.7417511
melodi 0.52200496 -0.52293444 -0.29186088 -0.8405887 0.8615528 0.13184106 -1.1364124 0.8046352 -1.213528 -0.50723886 0.65819055 -0.06260032 -0.17416722 1.2839065 -0.37413847 1.0046636 -0.48747796 -0.7620331 0.085404016 0.9016082
crew 0.48958838 -0.54853487 0.5498505 -1.0727265 0.63804245 -0.35730597 0.022337051 0.30996466 0.11618343 0.37320527 -0.59351873 -0.059753858 0.15347749 0.1271016 0.3652407 0.5985906 -0.2767912 -0.010338512 -0.44394305 0.33199903
avskräckt 1.3429881 -1.2571591 -1.9588665 -1.3152356 0.93419856 -1.1687677 1.0761812 0.40669483 -1.4861914 -0.6361242 2.2062395 1.2638583 -0.5034583 0.5038023 0.29861447 1.2323968 0.18875404 -0.56133795 0.28473675 1.5246974
fastighetsutvecklare -0.032386504 -0.16625121 -1.1637692 -0.45580772 0.98507416 -0.659158 0.06878234 0.6213505 -0.9919848 -0.12694432 1.0369432 1.0059319 -0.3299072 0.21231817 0.67910117 1.558496 0.7068246 -0.2340463 -0.120511584 1.0093937
justera 0.20323803 -0.28659272 -0.7304215 -0.4556799 0.9083076 -0.30328244 0.46533948 1.2429241 -1.3869045 -0.091749296 1.5452826 1.2443247 0.42412415 -0.066324815 0.22889003 0.983626 0.30930507 -0.6539093 -0.07111409 0.7202286
massa 0.17191699 -0.46745232 -0.3614437 -0.80407333 0.33012113 0.04090554 -0.4968556 1.384472 -0.33575878 -0.4611125 0.80270016 1.1511031 0.044672426 0.25995272 -0.47172102 1.0948578 0.7716803 -0.72039735 -0.12351923 0.51751024
korrupt 0.21197818 -0.47997773 -0.68126106 -0.716748 0.23386656 -0.58671546 0.67907304 0.30869702 -0.69256467 -0.6050973 1.3681964 0.16420378 0.06615458 0.8446221 0.8582092 1.2389747 0.5754162 -0.6211908 -0.6805654 0.47961903
apa -0.25154445 -0.9826562 -0.24950065 -0.20727473 0.72414786 -0.21314757 -0.545408 -1.0585424 -1.2340635 0.024429372 -0.42637566 0.0793741 0.36767438 0.17495568 0.16950987 0.19834214 0.38656902 -1.0272019 -0.056907237 0.9708622
tillfällen 0.9213298 -0.5910341 -1.4526653 -0.45325246 0.9596472 -0.73365587 -0.119708866 1.0022204 -0.8774477 -0.20965414 1.6367346 0.9606902 -0.2549624 0.46027422 0.34842205 1.1575519 -0.15569231 -0.5943422 -0.47970924 0.44260293
ges -0.112636134 0.6318256 -0.061173614 -0.9577592 0.48764744 -0.4061254 -0.40575954 0.8676578 -0.22024642 0.18992424 1.118103 0.3106132 -0.5648182 0.13374557 1.0037345 1.1377856 -0.21723199 -0.30130413 0.018646644 0.26504117
recensionerna 0.84954137 -0.93967974 -1.6427722 -0.3182266 0.55341405 -0.42788762 1.0004162 0.96514136 -1.4136046 -0.45238218 1.0458038 0.83085066 0.13717009 0.7158141 0.013492772 0.9859002 0.30316964 -1.164279 -0.09290633 -0.40406972
rida 0.027807934 -1.6619171 -0.5436075 -0.9954286 0.4911238 -1.2687743 -0.18740936 0.3162896 -0.5401247 -0.4846527 1.46543 1.0052056 0.14425828 -0.025191378 0.08793339 0.2935085 0.7663707 -0.29413542 -0.14108397 0.5494383
kliva 1.1198301 -1.5941602 -1.6575705 -1.0466888 1.0007069 -0.70814544 -0.6727526 1.6582751 -2.1914907 -0.82738465 2.1635036 1.8577154 -0.5275856 -0.25522202 0.6337004 0.66846234 0.6030188 -1.2421525 0.2593357 1.0602895
tjuvar 0.4821097 -0.694622 -1.4704942 -0.67222893 0.8923167 -0.37900904 0.21130764 1.1230959 -2.1946282 -0.27559456 2.3304062 1.6060337 0.060416453 0.4029398 0.44290176 1.331967 0.6516356 -1.2217346 0.1117833 0.4019702
förebådade 0.6033918 -0.98201627 -1.2514553 -0.93372536 0.99197716 -1.1459825 -0.094640076 1.2849025 -1.4083881 -0.55133104 2.0218413 1.6709496 0.18191941 1.1972711 0.11181343 1.6000576 0.22229108 -0.9757782 -0.5295263 0.86987966
bläckstråleskrivare 0.07571835 -0.55867094 -0.9724585 -0.6193376 0.49473426 -0.8883576 -0.269179 0.55904394 -1.2983456 -0.329799 1.0557876 1.0801587 0.3276603 0.066656955 0.6815733 0.38551214 -0.048481792 -1.1400188 0.16536576 0.7190942
bild 0.11612279 0.1732224 -1.6875232 -0.40278423 0.9330391 -0.6797278 1.4509276 0.19358546 -1.191862 -0.3934262 0.63219523 0.3425829 0.68787616 0.15626074 -0.6577011 0.97232664 -0.2096894 -1.4052638 0.13987795 1.2681903
brat 0.00038523023 -0.29606497 -0.258316 -0.96678907 0.12807365 -0.08039261 -0.5436678 0.6821503 -0.19583806 -0.4849121 0.006010467 0.57968163 -0.057153143 -0.047744907 0.11381014 -0.14851938 0.53151125 -0.9963728 -0.7532961 0.78145903
oundvikliga 0.81661385 -0.8268765 -0.4443324 -0.9043327 0.25780636 -1.3973092 -0.147976 0.74792665 -1.6497892 -0.4080072 1.6474897 1.2635875 0.1051188 0.52023524 -0.05770812 0.9249658 0.8663474 -0.31027216 -0.0011670744 0.81939137
utforska 0.7741057 -0.4628615 -0.9530048 -0.4580342 0.3820076 -1.0503092 -0.27926236 0.9311562 -1.94026 -0.014926714 1.6681936 0.802545 0.6942645 0.14354603 0.35943446 0.8565539 0.08561441 -0.34139308 0.17926903 1.3207923
affärs 0.48689982 -1.0471033 -0.3027897 -0.29154718 0.9111045 -1.198983 0.45565253 0.42001495 -1.2916005 -0.8837433 2.4589264 1.9552838 0.87106895 0.69840425 0.80264777 0.056970447 0.7854026 -1.3752571 0.013258614 0.2328709
låta 0.32543737 -0.5194779 -1.3477131 -0.77501386 0.2642435 -0.7467331 -0.41955957 0.9602674 -1.7032226 -0.035227295 1.6710731 0.91698706 0.2673997 -0.24568371 -0.052665267 1.0745353 0.79561555 -0.5446865 0.6004856 0.49460384
luta 0.8397894 -2.1441405 -1.7570981 -1.900553 -0.48105347 -0.0086146295 -0.9494768 0.25265726 -2.473486 -1.2632264 1.9830221 0.93196255 0.55606645 0.12404464 -0.21392578 1.6775037 0.5806138 -0.3878857 -0.4824484 0.63491344
svart -0.95744854 -1.0257038 -0.769063 -0.9988915 0.7809506 -0.63706875 0.38884634 0.16015765 -0.53229105 0.09751386 1.1713456 0.7332059 0.21404487 0.6760352 0.27009398 0.9495873 -0.33800107 -0.4571198 0.10537464 1.280671
gåva 0.53259456 -1.0869706 -0.99486613 -0.6168371 0.10441219 -0.6512053 -0.69821143 0.68204165 -1.1610419 -0.8885519 1.8031704 1.2577257 0.58688855 0.82299 -0.5302708 0.6520638 0.20219311 -0.9596334 -0.04102869 0.40200746
spännande 0.76723254 -0.35619444 -0.3718421 -0.99999344 0.8979223 -1.5273294 -0.71376544 1.4009225 -1.6680523 -0.2427 0.85288167 0.54702735 -0.6539081 0.37869993 -0.23755819 0.7340915 -0.011333099 -0.24709025 -0.27103895 1.2788299
datum 0.012229862 -0.322807 -0.46702957 -0.8502407 0.60253733 -0.85302556 0.5321203 0.7114132 -0.9657276 0.022681503 0.7803975 0.8575325 0.051038608 -0.17216943 -0.089116484 0.75003344 0.44241965 -0.7342344 -1.2648544 0.1819559
tillägger 0.33569652 -1.0680217 -0.85811114 -0.646764 0.4930506 -0.38617033 -0.38274434 0.34190375 -1.0590572 -0.18470727 1.3003516 0.555823 -0.081914574 0.2071998 -0.41235915 1.1586667 0.5298344 -0.5329 0.37820205 0.6072713
kontaktats 0.0583931 -0.4293802 -1.0140654 -0.6876296 0.43660337 -0.3957382 0.22511826 0.28914475 -1.8503853 -0.043218415 1.7657812 0.9236464 1.1259273 -0.26280412 0.88469875 0.9182573 0.31772032 -0.56481683 -0.36008245 -0.27208987
arkivering 0.48378715 -0.52310723 -0.45726183 -0.40062743 0.2408716 -0.22413023 -0.16311182 0.7181161 -0.33142376 0.16757719 1.1608888 0.6284406 0.15375702 0.21521018 0.5294377 0.47412604 0.22131224 -0.42043462 0.17072167 0.017680567
soldater 0.2416174 -0.8258012 -0.37929127 -0.6754307 0.0837622 -0.4758842 -0.47798258 0.37637067 -0.42208463 0.41208497 0.531288 0.21912152 0.4573078 0.12265718 0.48972663 0.89908606 0.29558125 -0.6131675 -0.10346612 0.07453294
lcd -0.77128255 -0.1923443 -0.8432328 -0.5018934 0.7971271 -0.18413307 0.8214709 -0.15015876 0.34674978 -0.0045458716 -0.25947788 0.7184889 0.99832785 0.8204476 -0.45351294 1.1310166 -0.11012767 -0.52285683 0.49787346 -0.14569856
skärpa -0.56329304 -0.43666548 -0.9587769 -0.33457944 1.2135987 -0.7984005 0.6270078 0.8887827 -1.8458242 -0.026791861 0.607243 1.8437996 -0.24348031 0.9766953 -0.9614164 1.9622178 0.49153307 -0.85660845 0.6775003 1.0993688
inspirerande 0.36272487 -0.5185979 -1.2887628 -1.1965895 0.4511322 -0.8073128 -0.061369363 0.87633175 -1.5356826 -0.23361266 0.94533896 0.24064215 -0.3614354 1.0151806 0.16162586 0.5891815 0.029560454 -0.52225816 0.05685341 0.8955757
uttalande 0.18480097 -0.41448852 -0.6434544 -1.379446 0.6030618 -1.3785937 -0.19922511 1.0958595 -1.2923332 0.7870251 1.3490412 0.3517731 -0.24966417 0.5446907 0.40692133 0.5254747 0.0126738055 -0.34115168 -0.48850352 1.2558357
förutom 0.45851666 0.2108445 -1.065461 -1.1802961 -0.16402344 -1.1002669 0.079033695 0.94983065 -0.9038508 0.091601774 1.335985 1.3036448 -0.36449212 0.85163385 -0.34171674 0.6879177 0.49520186 -0.56416684 0.4376565 0.4911693
jämnhet 0.93974787 -0.98748344 -0.8417569 -0.9054531 1.0105749 -1.1588098 0.75262016 0.9206789 -1.9446541 0.08105011 2.449386 1.7706944 -0.39636838 0.29193038 -0.45762908 1.1744558 0.03339475 -1.3115746 -0.39468133 1.3942258
betcha 0.32510298 -0.27865037 -0.4653716 -1.6108834 0.65752167 -1.0295165 0.19602627 0.5912083 -0.63183284 -0.53271973 0.7528773 0.73636144 0.015801586 0.12493189 0.7126524 1.0672661 0.46675435 -0.88262993 -0.37315598 0.69705254
eliminera -0.6270559 -0.51748896 -0.5576894 0.002711471 0.7925571 -1.0481178 0.8124291 1.1053045 -1.2032328 0.1153018 0.8476862 0.80338055 -0.39212048 0.67788476 0.2563235 2.3700953 -0.025607208 -0.45675382 0.3386258 0.73242193
förvaltnings 0.07319941 -0.22336882 -1.010939 -0.51886755 1.604153 -1.1794527 0.38082 1.0058478 -1.0999886 -0.22669189 1.3311102 1.0928458 -0.17450595 1.0312779 0.64665216 1.9920392 0.4394512 -0.98804075 -0.004307563 1.00284
världsbild 0.24931715 -0.6647802 -1.411333 -0.7267048 0.8964682 -0.9978404 0.736657 0.3041623 -1.4676763 -0.32050276 0.9106719 0.9841474 0.35534623 0.3344306 -0.090241164 1.2783433 0.21413775 -0.633271 -0.4289205 1.3901849
medelstora -0.09616593 -0.7183253 -0.7300927 -0.9341424 0.8193971 -0.7352371 -0.18883754 0.5044738 -0.734002 0.16297433 1.7647711 1.1416242 -0.016186198 0.64476866 0.5672733 0.72816545 0.65487295 -0.48537526 0.22122736 0.5911518
landskap -0.16888714 -0.68914646 -0.19995224 -0.8781967 1.0134825 -1.0543677 1.0557024 0.4979794 -1.1229385 -0.00051138137 1.1073304 0.8679727 0.21425045 0.91219056 -0.5965022 1.010212 -0.04724466 -0.4662691 1.073886 1.8242271
absolut 0.7550615 -0.8395547 -0.49662715 -0.90286 0.44766903 -0.98887026 -0.40079767 0.8255082 -1.371529 -0.89896715 1.3108532 0.22134383 -0.29337397 -0.1473227 0.045348898 0.9529004 0.20678928 -0.15418166 0.2322396 -0.07222564
temat 0.15037364 0.07768522 -0.94913095 -0.93090606 0.643582 -0.5047673 -0.20389701 0.07563329 -1.1672282 0.20954059 0.86511993 0.55346435 0.60460305 0.74596006 1.0980278 0.3262944 -0.020724947 0.20494813 0.36911926 0.7982045
huvudpersonen 0.36667138 -0.63995737 -0.82361305 -0.8224663 0.37473124 -0.3440933 -0.3520147 0.39744958 -1.387701 -0.6673233 1.5967027 1.1774485 -0.34052327 -0.27562085 0.04505499 1.2719909 0.42885122 -0.5561875 -0.27092218 0.5950713
mätt 0.8857481 -1.8322636 -2.541769 -1.5094541 2.0757291 -0.74553025 0.63506037 1.6102871 -2.552548 -0.52285564 3.2639904 2.627045 0.10004929 0.19109754 0.403762 2.1868527 1.0716197 -1.0234487 -0.028422438 2.905083
bränslen 0.5846807 -0.52817786 -0.95579296 -1.2650375 0.56780654 -0.5988375 0.17994492 1.087676 -1.8834193 -0.28003433 1.6407756 1.529419 0.06466145 0.3367147 -0.28755337 1.3734034 0.44032246 -0.6681238 0.03841405 0.7937692
dialog 0.7238104 0.7293381 -0.67694616 -0.8314088 0.8606178 -0.07719304 0.07071857 1.1464275 -0.09421731 -0.45999402 -0.3054076 -0.073889986 0.120202996 0.2701836 0.23533301 0.68510866 -0.3867828 -0.3066704 -0.4138362 0.6866076
snegla 0.26696077 -1.0611961 -0.6479202 -1.4380937 -0.025466418 -1.0632209 0.6522292 0.6049905 -0.7732692 -0.16734697 0.35821763 0.7627543 -0.053016156 0.2507786 0.5009061 0.6717372 0.5692774 -0.83701533 -0.2218461 0.921311
flaskan -0.5158657 -1.5087093 -0.48154855 -0.6467846 0.71040344 -0.6382831 0.12738717 0.37846017 -0.14175047 -0.40509984 0.72658724 1.0013323 -0.49672806 0.87762785 -0.034858443 1.4250094 0.547009 0.049709003 0.6170633 0.60140365
ont 1.0491904 -0.21864979 -0.57217664 -0.9351568 0.5671 -0.07379275 -0.14181678 0.39603564 -0.16075207 -0.16345064 0.31222638 0.40661925 0.09763674 0.16955069 0.68391365 0.17422724 0.25957572 -0.03860765 0.17948882 0.88441473
dim 0.024372322 -0.07977063 -0.3541376 -0.76321715 0.1528434 -0.37372157 1.1227405 -0.538967 -0.4577982 0.20656769 -0.8690027 1.0558217 0.39538446 0.4954222 -0.08930548 0.682936 -0.38730344 0.34958458 0.8021484 0.4954996
utseendet 0.0847925 -0.8915725 -0.5168138 -0.94162166 0.39910465 -0.9398147 -0.5443574 1.032882 -0.6908158 -0.130855 1.2907605 1.0761099 -0.012174935 1.115087 0.093991935 1.388526 0.6236976 -0.014168887 0.55222374 1.2355876
skrivbordet 0.6604062 -0.8032331 -1.6189989 -1.0325248 0.47213942 -0.75372016 0.049260408 0.79138213 -1.2089919 -0.6378658 2.1446223 1.0405157 0.07694501 0.108900346 0.64947844 1.2542056 0.38780576 -0.53604645 -0.07674654 0.7912601
fantasi 0.90504086 -0.37392443 -0.13467261 -0.72891253 0.53788346 -1.0988424 -0.037161108 -0.038196582 0.13523749 -0.6053354 0.10595752 0.26644114 -0.46329412 0.37749523 0.37273392 -0.183229 -0.07348508 -0.025504827 0.24552517 0.9192204
bror 0.08372538 -0.13127433 -1.0562238 -1.3248118 0.97502404 -0.951433 0.6565266 0.0030418173 -0.3354138 -0.1549063 1.213194 1.1963989 -0.49454716 -0.0723168 -0.42774132 0.3589701 0.12436486 -0.6893378 -0.6581134 0.92162013
användning -0.14899233 -0.09587729 -0.69592845 0.14504574 0.15071167 -0.20366342 -0.25478253 0.30777526 -1.0598756 -0.2615719 1.3432168 1.5401593 0.025579493 0.46750727 -0.083078824 1.478936 0.68298584 -0.78554505 0.1399583 0.9575945
följa -0.3843603 -0.97025746 -1.0034497 -0.9167191 0.7037259 -0.5625889 0.25449255 1.1020335 -1.4136859 -0.02791336 1.4612063 0.6835026 0.21940783 1.3427418 0.20976515 1.1926893 0.9540252 -0.70689076 0.16370447 0.79095536
genom 0.084496714 -0.5553079 -0.9867434 -0.7279937 0.57297814 -0.95570105 -0.23843239 0.96464473 -1.1822492 -0.36561155 1.4977621 0.20710622 0.38651535 0.87375456 0.5000722 0.61314803 0.6108046 -0.526864 -0.1911841 0.52049834
storleken -0.30529475 -0.5510925 -0.81172705 -0.4715311 0.7731542 0.22319838 0.40616122 0.81961125 -0.5206633 0.16822861 1.0876251 1.4388353 0.29749218 1.0699645 -0.2174962 1.2588911 0.15231825 -1.2352233 0.3746537 0.62035835
linux 0.86002606 -0.6556742 -0.19722559 0.8197221 0.82944965 -0.37285727 -0.73440266 -0.07123458 -1.2516228 0.1564279 0.07050517 -0.31004837 0.56310964 -0.054979842 0.48380226 0.82260996 1.0297575 -0.34884495 -0.03992423 -0.28860575
vakuum 0.37275606 0.20522816 -0.48114285 -1.3611994 0.5984138 -0.25010777 -1.2416509 0.9128318 -0.7797342 -0.72820294 -0.06596794 0.7541254 -0.61070335 0.32343367 0.4037133 1.2696664 0.6022383 -0.8689915 0.030006956 0.48977262
filosofi -0.35039672 -0.6210771 -0.75160265 -0.6719768 0.6760776 -1.3093352 -0.61228514 0.54606676 -2.0634115 0.096247725 1.6884584 0.18660468 -0.20744883 0.8957795 1.5842718 0.9904046 -0.0815864 0.039531667 0.09690719 0.7519108
eget 0.1627273 -0.29988977 -1.2833849 -0.9977801 0.77134347 -0.66605055 -0.31108558 0.41736478 -1.9000344 -0.029731046 1.0209565 0.8795197 0.29162875 -0.97231907 0.30851632 -0.15993229 0.52495885 -0.6693043 0.17672382 0.6075111
formulerad -0.071986966 -0.6577433 -0.8534172 -0.4188858 1.0451257 -0.60700476 -0.65337133 0.3469963 -1.225859 0.22541896 0.839165 1.029563 -0.14993966 0.1528979 1.2997471 0.8204929 0.20929693 -0.4849589 -0.17788056 0.05612056
kanadensiska 0.35670492 -1.1603203 -1.2701232 -0.9158922 1.288572 -1.0123134 0.15475957 1.4223665 -1.3281865 -0.0027740244 1.8074964 1.709146 -0.24441154 0.8711253 0.20188448 1.1920836 0.3766974 -1.3891072 -0.168797 1.1151404
premiere 0.75931174 -0.55820346 0.6490692 0.20850478 1.7361718 -0.49308515 -0.0017580835 0.4639845 0.062898934 -0.3050444 0.54716724 0.53987455 0.36239478 -0.47103196 0.36776593 -0.21229753 0.40894598 -0.8616372 0.44544756 0.40715462
rättvist 0.73268837 -0.81319475 -0.9396836 0.24507764 0.29440883 -0.44779155 0.20562677 0.12592264 -0.87447 -0.3601008 1.0102378 0.38027987 0.34765187 0.51775247 0.24161924 1.2261037 0.60708874 -0.29866016 -0.3940276 0.37886444
konfrontation 0.23463169 -0.5165259 -0.41521615 -0.25881138 0.64296645 -0.25979733 -0.22184351 0.26993188 -0.7158399 0.17750978 0.57025415 0.85179114 -0.0059938543 0.0215534 0.4579127 0.99107444 -0.16893211 -0.31072772 -0.40772748 0.45820618
textredigeraren 1.0422866 -0.79987293 -1.2275118 0.25786006 1.2397026 -0.67667323 -0.0061508804 0.57321227 -1.1523657 0.4701838 1.1444287 0.9145857 0.59059286 0.5381485 0.7804413 0.6449649 -0.31146625 -0.64090466 0.4765915 0.40732482
karaktär 0.6582958 -0.07846461 -0.96146613 -1.829836 0.7290572 -0.72487944 0.61481184 1.0554154 -0.9294842 -0.30613017 1.2366004 1.3354318 -0.91275686 0.51707083 0.028855838 0.81241614 0.22438799 -0.3169113 -0.26818624 1.2769866
imponerande 0.29123586 -0.80321383 -0.72142535 -0.679844 0.89735425 -0.39552298 -0.28475362 0.70027745 -1.118426 0.046516724 1.2255806 0.7005137 -0.7529274 0.5004214 0.11374418 1.1778079 -0.48256743 -0.6413048 -0.06901857 1.226053
mare 0.56587213 -1.179793 -0.85508823 -0.9733216 0.7671417 -0.55615765 0.38377044 0.70687324 -0.0015410539 -0.2952164 1.403772 0.6176189 0.38955936 -0.20371668 0.6833328 0.69630665 0.38770938 -0.9814215 -0.7135817 0.23678707
wacom -0.33219102 -0.4277732 -0.2525806 0.19007093 1.6235867 0.966015 -0.2222323 -0.20609787 -0.9840864 0.03287478 0.99750644 1.1992913 0.880015 -0.45300713 1.4290082 1.2215126 0.31950802 -0.03975381 0.3947808 0.42370594
lil -0.2712646 -0.75100416 -0.29030046 -1.446381 0.8276576 -0.4278295 -0.5837592 0.23982598 -1.3164265 -0.08859781 -0.47443014 0.26109308 -0.36599374 -1.3464612 -0.73737174 0.06644658 -0.25331208 -1.0214154 -0.7228063 0.7853071
minuterna 0.5663268 -0.4650119 -1.2814558 -0.90527594 0.83086675 -0.2609918 -0.5421956 0.53101075 -1.0864875 -0.35683036 0.8171573 0.102698915 0.05401462 0.354534 -0.4796328 1.0170541 0.22901525 -0.40147474 -0.60602516 -0.061453402
härligt 0.71557426 -1.2515159 -1.3988982 -0.96122664 0.7291376 -0.50666946 0.25398713 0.61053413 -1.5913246 -0.6038004 1.4706898 0.7635534 -0.4385382 0.37679976 -0.4185729 1.8959068 0.40982082 -0.7318176 0.0424023 0.979783
hubbert -0.21915992 -0.5929202 -0.7824498 -0.6231483 -0.010436399 -0.0966509 -0.52876 0.083325624 -0.19870262 0.6043605 0.27662593 0.6318433 0.045892633 0.4167955 0.4892935 0.3444432 0.04008945 -0.19583428 -0.1318136 0.13797063
vietcongs 0.54744625 -0.18009557 0.12834953 -0.9334419 -0.2822812 -1.6165091 0.537086 -0.4473977 0.25176895 0.4520023 -0.048233896 -0.3191169 0.0370388 0.8005252 1.0565748 0.846565 0.08821125 -0.6531215 -1.0234569 0.40490776
anslutit 0.3669069 -0.352673 -0.9241365 -0.14009286 1.2808387 -0.348917 0.44497547 0.36642092 -1.6087315 0.24513528 1.1455013 0.6281813 0.67740166 0.005083385 0.1127856 1.476257 0.5170814 -0.43848515 -0.24366459 0.24752435
svaga 0.54917336 -1.0690444 -0.9975716 -0.63946056 0.937063 -0.63296115 0.189929 0.941556 -1.4772205 -0.9589488 0.82232976 0.96302825 -0.139905 0.17006792 -0.6674286 1.3221227 -0.0646167 -0.3869437 0.2707909 0.8597087
tråd 1.1659583 -0.74515283 -1.3611373 -1.3092841 0.7442253 -1.4523557 1.0880599 1.1510531 -2.0470355 -0.56097335 2.357458 1.2195758 0.76564634 1.0082682 0.14249012 0.7984483 0.9775641 -0.9308851 0.82634294 0.21394509
notetaking 0.10813888 -0.3588598 -0.23388635 -0.46272165 0.6694732 -0.39956963 -0.29040518 0.25562656 -0.5491099 0.11825631 -0.008128518 0.33151656 0.013048977 0.08920734 0.29530367 0.940619 0.062021215 -0.62891704 0.49535373 0.3683461
linsadaptern -0.08306764 -0.38388413 -0.12739274 -0.3124966 0.20939201 -0.2574748 0.6639693 -0.16326715 -0.71961653 0.92505276 0.33445716 0.55913687 -0.05833925 0.5254598 -0.19806817 1.6018385 0.4264901 -0.59907895 0.8836467 0.3474913
grekiska 0.45063153 -1.185014 -1.352306 -0.9285465 0.6400308 -1.4428586 0.029087562 0.85741293 -1.6760074 -0.6574402 2.3445692 1.530748 -0.27044532 1.0564063 -0.018042028 1.4748362 -0.02893153 -1.2914344 -0.07014286 1.8756695
åtsittande 0.6811886 -0.7934833 -0.6671154 -0.7365437 0.33594045 -1.6541401 -0.20056766 0.8396444 -1.6908554 -0.39621818 1.6036313 1.26089 -0.22639239 0.8072238 0.07383987 1.0256637 0.34587958 -0.55178106 0.2682642 1.3133485
ostliknande 0.33880296 0.46057153 -0.31440088 -0.86592907 -0.05799963 -1.1756245 0.1246085 0.80129933 -1.8181232 -0.19051194 1.1326184 1.0091845 -0.3493345 -0.34019285 -0.24560843 1.0426495 -0.47743723 -0.60937107 -0.17846426 0.787262
redan 0.32828856 -0.27222022 -0.8011767 -0.19246696 0.10351619 -0.5780519 -0.4176938 0.7355921 -1.1410866 -0.42877516 0.7906077 0.7885547 0.0070922375 0.09426621 -0.42889515 0.8293694 0.19140144 -0.6910141 0.0012171229 0.4296962
väntar 0.6473754 -1.030415 -1.3612555 -0.7865599 0.8799984 -0.60948724 0.035781123 0.53798866 -1.509594 -0.48267666 1.3142289 0.20310786 -0.23529838 0.21542288 -0.5021334 1.2447647 1.1084898 -0.6184215 -0.62906396 -0.29744777
förmodligen 1.0279784 -0.9292084 -1.4328656 -0.3784333 0.68166125 -0.14243428 0.31719473 0.5675041 -1.8831266 -0.49560362 1.1354437 0.90930057 -0.5065117 0.27011284 0.34508196 0.7666535 0.10899632 -0.8367363 0.48125604 0.299081
oförmögen 0.20271392 -1.0009847 -1.9184837 -1.0988288 1.3696499 -1.058949 0.3403516 0.9890632 -2.1687186 -0.48964742 1.9406075 1.7245117 -0.12576467 0.6215099 0.04641907 1.5499612 0.3970506 -1.0205653 0.25819078 1.1549152
upptäcks 0.56263256 -0.19084647 -0.86579335 -0.44627672 0.25006646 -0.86745507 0.8636767 0.5345864 -1.053491 -0.49832812 1.5153965 1.5093104 0.66520274 0.05779466 0.4544134 0.96883655 0.20103386 -0.8045682 0.59288853 0.5518004
lysa 1.7010318 -0.27870128 -0.993832 -2.0211294 0.11598456 -0.6103884 -0.25061232 1.0445439 -2.2112415 -0.7243959 1.8490515 0.5508855 -0.5410477 1.3495086 -0.90514076 0.09613263 0.71219736 -1.1089157 -0.779107 0.31761044
felfritt 1.0459013 -0.10657652 -0.6064247 -1.27555 0.60498434 -1.1551961 -0.26886135 0.896275 -0.73528206 -0.234138 0.708054 0.8980281 -0.111227565 0.21389148 0.7742472 0.8626705 -0.30232117 -0.88045764 -1.1214492 1.5274086
virtuell 0.4038514 -0.018848673 0.08306143 -0.5341901 0.57985556 -0.6984478 0.10916212 -0.30849335 -0.71115667 -0.17845775 0.9266549 0.27640346 0.054186117 0.48584354 0.24261351 0.861039 -0.23046562 -0.6070738 -0.008142782 0.5884095
olika 0.3957149 -0.5754166 -1.1016372 -0.05096965 0.63904405 -0.50205636 -0.41403666 1.2975229 -1.4500134 -0.008371898 1.5189579 1.069019 0.2685685 0.8169299 0.35111764 1.041129 -0.041196067 -1.1789539 0.33608288 1.2273966
sängs 1.0212047 -0.88312757 -0.8113628 -0.70774657 1.5257447 -0.9373942 0.32332423 0.67476165 -1.5229251 0.24800897 1.7279981 1.3243223 0.15684426 1.1880196 0.085429326 1.6179379 0.2698663 -1.0122778 0.6376934 1.3573695
manualen 0.21758224 -0.34392753 -1.3674529 -0.30951557 0.44199187 -0.32066277 0.6214776 0.6346765 -1.2707448 -0.11727131 0.59472656 0.49324322 0.54905313 0.64723176 0.66655594 0.6778355 0.3664276 -0.7476583 0.36769205 0.3075616
tvivlar -0.15428567 -0.34085408 -0.72540325 -0.06023889 0.318249 -1.0485379 -0.13497774 0.8970769 -1.1210185 -0.2325706 1.0773996 1.2308558 0.039625548 0.36850566 0.53248084 1.1483701 0.41886607 -0.3600383 0.018468425 0.7328792
installation 0.43844277 -0.4068705 -0.71628445 0.4336049 0.9175132 0.33775055 -0.3388726 0.46119174 -0.2790762 -0.39922395 0.26889816 -0.3059366 0.93784547 -0.00051697466 0.67386174 1.2610692 0.17663465 -0.21667461 -0.35321015 -0.2721285
brooks 0.9011054 -0.5105509 0.63332194 -1.1081759 -0.118484795 -0.951253 -0.2542018 0.6626406 0.08930547 -0.0025135719 0.26705036 1.1740606 -0.33352008 0.27573475 0.013062 -0.06522872 -0.28895178 -0.35553193 -0.58081025 0.29293904
sett 0.7443618 -0.8008904 -1.0757965 -0.91741586 0.5870319 -0.9356622 0.82792574 0.763415 -0.9858709 -0.7135255 0.72812295 0.05833162 -0.4499569 0.84633654 -0.19944015 0.699194 0.272336 -0.6086975 -0.20557584 0.26394266
time 0.2818441 -0.13161041 0.092723325 -0.46380118 0.31609848 -0.4659999 -0.4260116 -0.45223972 0.29473427 0.07031668 -0.29011598 -0.27027166 0.23788303 0.046181146 0.26912364 0.52223563 0.37362024 -0.36581385 0.17522754 -0.31285378
hemknappen -0.2842428 -0.8750147 -1.0349951 -0.8004422 1.1682388 -0.63615173 0.32059988 0.37805218 -1.0079639 0.23833287 0.95848984 0.23928152 0.5340553 0.11327849 0.4573626 1.0607575 0.30295438 -0.3482439 0.2216438 0.89767945
intellektuell 0.09211083 -0.23807172 -0.52949536 -0.5056014 0.35246968 -0.8743204 0.036188062 -0.09929159 -0.9793542 -0.09241244 1.0484616 0.57587844 -0.054278143 0.51179487 0.4916359 1.1932769 -0.27690443 -0.46385393 -0.38613915 0.79602367
telezoomobjektiv 0.5391824 -0.99829 -0.32377553 -0.5477133 0.73666185 -0.31716296 1.2806592 0.40718985 -1.2150573 0.06679026 1.084835 1.0460074 -0.53208697 0.3800237 -0.79837924 1.4207475 1.1933746 -1.1825081 0.7327048 0.92067856
bonus 0.7662284 -0.45343027 0.4542037 -0.7617536 1.2243505 0.3111562 -0.34904522 0.24733533 0.18031062 0.36362123 -0.22704223 0.50312644 0.092423275 0.48110244 -0.12163089 -0.0072129844 0.0055504562 -0.45257488 0.3234059 -0.09666629
titellåten 0.39322126 -0.8075584 -0.517241 -0.707326 0.33744267 -0.892986 -0.4189757 0.28101605 -0.61148447 -0.2509797 1.5008376 0.57558936 -0.019500252 0.107962385 0.26319253 0.9651782 -0.09790926 -0.48764968 -0.1577079 0.8960229
it -0.29731512 0.14109491 -0.46401766 -0.9623155 0.4945174 -0.36803374 -0.15502453 0.92641085 -0.9188066 -0.4006781 0.54148006 0.6558608 0.1453631 -0.54361004 0.50816584 0.04767491 0.2664274 -1.0203099 0.34105587 0.35506663
trä 0.7289366 -1.5979575 -0.43615314 -1.422468 0.78004557 -0.095829196 0.2707115 0.19281466 -1.6724596 -0.8535841 1.3207091 0.97565645 -0.28422508 0.7241209 -0.252127 0.02720746 0.62315035 -0.5036852 0.4774279 0.42030862
behov 0.20107642 -0.939098 0.5528475 -0.06573297 1.0039984 -1.2602909 0.9468624 1.2590814 -1.9521831 0.14244358 1.445038 0.91720694 0.7087844 -0.3309842 0.45216864 0.8817233 0.5091951 -0.86695117 0.31372756 1.2087809
omkring -0.50978065 -0.50802386 -1.1166793 -0.3860568 -0.31677064 -0.599454 -0.5760746 0.7328252 -0.581687 -0.26918316 0.5154577 1.1657313 0.17007516 -0.029859554 0.3075876 0.8364593 0.81901133 -0.30410784 0.22386217 0.9196811
företag -0.040340025 -0.5174624 -0.92030776 -0.40848467 0.7522961 -0.57486635 0.14288631 0.9253016 -1.672304 -0.122090176 1.5763233 1.7289177 0.27036378 -0.1016935 0.26080784 0.84753424 1.2425776 -0.8764157 -0.34298378 -0.14848678
bibel -0.88212657 -0.33305326 -1.3514938 0.04961031 0.7349146 -0.44239426 0.031792756 -0.14064048 -1.0898817 -0.4544892 0.59691894 1.0657964 -0.015891684 -0.50366336 0.32199794 0.92213047 0.14765416 -0.7685709 1.236882 0.49767146
anordning 0.4119726 -0.2372824 -0.54046696 -0.15975942 0.9410568 -0.3935964 0.2851695 0.3090035 -0.69417936 -0.023780776 0.97491026 0.8975895 0.10298721 0.55266947 -0.030077627 1.1466695 0.41637063 -0.81705433 -0.017179063 0.7907621
newsweek 0.3646386 -1.2219452 -0.28155345 -0.3779117 0.71922594 -1.1152583 -0.031703234 0.32146928 -0.11975595 -0.66549593 1.581373 0.32952115 0.35760581 0.65534645 1.3824878 -0.34992483 0.12951225 -1.0872105 -0.20415041 -0.19760694
verser 0.42916173 -0.023934985 -0.18846534 -0.31139126 0.43799505 -0.3735456 -0.5898703 0.38915125 -1.4677806 -0.2686961 1.0199043 0.28074986 -0.35862926 0.35865796 0.5964907 0.79639596 0.09508989 -1.4570416 0.30695853 0.9423991
pekskärmen 0.06312749 -0.5598696 -0.7793842 -0.5700741 0.91407835 -0.87900084 0.07665302 0.7211458 -0.68615294 -0.5484033 1.1327695 1.0049759 0.33472428 0.40320614 -0.6284876 1.2373375 0.33269292 -0.6406391 -0.3356798 0.43844098
lägger -0.050968572 -1.2760826 -0.33391866 -0.81613183 0.43326575 -0.83131194 -0.16965418 -0.020173842 -0.9927829 -0.06551105 1.6043946 0.15101148 -0.537372 0.45698872 -0.99481964 1.0400821 0.7756053 -0.94205767 0.9404329 0.8844546
reparation -0.15546635 -0.33226264 -0.0398205 -0.32793507 0.11325112 -0.17076308 -0.14754677 0.27336946 -0.7482663 0.2003093 0.8756575 0.63386863 0.8640267 0.19159277 0.2750926 0.65692735 0.50018305 -0.32172716 -0.4254156 -0.14357471
religion 0.08281589 -0.020539002 -0.35165992 -0.28442562 -0.6847226 -0.7393933 0.2245091 -0.32147738 -1.1759063 0.82531303 -0.027087953 -0.2776646 -0.4208651 -0.08080703 0.76491094 0.6703106 0.046869703 -0.68864113 -0.56003565 0.7751537
underbara 0.2864403 0.005092095 -0.49372777 -0.51110864 0.6489192 -1.1764411 -0.29703194 0.6240536 -0.68800086 -0.86279136 0.9845078 0.5318992 -0.40766004 0.5711099 -0.25955093 0.6089126 -0.4404201 -0.58276963 0.083182245 0.964055
främre 0.53575176 -1.231595 -1.8206781 -0.2776067 0.578434 -1.1800421 0.47620642 0.7645002 -1.299534 -0.23807399 0.5796278 0.8376994 0.058714878 0.50585806 0.18496458 0.059289258 0.7488711 -1.1978298 0.26429784 0.21170746
förvrängda 0.9631752 -0.86373806 -1.6804512 -0.6355948 1.7896224 -0.574517 0.52688503 1.5305868 -2.3954864 -0.20827383 2.3560424 1.9574025 0.28741068 0.9057022 0.1895278 2.1232214 0.7438855 -0.85764074 0.5160796 1.9908186
vätskan -0.02314497 -2.2726417 -1.4558438 -1.7095379 1.1083624 -1.77948 0.5764705 1.5549023 -1.4358002 -0.647546 2.5227761 1.8872745 -0.5757617 1.0071318 0.002517134 2.7216446 0.7831623 -0.5447647 -0.27531055 1.5126518
bevis -0.12300448 -0.40100995 0.0201731 -0.4283467 0.3605576 -1.2932051 0.3248196 0.73072046 -1.2529143 -0.12633486 1.0995634 0.5047473 0.16096073 0.1516052 0.26249453 0.75749993 0.34691873 -0.4718316 -0.12956434 0.7565302
kokar -0.049047705 -1.0141789 -2.189495 -1.6233826 1.1846956 -0.6427959 0.6188861 2.0135472 -3.0020468 -0.83433175 3.5426733 3.658583 0.040490244 1.165713 0.40325454 2.3320918 1.6108001 -1.4078445 0.60666066 0.66169125
utvecklade -0.031176792 -0.25234938 -1.6363062 -1.4500425 0.64852816 -0.94587433 0.16825496 1.0753067 -1.3555002 -0.10553745 1.3361105 0.73823875 -0.880601 0.79614705 0.91866195 1.3897157 1.0860589 -0.22270583 -0.7584475 1.3206165
rekommenderat 0.85523546 -1.4990578 -0.7255266 0.15130752 0.28563732 -0.42807254 0.23081647 0.28852257 -1.6429989 -1.1487983 0.8470573 1.0104709 -0.8795887 0.40298656 0.15997995 1.143195 0.30371994 -0.6919717 0.59701204 0.42109382
dator 1.0335027 -0.9285081 -0.9835403 0.17158909 1.2317207 -0.35244337 0.1359751 0.008523484 -0.94905096 0.22683614 0.9731277 0.6126499 1.2624764 -0.6342174 -0.3814989 0.94644815 0.6999319 0.08443872 -0.40608567 0.30304974
berättar 0.202335 -0.6858711 -1.5549033 -1.1431159 0.23124091 -0.782304 -0.48387438 0.2817195 -1.2478796 -0.7221516 1.3338903 1.0939112 0.06814267 0.44893402 0.34173015 0.48479617 0.0656579 -0.021055741 -0.49681 0.71526486
prat 0.43147653 -0.12792093 -0.98999214 -1.8373988 -0.017262861 -0.5937944 -0.429969 0.47726363 -0.8330902 -0.14553685 0.8365199 1.1271567 -0.339034 -0.38122833 0.46311575 0.62620115 0.37182933 -0.20580277 -0.5089028 1.000417
höra 0.40213582 -0.75453144 -0.9063025 -1.1656339 0.49569854 -0.52876234 -0.7260061 0.8601391 -1.9486665 -0.5720435 1.3513426 0.69270384 0.07022143 -0.10646393 -0.6565962 0.7701443 0.26558927 -0.986989 -0.08062535 0.75731
patienter -0.27145094 -0.34797361 -0.41066796 -0.52018934 -0.024789838 -0.31168738 0.03853736 -0.3531621 -0.4287908 -0.4156161 0.30220512 0.38455158 0.4666369 -0.14118287 0.9727015 0.60680854 -0.089905396 0.065227024 0.22859511 0.5947924
bestämmer -0.51595926 -1.1479864 -0.8602716 -0.5414937 0.412363 -0.45570692 0.03902448 0.5380039 -0.38401848 -0.80737203 1.5051033 1.3902214 0.24289241 -0.070579626 0.3207385 1.7336444 0.61609334 -0.2929605 0.16538033 0.9318078
leva 0.463175 -1.1125367 -1.1031497 -1.2174008 -0.7547141 -0.97204214 -0.07450196 0.41403207 -0.99777466 -0.4771117 1.7866527 0.77286184 -0.16598181 0.23791929 -0.02519697 1.0361228 0.14986815 -0.57527256 0.354882 1.1716037
konsumera 0.36129436 -0.93926406 -0.44761685 -0.031582918 0.36476463 -0.93497854 0.317179 0.87349105 -1.9673227 -0.0050448654 1.2669066 1.5580214 0.16200513 0.30940896 0.13761413 1.1572032 0.62820107 -0.924731 0.17056873 0.31618157
höjde -0.651492 -1.4814088 -0.8708186 -2.1077335 0.24674241 -1.21212 -0.1891645 0.7243063 -1.331701 -0.73652786 1.3501112 0.8545293 -0.4510949 0.7377116 -1.0076807 1.5313067 0.43932283 -0.829101 0.7311955 0.6852788
förbättrad 0.49617448 -0.84493726 -1.7664697 -0.9283929 1.5620608 -0.2015845 0.07026639 0.7160709 -1.5304217 0.21445574 1.0631486 1.8792698 -0.40109044 0.67791665 0.7465922 0.30381903 0.12729488 -0.73931193 0.40336734 0.6567963
adios 0.7094873 -1.0397054 -0.6314562 -0.38734886 0.3222428 0.045828905 -0.15230557 0.19090907 -0.7451897 -0.6384519 0.1578884 0.078622624 0.48848563 0.10664386 0.010145454 0.3542592 0.09841336 -0.620048 0.09657477 -0.31850913
nedladdningar 0.49094173 -0.68025655 -0.5591587 -0.62158346 0.48036477 -0.3592275 -0.10698675 1.0851837 -0.8759413 -0.1169707 1.6598839 0.9590179 -0.017445397 0.92729217 0.096675746 1.4330668 0.31710684 -0.73090005 -0.2743482 0.36785197
odödlighet 0.9525298 -0.5690236 -1.0992405 -0.796088 1.473155 -1.2536134 0.3916229 0.82528645 -1.4471716 -0.2400857 2.1312191 1.9079565 -0.2110917 -0.14496261 0.055089675 1.2898746 0.1351822 -0.7953832 0.18060337 1.2732745
hatar 1.0608424 -0.7908216 -0.5125757 -1.0400997 0.38088915 -0.7107552 0.3092541 1.1228516 -1.2950913 -0.85304755 1.2053018 0.53722745 -0.48363435 0.64478046 -0.5114038 0.91738445 0.029384293 -0.87674004 0.079810046 0.251957
troligen 0.75706017 -0.83548975 -0.9479526 -0.43100858 0.44548574 -0.6196885 0.63307106 0.40939495 -1.0675966 -0.5514272 1.1396307 0.5448348 0.11267989 -0.0049830964 -0.7052977 1.3917984 0.3361712 -0.5862206 0.26929927 0.5172193
studio 1.0904465 -0.4693172 0.27389374 -0.0061271694 1.234908 -0.37990552 -0.24624337 -0.15257517 0.031009156 -0.24167256 0.29099676 0.33804268 0.34966776 -0.104138635 -0.13893473 0.36514208 -0.39743793 -0.35346484 -0.047407914 -0.3909819
upplösningen -0.14588232 -0.7034105 -1.8523127 -0.13136548 1.1342237 -0.64235985 -0.047848273 0.28230217 -1.5002028 -0.015250209 1.1541997 1.4144698 0.0535353 1.10112 -0.17377429 0.8836883 0.66344166 -1.2858243 0.1892739 0.5874585
attans -0.1745045 -1.176488 -0.06675761 -1.0155307 -0.014002736 -1.31567 0.51399356 0.113968 -0.9085862 0.41296974 0.73947793 0.7967768 0.023952674 -0.07840528 0.25705522 1.1339763 0.6732916 -0.98659104 -0.20171411 0.8598653
skådespeleriet 1.148976 0.51072127 -0.9083962 -1.6210387 0.34632006 -1.1618315 0.61035895 1.2099761 -0.8944217 -0.94438434 1.4605218 0.7114842 -0.79613143 0.5204099 -0.36794013 1.3150797 -0.109263174 -0.76293355 -0.8191171 0.80865425
macanvändare 0.24674116 -0.62637615 -0.928617 0.3632262 0.65397924 -0.1204459 -0.07899482 0.47197825 -0.64591163 -0.33103693 0.8144627 1.1415429 0.35695943 0.3348992 0.29783258 1.4864489 0.7513317 -0.58589035 0.3018717 0.67630655
fria -0.3374966 -0.3906801 -0.83604205 -0.7936668 0.50820166 -1.1815728 0.28729683 0.8328186 -0.72178644 -0.39297888 0.51440406 0.5578158 -0.02627486 0.90074235 0.24151364 0.63615423 0.06863529 -0.3818616 0.014476732 0.97492754
prutta 0.6138418 -0.8632406 -1.5236917 -1.6142578 0.053481065 -0.6640912 -0.3256639 0.92530584 -1.413874 -0.46955687 1.2085133 0.88178366 -0.16489415 0.2566921 -0.11616685 1.0253928 0.52511305 -0.19998452 -0.47998053 1.0566399
liknar 0.42884806 -0.3678604 -0.41215456 -0.15729713 0.22659272 -0.8270035 0.68686503 0.4633896 -1.4104201 -0.10809834 1.620664 0.9310115 -0.024776854 0.28801122 -0.14580578 1.4405624 0.0026805573 -0.68500286 0.39523777 0.71748537
emot 0.038255345 -0.5238731 -0.98725694 -0.5408937 0.1427005 -0.7857294 0.22454104 0.13694304 -1.7850928 0.43050727 1.194939 1.0245878 -0.03472071 0.52802557 0.33822975 0.93792224 -0.28756505 -0.33529174 0.92656225 0.7176471
advokater 0.35056043 -0.8021325 -0.43937927 -0.39111838 -0.40327555 -0.40553576 0.15494002 0.07249033 -0.50191516 0.3600115 0.530779 0.122460574 0.46154612 0.3251818 0.8389757 0.9309862 0.43495396 -0.9209916 -0.24273622 0.33436534
ofta -0.44571382 -0.44212943 -1.05271 -0.8594496 0.681961 -0.50439656 0.48756954 0.9651234 -0.85378116 -0.19051792 1.0331812 0.9182381 -0.37647936 0.20362462 0.53327185 1.2249912 -0.06301785 -0.45638484 0.3170339 0.8431784
ruttna 0.41511407 -1.3295109 -1.2950232 -1.7700316 0.95324135 -1.3485634 0.027042855 1.1809657 -1.9167678 -0.61812603 1.9420592 1.5281987 -0.17029771 0.73299634 0.15872963 1.8590769 0.23906174 -0.65766513 -0.5404786 1.4980693
krävs 0.4612975 0.19032307 -1.6990427 -0.60901713 0.28132886 -0.4686579 0.38726446 0.35078028 -1.7002857 -0.12693909 1.3680364 1.2487539 -0.1301998 0.3259185 0.60165596 0.42738163 0.2801978 -1.063272 0.5993248 1.2984737
alltid 0.019828232 -1.3361667 -0.38590544 -0.6367707 0.78036195 -0.64417726 0.53687364 0.3371868 -0.92041284 -0.41798675 1.3884915 0.9692735 -0.32692966 0.32333133 0.0880239 0.60438883 0.2815206 -0.7904002 -0.11357536 0.3066384
enligt 0.78190744 -0.60978377 -0.9448851 -0.6474273 0.26442158 -0.46222362 0.41531298 0.2158809 -1.7558045 0.18788414 1.9502535 0.81938064 -0.8979516 -0.35023874 0.17123486 0.9402341 -0.3014087 -1.58113 0.4616314 0.82321864
tung -0.97955996 -0.42377025 -0.20078816 -1.1526866 -0.045495726 -1.1137372 -0.64547515 0.8074167 -0.6434447 -0.26190117 0.9268947 1.0886632 -0.10290153 0.0149446735 -0.881404 1.3378533 0.22845396 -0.54465294 0.5826833 1.428482
film 0.58897275 -0.23288895 -0.37884808 -0.5658546 0.37926978 -0.6771656 0.6252944 0.57401556 -0.19215035 -0.14567906 0.33255702 0.4078901 -0.34202483 0.45268723 -0.044833828 0.71550083 -0.1459613 -0.2491532 -0.3090267 0.5794823
versioner 0.6032327 -0.832846 -0.35483643 -0.18912233 0.91140574 -0.10157884 0.42145577 1.2443197 -0.41824847 -0.26685467 1.3833661 1.0523664 -0.25671998 -0.4608953 -0.119788304 0.75927657 -0.174517 -1.5795984 -0.21561079 0.22505105
mage 0.48954296 -0.1240313 0.5034317 -0.8934051 0.31334314 -0.40443087 -0.05652803 -0.7387028 0.1243429 0.20353597 -0.5464342 0.78100765 0.51054454 0.56305987 0.4322318 1.2797238 -0.15178105 -0.5529703 0.767035 -0.15035528
beteenden 0.3428534 -0.51113665 -0.6139532 -0.25073263 0.31299716 -1.1173307 0.06096786 0.43521902 -1.0756979 0.26958835 0.84753495 0.4387402 -0.062461525 0.12080469 1.0069623 0.5177224 -0.11117959 -0.42750627 -0.3704 1.1105751
köra 0.6280723 -1.0639243 -0.98387337 -0.58609426 0.95918727 -0.20780815 -0.7808041 0.69827676 -1.7080837 -0.09332418 1.7686095 0.5329837 0.33135685 0.34423307 0.08172023 1.9916755 0.89610666 0.21344471 -0.25476104 0.80234617
nackdelen 0.37894502 -0.05607719 -0.84012306 0.011019797 0.5136087 -0.70195526 0.37513098 0.92405695 -1.7283837 -0.34460253 1.310195 0.8710693 0.23776592 0.43880296 0.04743716 1.8826481 0.36025733 -0.36780918 0.54031867 0.82487446
överlevnad 0.5227416 -1.0909421 -0.46724904 -0.12597911 0.015365514 -0.42510262 -0.38786086 0.38411605 -0.9272426 -0.37059733 1.661523 0.7824468 -0.15571803 0.9296753 0.30689856 1.2101297 0.32108083 -0.37897277 0.33521736 0.8611781
handlade 0.4121119 -0.38787228 -0.87826 -0.621876 0.38231197 -0.5799126 0.17453602 0.33482155 -0.5178857 -0.11916516 1.0609015 0.6324401 -0.20926654 0.54076815 0.17708245 0.8202015 0.2664021 -0.6375972 -0.23088172 0.427751
rakapparat -0.4048067 -1.0984486 -0.37036562 -0.08622674 0.57221246 -0.17940912 -0.5338684 1.182027 -1.5281538 -1.2312604 1.5159559 1.8016758 -0.8970113 0.6689062 -0.13132147 2.4884608 1.0481883 -1.2572604 -0.034151495 0.19410859
kul 0.67017597 -0.17110059 -1.1905218 -1.5084507 0.7548977 -0.92697144 0.098766394 0.9573608 -0.5198745 0.09531433 1.2386531 1.9071643 -0.50792277 0.17792997 -0.9823879 0.5554922 -0.20058897 -0.41805047 0.076095164 0.88707197
tyckte 0.56461763 -0.9112015 -1.176729 -0.52179295 0.7152932 -0.8626469 0.53610855 0.93238026 -0.84797364 -0.7687687 1.0783304 1.3017765 -0.22318052 1.170908 -0.17627743 1.1834586 0.28932858 -0.50749826 -0.07968474 0.5717041
ökat 0.39136887 -1.1530792 -1.0408051 -0.49611187 0.8124385 -0.09673155 0.09569953 0.41926157 -0.92899036 -0.15838534 1.224621 0.98236793 0.32038566 0.61819524 0.3466792 0.8330951 0.4118785 -0.6019697 0.16142486 0.72232884
tvungen 0.15827794 -0.6018396 -1.1296729 -0.8954887 0.47317895 -0.101706974 0.15449387 0.72494787 -0.85769165 -0.6282198 1.4772117 0.6940424 0.803971 0.46156323 -0.36873 1.0585508 1.052128 -0.7411588 -0.17302586 0.3704038
världskriget 0.30069178 -1.152835 -1.2151161 -1.0175617 0.46782503 -0.7560345 0.64112127 0.27672735 -1.0558532 -0.21091683 1.4124881 0.8854114 0.28959742 0.2915577 0.44585872 0.64366263 0.21952152 -0.39408863 -0.861748 0.8346781
sammanfattning 1.3571308 0.027349556 -1.2147192 0.6271973 1.5201389 -1.2423381 0.5517963 1.2088652 -0.82536435 -0.8716924 0.70661986 1.3115947 0.079738185 -0.14927049 -0.004838515 1.47217 0.19976397 -0.7399552 0.41736865 1.3276654
regulatorer -0.26191932 -0.8974734 -0.7566807 -0.15698673 0.13023707 -0.06997605 -0.7087204 -0.37469843 -0.6464113 0.13198724 0.45111042 0.48588568 0.9407972 -0.36061683 0.33385453 0.91901094 0.6988891 -0.28674483 0.2951295 0.465398
konspirations 0.264037 -0.48331642 -0.17701975 -0.7561758 0.32117856 -0.7070284 -0.14094013 0.23451386 -0.7406183 0.27455053 0.026055802 0.42479607 -0.5419437 0.37735406 0.46090144 0.39485097 -0.3475107 -0.45886815 0.35352322 0.37015107
menu -0.04737641 0.2734603 -0.26930228 -0.52793413 1.4112781 0.7722199 -0.29432657 -0.19297613 -0.65411735 0.15222067 -0.1876738 0.2672424 0.97269094 0.17433366 0.43724528 0.55792683 -0.08372721 -0.23250943 0.6780115 -0.00961369
hits 0.33628455 -0.6637992 0.5533158 -0.9830377 0.8732254 -0.33088443 -0.41949975 0.04808913 -0.61392725 0.17592263 0.06490517 -0.34972936 -0.45889834 -0.08372005 -0.07159772 -0.039545074 0.08842169 -0.6779716 0.4368099 -0.22300729
stöna 0.31167063 -1.6790997 -1.1714076 -1.4333419 1.2316614 -0.25078633 0.052358642 1.0778226 -2.625402 -0.47123775 2.648399 1.5675764 0.0995307 0.340274 0.07372611 1.3330632 0.28109953 -1.7432374 -0.14971901 0.86078024
räcker 0.43153018 -1.2872835 -0.7797642 -0.8706324 0.9491697 -0.48919806 0.10628734 0.52553976 -1.2243469 -0.43687302 1.5994288 1.0955712 -0.47115472 0.40901357 -0.1606189 0.59612715 0.019249288 -0.8595925 0.8022191 0.92840284
element 0.011117386 -0.2561505 0.39776057 -0.30174363 0.3146858 -0.13308163 0.08698898 0.41741034 -0.32184508 -0.07345538 -0.5368773 0.38616446 -0.44964612 -0.12940623 0.42481497 0.6486403 -0.38577026 -0.46136093 0.5271981 0.7628135
linsetuiet 0.045386568 -0.45901582 -0.16348286 -0.109222315 0.32758546 -0.54919845 0.7868315 0.13989685 -0.50757253 0.19462653 0.31441617 0.7635023 0.09818173 0.77727324 -0.47370294 1.3654877 0.5700394 -0.80844456 0.52019113 0.80927324
spela 1.1420735 -1.2011478 -0.8023867 -0.7999805 0.7668523 -0.37096354 -0.30670068 0.47974935 -1.3513254 -0.275629 0.70364064 0.95040095 0.12927851 0.51071936 -0.75774944 0.3313812 0.27889997 -0.23505446 -0.17640883 0.8077587
fotograferar -0.25732544 -1.2088206 -0.35117224 -0.2877529 1.1816062 -1.2939076 1.3023963 0.6040705 -1.1352612 -0.30348003 1.6493559 1.438194 0.35306478 1.0956703 -0.48751214 1.5046024 0.31876737 -0.78256565 0.76195306 1.4603333
positiva 0.40805015 0.05462014 -0.8024795 -0.35016674 0.31026682 -0.44106278 0.41061294 1.1952319 -1.5164385 -0.6525498 0.7002569 0.8698166 0.09235039 0.62230164 0.60477895 0.64198 0.3979193 -0.9862971 0.28905043 0.37110582
grrrrr -0.68317205 -0.3764595 -1.2464412 -1.9891281 -0.30867514 -1.5910417 0.69066054 -0.13642804 -0.71716005 0.0471331 0.38377377 0.29011473 -0.26859167 0.37441263 0.1698609 0.28019056 -0.163931 -2.4993613 -0.490188 2.4062178
lbs -0.7280463 0.29561305 -0.13122153 -0.25467068 -0.041598033 -0.8315463 -0.47521815 0.47055888 0.08591334 0.16340506 0.24818482 0.3675777 -0.19456133 1.1832161 -0.17439051 1.5453976 1.2424965 -0.6950714 0.6733507 -0.2978239
powerpoint 0.59915876 -0.0773319 -0.28654286 0.15337758 1.2881601 0.7833915 -0.71635294 0.24686432 -0.6744113 -0.12488226 0.2685614 0.31163242 0.2953712 -1.0168685 1.3330771 0.43557343 0.40482458 -0.86456853 0.51769954 0.37297365
antar 0.0055518867 -0.36394677 -0.67931354 -0.8256305 0.69592947 -1.1647302 0.041329104 1.075885 -0.6622759 -0.47842693 1.3119072 0.6562651 0.18176411 0.40051568 -0.15255834 0.43217653 0.8915681 -0.5855277 0.13723946 0.08763342
amok 0.043790054 -0.23720655 -0.11564064 -1.107632 0.110136054 -1.0324078 -0.28126624 -0.67735374 -0.21161923 -0.09353385 -0.38429385 0.38429114 0.27556413 -0.028641462 0.8829514 0.08105889 -0.3100008 -0.49559745 -1.0246935 0.3652795
opraktiskt 0.5686822 -0.66812515 -1.1964041 -0.5079025 0.31585392 -0.17222133 0.057817075 1.0513873 -1.2992154 -0.3066653 1.0447143 1.0083712 -0.5346934 0.2405879 0.45672223 1.1302469 0.3773161 -0.5881532 0.28119132 0.7762449
telekonverter 0.14647272 -0.8320766 -0.11850209 0.19959792 1.2440315 -0.43605217 0.24485531 0.35688254 -1.4168055 -0.16166504 0.7642 1.4894614 0.14412451 -0.16899136 0.017909504 0.9600115 0.6576485 -0.6628765 0.7713575 -0.21411729
schulz 0.011798072 -1.0182183 0.12854393 -1.7196461 0.51515585 -0.33184877 -0.13104808 0.747095 -0.8186168 -0.7489608 -0.2872746 0.55932325 0.114405446 -0.3025737 -0.4045341 0.68995523 -0.08943136 -0.07146612 -0.80688715 -0.24427204
jessica 0.89608103 0.011638995 -0.40830612 -1.5009964 -0.054335047 -0.6754579 0.8359352 0.17004664 -0.28162143 -0.5469945 0.17802672 0.3381036 0.1702381 -0.25591892 -0.34511563 0.076738134 -0.27501702 -0.48413506 -0.5913882 1.0975574
grooming -0.17449902 -0.48351333 0.24467488 0.028796837 -0.35836148 -0.22649005 -0.64868236 -0.38497373 -0.41733703 -0.012046902 0.1456402 0.70130014 0.04933088 0.16225326 0.5056109 0.50369316 0.070596896 -0.35062402 0.2275071 0.3276619
grupper -0.20500103 -0.8327383 -0.2267375 -0.42118955 0.6887151 0.14683658 -0.59754616 0.41199368 -0.6099777 -0.026347477 0.9602721 0.70382607 -0.3081554 0.27033368 -0.08909867 0.629933 0.030306606 -1.1884168 -0.57834095 0.52622706
ärligt 0.97561544 -1.0994481 -0.99863476 -0.25265595 0.2693808 -0.12500066 -0.04856955 0.56058097 -1.5491298 -0.30009547 1.0575196 0.7362734 -0.5043519 0.5703856 -0.78662986 1.4355991 0.8665936 -0.9076983 0.25372133 0.741193
varnas 0.87609875 -0.5838357 -1.2668866 -0.67608804 1.212614 -0.771631 -0.30290174 0.73610395 -1.8247217 -0.45141062 1.3645183 0.6518703 0.059947453 0.5192777 0.35022643 0.67341167 0.28317797 -0.5899812 0.07382308 1.0787761
uppslagsbok 0.7829738 -0.53309965 -1.5063128 -0.56551766 0.8734506 -0.7191674 0.039673552 0.71093225 -2.1014235 -0.80721927 1.4035302 0.7742295 -0.16603324 0.4136098 0.5192877 0.69628793 0.15907994 -1.2316159 0.0830331 0.9590536
vetat 0.27439895 -0.17103668 -1.3471199 -0.84099567 0.43946466 -0.45288292 0.5172796 0.89365715 -0.79615706 -0.7922507 1.1370043 1.1126003 -0.5772532 0.39576042 0.0014835119 1.4448223 0.3288315 -0.6606914 -0.058947682 0.60996944
vetenskapsman 0.78162175 0.026487084 -0.7026711 -1.3689885 0.28952143 -0.5445806 0.49779186 0.63736945 -1.1315405 -0.28850934 0.82974225 0.62834847 -0.13965316 0.46835205 -0.18066949 1.2540228 -0.28787947 -0.11985007 -0.40525204 2.0781674
rika 1.002054 -1.0839127 -0.9811669 -0.40093833 1.1537153 -1.7269917 -0.8027151 1.4267592 -1.1165468 -0.62289023 1.308254 1.0596957 0.32905734 1.0623851 0.08152021 1.3560876 -0.51371706 -0.18444653 -0.16261038 2.359477
joan 0.6055781 -0.48547384 0.052946612 -1.0779678 -0.19011956 -0.01970424 0.294839 -0.56156844 0.38577703 -0.1315863 0.3138081 0.06920451 -0.25293803 0.09425457 -0.21464942 0.515217 -0.33533737 -1.0219404 -0.9638525 0.38353318
rogue 0.109259166 -0.2562022 -0.06777717 -1.197322 0.15821116 -0.04698812 -0.13731484 0.17607565 -0.3484175 0.2842039 0.17825909 -0.03323458 0.34416705 -0.27888373 0.13405877 0.55347437 -0.26683426 -0.037557658 -0.5363819 0.3138216
intuitivt 0.33743662 0.32882902 -0.8729686 0.5953844 1.3316855 -0.27927306 -0.35019508 1.2251494 -1.7017679 -0.019138882 1.0270323 1.4517373 0.08339587 0.7628154 0.41148672 1.5170084 0.20871666 -0.81933373 0.37702087 1.2031732
cantina 0.3823087 0.34952825 0.026177978 -0.6073401 0.35569623 -0.8863297 -0.061935868 -0.09829491 -0.43215975 -0.68229336 0.007010923 0.25316072 0.51483965 0.049643293 -0.46243247 1.1139692 0.13523014 -0.36167765 -0.73377603 -0.3789226
lo 0.44029242 -1.317357 -0.39061928 -1.37707 -0.955809 1.3217793 -0.987926 0.037396 0.23925635 -0.89256287 0.7406734 0.30742317 0.1252127 0.8520675 0.6776608 1.0747846 -0.08149532 -0.9288987 -0.106560834 -0.57220554
jvc 0.6200054 -0.13660654 -0.43587822 0.23583397 0.017006148 -0.5185058 0.65355885 -0.7123486 -0.33035287 -0.02986359 0.41730568 0.5388345 1.1086727 0.8598213 -0.15672691 0.7158068 0.15533435 -0.8603214 -0.12469237 -0.68121463
hawking 0.5090321 0.16564137 -1.0681213 -0.4642435 0.2546874 -0.110421225 0.45410612 0.5046901 -0.2681801 0.6333867 0.4907162 -0.22778918 -0.36027312 -0.48890525 1.2945055 0.82661974 -0.8463453 -0.5826515 0.48336527 1.3680302
giltigheten 0.85004014 -0.45008194 -1.179427 -0.6192191 1.0054053 -0.72901577 0.19848004 0.7066804 -0.7376353 -0.1453589 1.5980233 1.445856 0.019986026 -0.33850464 0.033523604 1.106549 0.5518977 -0.4741697 0.014070662 0.86534125
specialeffekter 0.4097953 -0.28314278 -0.41788986 -0.97766805 0.8650955 -0.6632462 0.5715211 1.3020833 -0.7223697 -0.03126465 0.8201246 0.989666 -0.020258691 0.09216842 0.36347368 0.76209134 0.46845657 -0.13636518 0.06286719 0.17566168
ropen -0.2428078 -0.9564827 -0.1251416 -0.9876244 0.88116115 0.09400762 -0.28331545 -0.013396502 -0.46550763 0.41978824 -0.08838182 0.059270147 0.373242 -0.24359855 0.19482781 1.3155234 0.6549959 -0.31866005 0.46414852 0.79993176
användarna 0.57387376 -0.74832857 -1.5431169 0.13663545 1.1712246 -0.20610806 0.237966 0.91744775 -1.4591403 -0.46127495 1.3058022 1.5149093 0.17299439 0.7347095 -0.018935228 1.5957681 0.7472485 -0.9290448 0.53364 0.9934955
glesa -0.030363388 -0.013197737 -1.3258693 -1.6867597 0.36156616 -0.6415319 0.2581244 0.62789243 -0.2784149 -0.06097849 0.0115424525 0.3159639 0.85032487 0.1442409 0.21631165 0.98536557 0.0067226887 -1.1494478 0.8755013 0.24969622
utgåvan 0.6546043 -1.6406119 -0.10398166 -0.35239634 0.8279045 -0.6159518 -0.2827542 1.2267882 -1.133724 -0.4459464 1.3887812 1.2856046 0.29452673 0.28022936 0.1589899 0.7219507 -0.38404286 -0.7994696 -0.08856686 0.0050369785
killarna 0.27878702 -0.84318346 -0.786402 -0.77925354 0.8091087 -0.7281113 0.26445386 0.7871459 -1.4580008 -0.471688 0.84332603 0.6839373 -0.40907 0.010456593 -0.3543785 0.66158026 0.17695738 -1.0946729 -0.28307265 0.8221508
organisation -0.5514832 -0.25828075 0.022568608 -0.83358526 0.08512488 -0.23611613 -0.63691014 0.03409919 -0.5203519 0.098298565 0.5332769 0.3232128 0.25078985 0.38104215 0.81834984 0.18853307 -0.21978769 -0.8893845 0.14592789 0.97030675
hantera 0.32675964 -0.26337275 -0.7507486 -0.1989329 0.56393874 -0.57026803 -0.06017182 1.2587999 -0.89088434 -0.27188998 0.871991 0.8462272 0.37055618 -0.3273922 0.6575521 0.5769982 -0.047482118 -0.60946137 8.02434e-05 0.566116
sjunker 0.3957014 -0.65803236 -0.48707467 -0.6111293 0.56080735 -0.6217466 0.2162602 0.4514563 -0.49773723 -0.36654574 1.2198447 0.26434645 -0.22283618 0.20175385 -0.43744546 0.9421233 0.48693258 -0.8908472 0.05840532 0.8791852
hittat -0.21881804 -0.8283301 -0.5444472 -0.31070012 0.61867744 -0.45126936 0.04428785 0.9590161 -0.6002741 -0.65743613 1.3262819 1.2491271 -0.41335943 0.09661348 0.45884535 1.2402124 0.63599604 -0.72311354 0.35911116 -0.15281749
energi -0.09304226 -0.335133 -0.28374648 -1.0222842 0.6902212 -1.2367682 -0.9098853 1.033557 -1.3063722 -0.30826813 1.1151031 0.87197053 -0.7641155 0.62271386 0.21980795 0.5662375 0.23579396 -0.45577827 0.08578889 0.986709
savaged 0.072905965 -0.7658403 0.17657515 -0.50077635 -0.0005715728 -1.2951809 0.19392344 0.13321824 0.8488714 0.57214344 0.46929735 -0.012795391 0.43210596 -0.32572207 0.9278868 0.2830265 -0.09318949 -1.4923316 -0.3760826 -0.032449063
episk 0.7997473 -1.3245939 -1.0996643 -1.2229112 0.7723522 -1.6551831 0.8756283 1.5640398 -1.5055 -0.86499125 1.4939398 0.7961434 -0.04074894 0.6591636 0.22436704 1.5616524 0.90210193 -0.82717484 0.18731539 1.1588265
dörr -0.5136443 -1.2713622 -1.5416474 -0.77671057 0.55989623 -1.0326303 0.5280676 0.9752019 -0.39793155 -0.59145653 0.8492577 1.2335068 0.22778223 0.66198945 -0.27723566 0.24504218 0.68621445 -1.5588351 0.23538171 0.28950387
skapa 0.47020942 -0.7572002 -1.0461415 -0.39347064 1.663855 -0.42400795 0.14119768 0.50432837 -1.9441717 -0.13802764 0.9146734 1.04231 0.27239573 -0.1819335 0.015905261 0.16020788 0.4411193 -1.0015405 -0.61740136 1.1494321
tandy -0.14039654 -0.1557135 -0.0011358749 -1.0689993 -0.4124484 -0.7425804 -0.62499774 0.400118 -0.2765109 -0.11017513 0.45767534 1.2410989 0.21245399 0.3319008 -0.21582903 0.98413485 0.35768497 -0.8578865 0.5611595 0.61756605
recensioner 0.78329456 -0.55814487 -0.97935146 -0.55226135 0.065689065 -0.26990163 1.1669492 1.3336041 -1.1071811 -0.19534196 1.1035639 0.85067505 0.2528662 0.32609275 0.32233027 0.7649601 -0.01889803 -1.1256047 0.17035367 -0.39448982
dam 0.22565761 -0.57547617 -0.109331176 -0.8348423 -0.2691703 -0.20107225 0.14863236 -0.11733635 -0.12535903 0.14965236 0.036073536 -0.071152344 -0.19028863 0.09506083 -0.6329283 0.9198133 -0.40482065 -0.44424346 -0.0045547835 0.89713955
toaletter -0.30508345 -0.27149314 -0.5744391 -0.43156642 0.7689588 0.10315651 -0.084785536 0.6036812 -0.7133772 0.35262033 0.52153754 0.4446659 0.55760044 0.15110542 0.6174828 0.8310453 -0.28953257 -0.9752006 0.5354802 0.59730494
musikindustrin 0.18367122 -0.08776601 0.7177576 -0.6455966 -0.1502997 -0.9828113 -0.678969 0.5997153 -1.1298801 0.25587544 0.12787932 0.16823906 -0.10019994 0.32301542 -0.021392183 0.68336576 -0.5995741 -1.3104538 -0.22707172 0.14774865
etiskt 0.33889183 -1.0776837 -1.5137303 -0.11901862 0.20239674 -0.9652451 -0.52870184 2.0027964 -2.112372 -0.4414428 1.4843419 1.0704366 -0.508888 0.55198634 1.0317067 1.723783 0.80738604 -1.0367996 0.41413566 1.532689
smart 0.2782489 0.21092755 -0.1172954 -0.75293976 0.09837382 0.0419653 0.10391997 0.08178434 -0.279829 0.17280789 0.023668798 0.7751934 0.015762752 -0.60095006 -0.018057171 0.16455841 -0.14143643 -0.39798376 0.44356945 0.8254997
flesta 0.73317575 -0.31788835 -0.867325 -0.3155725 0.833953 -0.45576015 0.3952326 0.34165922 -1.2249677 -0.2886493 1.2583171 0.5348887 0.054612663 0.6475216 -0.20877978 0.72677964 -0.21093574 -0.6930016 0.5410679 0.8372862
knappt 0.121399604 -0.56390846 -1.0552132 -0.75763315 0.7574898 -0.12872362 0.5899544 0.944359 -0.8860829 -0.8102803 0.7899409 0.9054974 0.62917566 0.9410126 0.0158918 1.1420368 0.27577934 -0.19473779 0.11263174 0.7854935
intressant 0.37258694 -0.41084868 -0.77178717 -0.7899854 0.46005145 -1.0191227 -0.28022382 0.51094174 -0.92680293 -0.27675447 1.1035028 0.8211474 -0.19974728 0.81128806 0.2365063 0.25267303 0.010126288 -0.18283808 0.13241744 1.1028882
driva 0.426101 -0.73546773 -1.0533206 -0.5448014 0.40047312 0.050414562 -0.90840304 0.67560416 -1.3094243 -0.06189345 1.1895353 0.828914 0.3786408 -0.6301695 0.013992111 0.6953336 0.3184006 -0.6848385 0.0110235335 0.57364386
djärvt 0.738729 -0.4561109 -0.95179355 -0.4283119 0.6085071 -1.5389273 0.63894224 1.768886 -2.345051 0.02921712 1.7834656 1.3696196 -0.7591317 0.8544031 0.7850784 1.8618987 0.27866474 -0.8187075 -0.197805 1.4041326
djupdykning 0.052357428 -0.85366553 -1.0520295 -0.16403191 0.6777002 -0.7541841 -0.5446635 0.95516133 -1.7869978 -0.4064342 1.7009794 1.3273585 -0.08781039 0.8875638 0.6126451 2.0017426 0.10401843 -0.38517988 0.13528344 1.0632607
filmerna 0.8800366 -0.66563535 -1.4341147 -1.3052589 1.0998828 -1.0956067 0.5470058 0.6397915 -1.1024973 0.116060026 0.97358274 0.14011371 -0.58377844 0.43938145 -0.09677931 0.5089645 0.42182884 -0.17569378 -0.7280906 0.8740447
dual 0.82124144 0.037978556 0.2816529 0.12960137 1.1139141 0.546417 -0.88738215 -0.2810149 -0.35202155 0.24357377 0.027034087 0.32788354 0.5274166 0.30418134 -0.20649265 1.7111694 0.07587592 0.54854786 -0.078372166 0.49727562
medföljer 0.01309718 -0.92587143 -0.4122748 -1.160412 0.62199247 -0.38322768 0.19117974 1.0278443 -1.0252081 0.10729162 1.620474 0.75967896 -0.06710449 0.68355846 0.28825408 0.74952924 0.27963957 -0.714715 0.44989264 0.661515
fascinerande 0.5812118 -0.85416687 -0.68684256 -0.6655453 0.7303981 -0.6970503 -0.060710035 0.57310426 -1.2872195 0.44594005 1.0726485 0.66513675 -0.72693366 1.0550761 0.64386433 0.47555244 0.27190763 -0.23672904 0.28571624 1.2558812
folk 0.43409958 -0.6121216 0.117179744 -0.4032055 0.381132 -0.8755103 -0.8475621 0.17899679 -0.7346176 0.36879966 0.35006693 -0.15153861 -0.452762 0.44263414 -0.16506834 0.0005994277 0.12895852 -0.70901334 -0.27535564 1.0782282
finns 0.37346295 -0.4356079 -0.6141846 -0.54623896 0.9922727 -0.46287414 0.3322973 0.9176909 -1.2880825 -0.22539923 1.3994267 0.95375335 0.17677045 0.1559685 0.3093669 0.8416429 0.16695373 -0.65313876 -0.112387754 0.9086266
öken -0.01378915 -0.12955074 -1.5950258 -1.7617228 0.7025854 -0.8736809 0.61046827 0.9174849 -1.0866619 0.11093994 2.2033737 1.1810611 0.79627186 1.1542771 0.03580775 0.8936933 -0.47951213 -0.7143463 0.2679399 1.1689004
påsk 0.8724891 -1.488144 -1.3628486 -0.44178036 1.3341376 -0.8472643 0.61230123 0.5263538 -1.377244 -0.07789661 1.5203959 1.2418033 0.6974386 -0.06209549 -0.0077856802 1.3506021 0.5828803 -0.23192488 0.78874725 0.4267111
tavlan 0.3043186 -0.4204275 -0.5897049 -1.0711198 0.25374487 -0.93804216 -0.03276912 0.1347039 -0.53695863 0.10617091 1.1298538 0.6826611 0.07718375 0.040649325 0.09006356 0.71298474 -0.2502006 -0.677253 -0.3175439 1.1919461
gick -0.06731762 -0.15849493 -1.2750202 -0.9425368 0.19639067 -0.089659974 -0.35979277 0.4286916 -0.37702158 -0.78823453 1.3999543 0.611195 0.6203708 0.62655383 -0.31886372 1.3235373 0.71194136 -0.29497826 -0.41165477 -0.058279015
soapbox -0.27366692 -0.16765483 -0.052270655 -0.40739632 0.68252337 -0.4904056 -0.5181384 0.10734238 -0.017913671 -0.15441182 -0.7229682 0.27507907 1.0352626 0.033445418 0.4658518 0.6631549 -0.35753754 -0.85082626 0.48536733 0.0004634519
brett 0.722388 -0.43764594 -0.37190276 0.06979411 1.3052229 -0.43550956 0.045906685 0.10269378 -0.60184896 0.44890565 1.2262065 0.77360654 -0.00782334 1.0791419 -0.48425138 0.1581324 -0.95893544 -1.6366293 0.18774983 0.54248226
usm 0.7602902 -0.8947129 0.6543675 0.133809 1.1005228 -0.3019345 1.3867807 0.012817843 -0.79797685 -0.15289125 -0.050355367 0.85902035 -0.99288183 0.54595035 -0.4549047 1.3388727 0.35645056 -0.85999644 1.3517257 -0.17143117
word 0.43123028 0.3713521 -0.3723832 0.21453758 0.72291875 0.19582658 -0.442515 -0.006729741 -0.44560707 -0.004993336 -0.1956655 -0.39904073 0.4714495 -0.5469857 0.8604044 0.48931837 0.1586142 -0.98671144 0.08371453 0.20057184
menymetod -0.33448786 0.073460594 -0.645099 -0.6153383 0.17022716 -0.45143497 0.09032758 -0.09649828 -0.5160132 0.096785635 0.95461965 0.6578868 0.8130815 0.38005635 1.2747331 1.219293 0.2253661 -0.5339288 0.4174076 0.6873081
uv -0.48329532 -1.0149567 0.76696783 -0.16652045 0.2900441 -0.8328918 0.74378026 0.036547013 -0.3143674 0.29465604 -0.44906855 0.9901591 -0.034988664 0.4448272 0.20417397 2.1528397 -0.14685436 0.29421154 1.2665741 -0.5397477
roll 0.016902756 -0.5971329 0.1249603 -0.8415981 0.5718586 -0.16919726 -0.5145762 -0.2543532 -0.1572482 -0.07780486 0.2730535 0.44185877 -0.50257844 -0.32342064 -0.45122355 0.21812686 0.18922396 -0.50923544 -0.13343062 0.29393685
utgångspunkt 0.6316055 -1.1654503 -0.8165502 -0.93182784 1.2191855 -0.88107103 -0.078595206 1.3289824 -1.9351013 -0.12200665 1.9700623 1.0402697 0.1396128 0.5291807 -0.01554485 1.7838825 0.1411833 -0.60621256 0.0451002 0.8034843
gillade 0.8893159 -0.4129222 -0.9006448 -0.47541744 0.56291556 -0.24167728 -0.060524713 0.65061516 -0.99568814 -0.84929216 1.0673212 0.28685135 -0.43510935 0.48934576 -0.04730541 0.60950536 -0.076204166 -1.2845892 -0.4278607 0.30924997
albumspår 0.38080347 -0.8513941 -0.04256366 -0.78063977 1.0109051 -0.50266945 -0.62602276 0.5606335 -1.6826653 -0.3733813 0.7486583 -0.08947152 -0.5450634 0.32569402 -0.5478498 0.24703074 0.04560073 -1.2222226 -0.2122064 -0.12738398
valkyries 0.1537811 -0.331929 0.06213351 -0.75022507 0.17400685 -0.6324701 -0.50201106 -0.061563034 -0.19410568 0.48658264 -0.3659201 0.26124457 0.056940727 0.6673746 0.80607605 1.2021039 0.46574476 -0.6906068 -0.12195097 0.18511568
söka 0.7249127 -1.1159431 -1.9193667 -0.21142001 1.1597536 -0.9977026 -0.3849007 0.2175435 -2.052034 -0.55114275 1.3766606 0.6906219 0.2188201 0.71830726 -0.41338685 0.7731802 1.205269 -0.5785313 0.7246079 0.7916699
tillgänglig 1.2249476 -0.7849187 -1.0582441 -0.4452942 1.1672385 0.20417129 0.30136764 1.193161 -1.0596321 0.19365282 1.4681304 0.91194767 0.43381372 0.2523683 0.20584694 0.76882505 1.0458918 -0.67577106 0.97385067 0.71185845
försitta 0.51995564 -1.1046047 -1.9151958 -1.1419699 0.27340725 -0.7671111 0.09703667 0.5922144 -1.3725665 -0.44467396 2.073893 1.2267264 0.3062694 1.137891 -0.24796298 1.2385535 0.6803603 -0.8838828 0.34552437 0.53957665
within -0.101345025 -0.2545004 0.2886733 -0.5473701 0.2523695 -0.28080264 -0.36253503 -0.49071914 0.2334806 0.3513832 -0.33990604 -0.37765083 0.8956272 0.68422973 0.5028568 0.6723532 0.34097472 -0.3865893 -0.04203349 -0.2096002
storbandsarrangemang 0.2997146 -0.33002496 0.22547019 -1.1153266 0.40757132 -0.6474878 -0.3336903 0.24669768 -0.27493906 -0.018390385 0.56058335 0.32612237 -0.0720096 0.04336599 0.0009899788 0.41363928 -0.4777405 -1.045087 -0.21079795 0.5547019
hunden -0.15457791 -0.698685 -0.5172941 -0.38863343 1.2885867 -1.4557205 -0.30877692 0.51411927 -1.0556859 0.368585 1.241294 0.5787317 -0.31451648 0.52351075 0.55510193 0.80328244 0.75312823 -0.566 -0.013138954 0.96189374
barns -0.30282295 -1.0909536 -0.35152227 -0.7114739 -0.31768045 -0.48440415 0.018733824 0.35072854 -0.60396916 0.28930333 0.35507244 1.048324 0.27624825 0.8433266 -0.32966536 0.8514201 0.3819232 -0.3733254 -0.38437626 1.3428837
beställa -0.019816315 -1.2141439 -0.991532 -0.12876444 0.32480377 -0.36913103 0.2523509 1.3421624 -0.9146432 -0.42211074 1.2971245 0.6850579 0.18337847 -0.060426667 0.22556967 1.8336247 1.2270868 -0.92008543 -0.036824886 0.13763702
fortfarande 0.5298058 -0.27666453 -1.0407171 -0.574062 0.44756585 -0.44390205 -0.071383975 0.63677716 -1.2416216 -0.8749503 1.1707969 0.7465878 0.14112163 0.022816638 -0.3774251 0.82594806 0.1668698 -0.78808755 -0.09929203 0.51820135
tänkande 0.55559754 -0.76422346 -1.048171 -0.41563678 1.4094706 -1.3627023 0.36105105 0.6957765 -1.3148156 -0.43150046 1.5746918 0.94975 -0.4786656 0.45814013 0.39403343 0.8788487 0.54325795 -0.39668122 -0.12457714 1.0259528
samla 0.7766239 -1.7839509 -0.90570235 -0.91124505 0.8378552 -1.941219 -0.47872183 1.2179171 -1.4647983 -0.91847783 1.6272206 0.7939819 0.10637279 0.4881412 0.4219754 -0.36426613 0.12741324 -0.92215383 0.022018198 0.052961532
lucka 0.8401244 -1.1771722 -1.3141363 -1.1512504 0.36103943 -0.820072 -0.31852955 0.5345387 -1.0757996 -0.8356819 1.6795201 1.1293769 0.49567264 0.6579476 -0.44791663 1.1417419 0.9680337 -1.5705615 0.28008732 0.4995111
konst 0.08439789 -0.8603852 -0.23063727 0.44181845 0.79583704 -0.9818481 -0.33591852 0.5991914 -1.4134421 0.15009902 1.2267935 1.6195649 -0.6675117 0.24706395 -0.018374251 1.071342 0.4946655 -0.87863946 0.10130706 1.1667019
fortsätter 0.3350823 -0.5920855 -1.4317087 -0.6087248 -0.047881223 -0.23932809 -0.9864277 0.42578214 -0.7978357 -0.8819668 1.0979184 0.13700292 0.27858546 0.2825649 0.53259045 0.7385126 0.764571 -0.2534626 0.25051227 0.8600498
ohion -0.25729105 -1.5238414 0.19787186 -1.1110476 -0.488503 -0.21277319 -0.006887539 -0.3020664 0.24912448 0.5379422 0.34585384 -0.3836588 0.03398134 0.38682273 0.34700063 0.9487089 0.48211062 -0.6509029 -0.18813206 0.89361227
ärlig 1.2941121 -0.86199945 -0.63786805 -1.0140828 0.12398196 -0.38649127 0.37104633 0.8385659 -1.4691225 -0.020045469 1.1698371 0.59260905 -0.5809003 0.65640396 -0.48346597 1.1003183 0.6162001 -0.56743443 0.17812352 0.99916565
passa 0.22649403 -0.39119357 -0.016536888 -0.6096312 0.55714244 0.078454524 0.09660887 0.22809452 -0.06567105 -0.27706063 1.6598725 0.4723736 -0.3934845 0.30451578 -0.60038304 1.1628058 0.59260803 -1.1812313 0.44398344 0.9078562
anlita 0.341216 -1.0649217 -0.90745234 -1.0997145 0.80783397 -0.37514082 0.09307144 0.652227 -0.6358734 0.37040484 1.4944228 1.2666879 -0.012678909 0.61172956 0.51461685 1.2970542 0.5770886 -0.13211676 -0.42719018 0.52623016
integrations 0.16668501 0.078275405 -0.1045016 0.43856212 0.8453099 -0.08683906 -0.59347993 -0.041523065 -0.22247133 0.27134794 -0.22541468 0.6791829 0.7206062 0.2802329 0.9592863 0.4068581 -0.4553799 -0.4152611 -0.014307345 0.22949678
plötsligt 0.161012 -0.20453651 -1.4005696 -0.43904427 0.67506874 -0.33499926 -0.24745747 0.52529466 -0.62859976 -0.7409425 1.1084216 0.9388702 0.01666487 0.81880814 -0.47984 1.2944589 0.5180495 -0.8033263 -0.24649112 0.91851544
off 0.21476589 -0.1315513 0.007255333 -0.87259716 -0.062720366 0.13703008 -0.938788 1.1039183 -0.7715082 -0.41892713 0.7189979 0.7775527 0.047142114 0.042982377 -0.5129694 1.5122072 0.0107628275 -0.8153129 -0.2252721 0.03705528
backa 0.5094875 -0.8624908 -0.6692429 -0.7049069 0.9221786 -0.18956675 -0.5765972 0.39430678 -1.3624103 0.047013428 1.0495759 1.0306249 0.5917277 0.28384787 -0.14533502 0.6035146 -0.3081405 -1.1497703 0.37227768 0.88400584
barnbarn 0.70276904 -1.0098201 -1.4182907 -0.5790937 0.24976437 -0.617246 0.2985873 0.5776141 -1.1265789 -0.576302 0.8674431 1.1468687 0.3152821 1.0745857 -0.62892294 0.8733558 0.54110307 -0.4554686 0.1958725 1.0217923
bryts 0.48176557 -0.36850485 -0.5182923 -1.2696869 1.437475 -1.3931869 -0.30172876 0.49820995 -0.6624851 0.29916257 0.1245067 0.08967417 0.0067864317 0.21857715 -0.50976026 1.442392 0.41585782 -0.040088348 0.081783675 0.59826696
fonetiska 0.49981982 -0.9048707 -0.90375596 -0.51316625 1.3748149 -1.126335 -0.11624261 1.2755136 -1.4639406 -0.33627743 1.7703251 1.2595587 -0.26612842 0.3434401 0.07352283 1.960262 0.08394467 -0.9434251 -0.014781507 1.632471
blod 0.116159126 -0.8935063 -0.79144824 -1.0895346 -0.14097284 -0.9839663 0.65043974 0.6225156 -0.82225573 -0.17369989 0.2939313 0.3918272 -0.09600839 1.1513638 0.05864817 1.0165317 0.23383394 -0.007252 0.072881825 0.85117835
gång 0.36734152 -0.6014445 -0.75252384 -0.5698919 0.54437673 -0.60614526 -0.5272576 0.7821699 -0.8339714 -0.7005445 1.7907673 0.82205015 -0.103097275 0.15547235 0.083391376 1.1021051 0.5065724 -0.5459041 -0.3764784 0.34251782
udglaselement 0.38300085 -0.30355376 -0.015376725 -0.29212323 0.42324856 -0.40895215 0.28058022 0.3250462 -0.08260434 0.08440912 -0.40212718 0.5339466 -0.090844505 -0.04103652 0.64822525 0.6437894 0.16196907 -0.41582304 0.6872428 0.50640076
lysande 1.23081 0.0055746436 -0.51407963 -1.1972159 0.63992846 -1.0855454 -0.07854498 1.1506687 -1.5093361 -0.26066652 1.3761119 0.5414032 -0.8956522 0.98990023 0.14179057 0.35594577 0.36792597 -0.5659378 -0.25332624 0.694064
rörelsen -0.2225988 -0.40914604 -0.77204585 -0.97128546 1.1243374 -0.92609215 0.34177777 0.84770566 -1.0896446 -0.44207248 1.0671442 1.7965493 -0.3483069 0.5661784 -0.7220835 1.4527248 -0.24418359 -0.045287922 0.00894861 1.3231256
slutat 0.59984595 -0.7936758 -0.84847593 -0.48914945 -0.0387026 0.11890976 0.35282868 0.6841885 -0.5658377 -0.7587903 1.4798709 1.4577919 0.30817488 0.478784 -0.35170624 1.0893335 0.39986885 -1.2620465 -0.42710635 0.37279332
drömmar -0.0742538 -0.7760073 -0.6258058 -0.83472043 0.6252735 -0.74740416 0.016446294 0.65425664 -1.062537 -0.5668198 1.1674792 0.11884771 0.28432494 -0.035668302 -0.10106365 0.71353954 0.43360347 -0.6274456 0.20760891 0.38461864
tillhör 0.917065 -1.1503708 -1.8051544 -1.0078355 1.3470366 -0.7810622 -0.5857135 1.5300248 -2.2047615 -0.38295296 2.7407727 1.3139817 0.20470054 -0.16185586 -0.30149323 2.2331033 0.991226 -0.43401575 0.20463672 0.38804555
genast -0.14512885 -0.7618214 -0.9198981 -0.057910424 0.08097245 -0.7360344 0.23323195 0.41932574 -0.549597 -0.75311804 0.8731848 1.021818 0.23543915 0.5416251 -0.10388804 1.0413737 0.34403872 -0.93886393 -0.80337614 0.09896723
pere 0.13264842 -0.8521168 0.3495844 -0.57115495 0.32492068 -1.3930755 0.050393537 -0.05185066 -0.42986682 -0.69356465 0.51186126 0.3692682 -0.39262027 -0.05682151 -0.23944569 0.11840694 -0.38416764 -0.8624472 -0.67535096 0.30357817
presentera 0.2601202 -0.1834858 -0.5761051 -0.6319628 0.6459641 -0.61260325 0.16183797 0.8282787 -0.6440471 0.05264359 0.9568237 0.72596407 0.026028708 0.06558441 0.8207783 0.055094182 -0.24729656 -0.64208883 0.18062706 0.9331026
försvar 0.04977051 -1.0335991 -2.3329377 -1.1379071 1.0187137 -1.0393602 0.07847087 1.4012955 -2.5338652 -0.5159069 2.9571931 1.7239747 0.16772316 1.3133105 0.6063946 1.9669687 0.8094651 -0.86589336 -0.098758236 0.8454087
mellanliggande 0.5614535 -0.55362123 -0.46327123 -1.2211897 0.73253876 -1.127472 -0.47532102 1.0081863 -1.3463173 0.08112276 1.4373832 0.98924726 -0.39112 0.44236213 0.3702651 1.3710899 -0.58360696 -0.4893875 -0.5420238 1.220407
jackson 0.5715966 -0.15585063 0.33194947 -1.161401 0.15490387 -0.039406527 0.1110647 -0.078155175 -0.32839492 -0.24762678 0.5162177 0.29360905 -0.5239371 -0.3259065 0.32775936 0.49776313 -0.62054557 -0.46442655 -0.58644915 0.07025912
exempel -0.16300763 -0.1936325 -0.6603915 -0.74673754 0.72421736 -0.5498747 0.4810062 0.45906764 -1.4689975 0.21146557 1.1455175 1.2456743 -0.15679519 0.3687025 0.19750352 0.7525332 0.30825782 -0.6496344 -0.47634202 1.0225691
tycks 0.68399614 -0.28729808 -0.7511233 -0.5752292 0.47494844 -0.67356265 -0.14296941 0.5168487 -1.8381691 -0.25619304 1.2768031 0.75530547 -0.26662633 0.31005228 0.34795916 0.81796783 0.19414787 -0.2819532 -0.11544139 0.80062205
upplevt -0.012494463 -1.0848663 -1.1147357 -0.35649255 -0.13531949 -1.5625404 0.041015886 0.63119835 -1.5681958 -0.29515237 1.2048169 1.1213142 -0.25020546 1.020657 0.43747005 0.81767577 0.12404641 -0.6871061 0.0019070895 0.08484742
klämma 0.5492567 -0.8770462 -0.95093024 -1.5407661 0.18764879 -1.045131 0.046833567 1.2494085 -1.5669369 -0.86989534 2.136355 1.0438406 0.44341794 -0.6425842 0.15672274 1.3241736 1.0095865 -0.4407001 0.5446375 1.9088777
svit 0.08658385 -1.4139384 -1.1375256 -0.79785585 0.8976117 -0.08731667 0.816896 0.5280977 -1.7675835 -0.23529638 0.83739346 2.0715497 0.95131 0.18294571 -0.46720418 2.0637548 0.07572318 -0.38312003 0.70840096 -0.58819336
berättelser 0.34539682 -0.8285745 -1.5950892 -1.0358716 0.31948656 -1.1051655 -0.025749678 0.85466206 -0.79407644 -0.64276594 1.3491349 0.59447527 -0.61417836 0.9188304 0.27649334 0.9449592 -0.059222955 -0.5294558 0.17449066 0.820132
tim 0.8286868 -0.21984299 0.0015825544 -1.0344976 0.32191303 -0.1376573 -0.24150512 0.32333764 0.22812116 -0.058998883 0.89131165 0.54095596 -0.721876 -0.19385593 0.4483598 0.7894522 -0.75178325 -0.20320447 -0.7022554 -0.16838132
marlon 0.6263166 -0.038142532 0.52645546 -1.3711171 -0.481144 -0.7965318 0.3485178 0.4597297 -0.013773811 -0.33037958 0.05231873 1.2363106 -0.12651636 -0.342064 0.20523472 0.320748 0.049069 0.048528377 -0.96237594 0.7499979
tona 0.45895162 -0.45824346 -0.17747939 -2.7563314 0.7600438 -0.27475867 -1.1731098 1.2564389 -1.0637523 -0.4578974 0.9405186 0.37014833 -0.14928451 1.4574909 0.4194717 0.15261252 -0.63008493 -1.4407388 -0.45202377 1.3002539
byggkvalitet 0.15066823 -0.8842174 -0.5845515 -0.32970926 0.9750601 -1.1222357 1.0242056 0.77697974 -1.7783033 -0.22821757 1.1593524 1.3066647 -0.08342347 0.29813406 -0.83549327 1.7047836 0.47343946 -0.91147846 0.68768394 1.0068647
kilen 0.28221524 -1.2329097 -0.96646374 -1.5808196 0.24192002 -0.75337166 0.44066936 0.41808975 -0.6406319 -0.5584307 0.96366256 0.9940975 0.15027572 -0.37534055 -0.38060123 0.81492776 -0.10916503 -1.1146253 -1.0792998 1.3039275
framtiden 0.42269987 -1.2951099 -1.6747924 -0.005935315 0.46641436 -1.4751804 -0.07583353 0.20833161 -2.082345 -0.19558063 1.0769877 0.5602614 0.6896466 0.6748138 0.2779167 0.37255213 0.64995015 -0.35809925 0.03979384 0.33900833
vattentät -0.18156144 -0.16253558 0.0569761 -0.8412226 -0.15879704 -0.6986278 -0.4846151 0.60137457 -0.59888244 -0.6374378 0.3338769 0.6601864 0.24966736 0.37894708 0.18484163 1.2277235 -0.039125867 0.07409017 0.7488235 0.2445796
chiklis 0.94586897 -1.0071493 -0.8728882 -2.037587 0.14853892 -0.8620116 0.95252925 0.17640337 1.0136772 -0.6429191 1.490717 1.8435516 -0.113511145 -0.7074342 0.17406961 0.30498245 -0.10833502 -0.4010526 -0.17474534 0.033522543
baserades -0.041899625 -0.6318723 -0.8018187 -0.8492359 0.28618002 -0.34745246 0.0038156987 0.39015597 -0.8345591 -0.013540345 1.2144343 1.2116729 0.20256767 0.19465078 0.9696265 0.7256469 -0.21698548 -0.3021705 -0.6009158 -0.037992958
vibrerar 0.26654425 -0.29003403 -0.77509487 -1.4637237 1.0704248 -1.1794697 0.35169816 1.8070917 -1.3893691 -1.3142912 1.46012 1.3393276 -0.23501278 0.91895515 -0.5686386 1.9760219 0.34400296 -0.78046864 0.25853127 0.87198824
separat 0.3259593 -0.95950764 -0.15335095 -0.644986 0.7944222 0.26758313 -0.13942422 0.7615611 -0.5589858 0.4446617 0.80312395 0.41728935 0.8273249 0.47725803 -0.13288507 0.30828124 0.116345964 -0.72750026 0.1287768 0.82475364
ontario 2.020477 -0.75699556 -0.35912004 -0.47053078 1.6994317 -0.2717104 0.32203832 0.11534919 -0.12667544 0.15707582 0.805796 0.5564156 0.86733055 -0.12161968 0.24984375 0.623665 0.12820639 -0.61741906 0.5509277 -0.35046384
adobe 0.83219373 0.13527696 0.10559046 0.58966905 1.1327803 0.11740795 0.31713992 0.34977913 -0.6517467 -0.46819985 -0.14567314 0.50940955 0.9711414 -0.67638046 0.968165 0.4562339 0.1661367 -0.8556198 0.069755115 0.2088457
urban 0.4695604 -0.35777494 0.17319325 -0.7331648 0.27093503 -1.3380942 -0.111851074 -0.09301727 -0.8156709 -0.23622718 -0.17207202 -0.090464145 -0.7484935 -0.37118664 0.40777346 -0.0025916854 0.37883717 -0.11339562 -0.093499355 0.93687034
begå 0.34427604 -0.8858536 -0.7215446 -1.4772257 0.3827042 -0.7103587 -0.19304964 0.1943887 -1.4138744 -1.0047863 1.3162855 0.25125682 7.472719e-05 -0.52114505 0.5367318 0.2749664 0.56265116 -1.2145929 -0.5293624 0.65691596
dr -0.11715482 -0.49264944 -0.15464705 -0.7674136 -0.32331604 -0.11156736 -0.19096234 0.2414952 0.32314593 -0.14540692 0.4658168 0.17045176 0.06754406 -0.3607415 1.0028679 0.42682737 -0.44579512 -0.7943976 -0.37582636 0.65022373
straff -0.21665472 -0.76658404 0.12455334 -1.010117 -0.0159593 -0.386374 -0.35024372 0.18658487 -0.2662833 -0.17352472 0.3822048 0.5746226 0.46041805 -0.014047916 0.2776473 1.4024692 0.19832744 -0.6540171 -0.5769309 0.23540765
photograpy 0.23431292 -0.12357257 0.48953494 -0.015200995 0.43362325 -0.6874315 0.5109166 -0.6219576 0.22678173 -0.057571147 -0.22086544 0.41280317 0.5601384 0.53255725 0.26533383 0.41735855 0.020387635 -0.4262628 1.0103605 0.4857637
pat -0.06715517 -0.22681245 -0.16368975 -1.3010463 -0.2624903 -0.4706777 -0.38387102 -0.3646929 -0.30678186 -0.53359 0.97827166 -0.15399359 -0.5573505 -0.8897672 0.13502596 0.34761247 -0.24733067 -0.7431364 0.027289422 -0.10736628
ell 0.38965404 -0.9107858 0.8345815 -1.6689266 0.008026337 0.49487534 -0.71369827 -0.25777608 0.16664462 -0.9014036 -0.20556597 0.36747265 -0.14879072 -1.1899508 0.10869434 1.3953345 -0.49040657 -0.7278775 -0.03507606 0.39114603
installerades 0.3606531 -0.97593606 -1.1376966 0.60224915 1.1210228 0.04205626 -0.54615057 -0.042056292 -0.6326043 -0.37061986 0.82832426 0.604186 1.0867475 -0.027391916 0.625936 1.2226763 0.21689263 -0.12795486 -0.3896049 0.07631235
social 0.32839924 0.23678233 0.3544602 -0.33865574 -0.065365314 -0.7074252 -0.2011499 -0.26614344 -0.5054968 0.8762447 0.27605525 0.14033669 -0.013434183 0.500488 1.1261421 0.4164455 0.022926036 -0.182985 -0.43741417 0.5935896
processen 0.069685556 -0.05727817 -0.6462687 -0.084492855 0.57648915 -0.44045278 -0.15699194 0.490857 -1.1352477 0.15365797 0.6868773 0.48330522 0.097899236 0.33321965 0.56115264 0.82271105 0.07430979 -0.27181715 -0.07252677 0.7393089
handtag 0.23082091 -0.60727334 -0.56401825 -0.85668445 0.5411685 -0.16674295 0.4425758 0.31175417 -0.5715487 -0.100610405 0.8409844 0.83386576 0.09218764 0.3472684 -0.13915527 1.0497004 0.720787 -0.9661782 0.43823376 0.45852825
åsikt 0.4593939 -1.8730273 -1.2729732 -0.86943024 0.5796634 -0.7173723 0.6979538 0.23717044 -2.2187743 0.2653342 1.8116477 0.8977699 -0.4486742 0.47718766 0.45137063 0.89306 0.18519312 -1.0227582 -0.22573379 0.9406531
lär 0.952651 -0.24925385 -1.8123075 -1.1874858 -0.3996885 -0.9996093 -0.24418655 0.66078156 -1.9525477 -0.48131293 1.8017937 0.9826892 0.250245 0.6002922 0.50303406 0.84910315 0.5765471 -0.7081771 -0.6845213 1.9681157
färgen 0.04174076 -0.89855826 -1.1949099 -0.66441506 1.6126271 -1.1348374 0.57115513 1.1265247 -1.6446016 -0.27231857 1.352425 1.6745702 0.02735577 1.1910273 -0.5692261 2.032047 0.0045891125 -0.37242392 0.49490765 0.6292927
lukas 0.60438997 -0.7121419 -1.2746686 -0.7755769 0.3396225 -0.9318612 0.5136934 0.70176286 -1.0205549 0.0833875 1.8656055 1.0388197 0.109701894 0.122776575 0.5641652 2.1299539 0.4122413 -0.25416744 -0.30162925 1.4615854
upproret 1.0009025 -0.88512474 -1.5076226 -0.8358132 0.90068233 -1.381366 -0.27629676 0.95439464 -1.7505871 -0.83171105 1.7979109 1.5704712 0.42292568 0.5877884 0.5470879 1.8605576 0.8375154 -1.1083312 -0.19619629 0.86090827
känns 0.022105407 -1.0108273 -0.73719937 -0.82603127 1.038503 -0.38574132 -0.46192294 0.97911155 -1.3143264 -0.76880354 1.0089564 1.3797016 -0.3427865 0.73042077 -0.23028733 1.2559402 1.1065077 -0.11999241 0.5246888 0.71706045
cover 0.016572872 -0.58708817 -0.28632626 -0.71390855 0.1331976 0.17647894 0.2285499 0.059514187 0.20665194 0.16033366 0.13691102 0.124084845 -0.26761472 -0.011704182 -0.10770167 0.89815336 -0.2600697 -0.96391094 0.5915062 0.0027228037
checkpoint 0.49570718 0.025030874 -0.531491 -0.16386159 1.0260551 -0.120727085 0.17285138 -0.13839887 -0.33653614 0.634862 -0.1690442 0.39806202 0.3149224 -0.32783708 1.0221792 0.593315 0.4773341 -0.92399967 0.43099734 -0.13425514
alba 0.7119426 -0.017933475 -0.48346376 -1.1874045 0.29273465 -0.599433 0.9371721 0.4348685 -0.5761187 -0.63461393 0.2504176 0.747945 0.30242506 -0.62052864 0.108721375 0.6146699 -0.16968915 -0.18159713 -0.90119517 1.8166974
okänd 0.5432014 -0.81973255 -0.82480204 -1.0631536 1.1416713 0.17631125 -0.036095385 0.39098603 -1.0839506 -0.3823824 1.2002603 1.1497914 0.452495 0.24940392 -0.26358834 1.121055 0.29590008 -0.42163473 0.07352596 0.6710057
explicita 0.3301667 -0.40148908 -0.20213048 -0.92584 0.28098017 -0.27178147 -0.3098107 0.23063803 -0.7572003 -0.029236475 0.14543281 0.21180537 0.1793471 0.53761363 0.84932137 0.15938923 -0.1910011 -0.31490406 0.053918544 0.6230058
slita 0.034412645 -0.46527293 -0.32729873 -1.2598685 0.5352458 0.1690285 -0.580402 0.47605038 -0.40712938 0.2449078 0.74637604 0.70679194 -0.36546126 0.404918 -0.9494492 1.2701925 0.33329165 -0.30695486 -0.05909809 0.67019707
likt 0.49948415 -0.6624239 -1.6427877 -0.98719835 0.6204033 -0.77255076 0.49011153 0.98735136 -2.18325 -0.15771206 2.4245696 1.9937601 -0.0019378886 0.65457314 -0.14710395 1.5943663 1.1768262 -1.246676 0.48377085 1.1612343
brutto 0.4350261 0.15782759 -1.108002 -1.2205979 0.33547008 -0.7952563 0.2139477 1.1724043 -0.99111736 -0.30101228 0.60041976 1.0010124 -0.43222243 0.29432082 0.26044384 1.2628706 0.10886517 -0.051586144 -0.8191047 1.2410835
plågsamt 0.52039677 -0.94566673 -0.30550396 -0.6960031 0.71574885 -0.24244186 0.20783019 0.6448558 -1.4178058 -0.63347113 1.5222079 1.51211 0.9908047 0.47145054 -0.32209688 1.0648509 0.30322286 -0.15591834 0.05372971 1.000568
egna -0.054108564 -0.89077765 -0.70086724 -0.30562297 0.17036138 -0.53169227 0.027513774 0.45973894 -1.5087966 0.19613948 1.2105289 0.83924365 0.14841738 -0.26465872 0.43124625 0.6442142 0.65589565 -0.87623715 -0.07579284 1.4486883
normal -0.2728647 -0.12193119 -0.110296026 -0.04023675 0.031364862 -0.4269933 -0.109912656 -0.39073178 -0.036512874 -0.23771462 -0.43976015 0.65938646 0.38157025 0.19116087 0.21398203 0.78934 0.36486796 0.16356835 0.14280838 0.42943788
trilogin 0.76599777 -0.52411246 -0.5021437 -1.1843538 0.17421189 -0.7773845 0.140059 -0.0029001283 -0.15485995 0.1749827 0.26130253 -0.3717503 -0.37506774 0.05055659 1.0847136 0.34918407 -0.048690442 -0.71343845 -0.08313081 -0.2066371
cd 0.93875575 -0.43123865 -0.21469408 -0.53646266 0.20323995 -0.29506668 -0.51856166 0.43678373 -0.73699963 -0.19003989 0.660664 -0.19616708 0.0872684 0.18724263 -0.44919458 0.09707549 0.07596182 -0.6912813 0.22446835 -0.19893569
itu 0.0665862 -0.043598015 -1.3213761 -0.626142 0.50741524 -0.59856015 0.3258813 0.65627944 -1.5828723 -0.42656565 1.4296521 0.787952 1.0914315 -0.2569112 0.08847244 0.743239 0.6461569 -0.9634198 -0.29477063 1.0725684
bygga 0.33710372 -0.83003294 -1.2817203 -0.85698926 0.3639961 -0.18713175 0.11717599 0.6505862 -1.3612885 -0.033124764 1.0155184 1.1705635 0.40294144 0.9028072 -0.511453 1.5984497 0.6350686 -0.10561185 0.7411455 1.4703971
låtar 0.37863648 -0.59049535 -0.63286483 -1.0270509 1.0412347 -0.88149416 -0.8157894 1.055111 -1.5904796 -0.39296684 1.3157855 0.3349739 -0.45826325 -0.0165161 -1.0536119 0.7540781 0.07540887 -1.4594238 -0.11191397 0.7279852
berättelse 0.29375097 -0.5290745 -1.5871614 -1.1190653 0.27756506 -0.983221 0.18650985 0.88570005 -0.51551276 -0.7750585 1.4187443 0.3239235 -0.5265224 1.0647498 0.3559148 1.1504292 -0.26333717 -0.59561473 0.32547256 0.72740406
stark 0.02874333 -0.16694951 -0.16005369 -0.5040632 0.46475995 -0.10700888 0.091161184 0.36981615 0.048014387 -0.4665352 0.24144918 1.2836 -0.74352163 0.62944204 -0.24891727 1.0293597 -0.42845085 -0.38391864 -0.48120582 0.7125723
fri -0.37129346 -0.40097412 -0.9315959 -0.86943823 0.38311815 -0.8333558 0.48902312 0.42352682 -1.5273458 -0.13321055 1.1682632 0.94120795 0.10773127 0.061023027 0.23097661 0.2882049 1.6194168 -0.7192269 0.2528158 0.14619443
zoomobjektiv 0.54425335 -1.0136421 -0.41242647 -0.44517252 0.8368812 -0.16497833 1.3024441 0.5942822 -1.2713044 0.056135323 0.9341709 1.0591322 -0.5864052 0.27232382 -0.85576373 1.5994906 1.1877468 -1.2021794 0.68062633 1.0014383
tangent -0.21900743 -0.33097726 -0.28356755 -0.84195226 0.39902934 -0.22036132 -0.83656263 0.7345931 -0.70555985 0.11929371 0.5955489 -0.04002156 0.0073682847 0.5749988 0.56830835 0.36146453 0.1139539 -0.72148323 0.22493607 0.064410016
sekulära 0.0833886 -0.4229783 -1.0991507 -0.21245462 0.94705826 -1.0768139 0.19917127 0.88682365 -1.7428783 0.0976652 1.6561453 1.3439717 0.08413025 0.35586557 -0.20390737 1.5255339 0.34440362 -0.7513606 0.116961434 1.0983515
behövde 0.9636392 -0.18959895 -1.2393475 -0.4968956 0.9843894 0.22867712 -0.23569329 0.8654853 -0.6402472 0.05841736 1.0868888 1.3414344 -0.23000112 0.4202079 -0.66619277 1.5844657 0.8449559 -0.4354392 -0.56715304 0.32094863
reda -0.06475288 -0.9339702 -1.469604 -0.38009116 0.5526437 -0.1813994 0.48768416 0.7215812 -0.5652125 -0.18509975 0.6437464 0.89359736 0.557492 -0.4829594 0.6402684 0.79150945 0.4423336 -0.44108164 -0.38490468 1.3361543
kamera 0.1524236 -0.82210994 -1.0937551 -0.38326657 0.58058894 -0.4400308 0.82210606 0.9661027 -1.1951935 0.017155202 1.05154 1.338481 0.4618743 0.67777765 -1.28776 1.596167 0.95592487 -1.3804592 0.37322235 0.71136063
flingorna 0.47221977 -1.027679 -0.56896603 -1.266705 0.74487257 -0.78491527 -0.08001898 0.50353295 -0.5718729 0.20625032 0.9115297 0.45836535 0.003000275 0.46487066 0.6057209 0.62690324 0.18508916 -0.9802003 -0.6576584 1.4313979
ordentligt 0.3020476 -0.39101252 -0.9042804 -0.29517984 0.5801561 -0.00979887 -0.06933985 0.60141534 -0.95915246 -0.42177176 1.4404505 0.48606214 0.14129099 -0.051237177 0.23850133 1.4534549 0.57906437 -0.7912356 -0.24466781 0.52040505
svaret -0.39192435 -0.3160376 -0.8644629 -0.86995286 0.7120175 -0.83244634 0.61078185 0.71433717 -1.6100451 -0.029848631 1.4706093 1.1971121 0.3728202 0.5302165 0.40233007 1.010045 -0.06849567 -0.3327647 -0.42557466 0.6133444
verksamhet 0.77552044 -0.22173777 -0.81161714 -0.30015227 0.861633 -0.99067795 0.12223892 0.7738434 -1.100244 -0.23806092 1.8952379 0.8813002 0.12523246 0.1290356 0.06663156 0.82519245 0.8997163 -0.4845454 0.54894096 0.9458748
laget 0.36703837 -0.008089003 -1.2829152 -1.0677637 0.5948457 -0.30093026 0.8149696 1.2724563 -1.2070829 0.09186702 0.5417624 1.12525 0.37998503 -0.19001447 0.4145017 0.33957183 0.43094116 -1.4888853 0.033957206 1.0658618
separata 0.5085786 -0.8166158 -0.45318675 -0.51308465 0.74885076 0.07783944 -0.024201818 0.73365855 -1.0276557 0.21560174 0.87932575 0.2593525 0.64567065 0.7929031 -0.068478055 0.42741847 -0.040222503 -0.5483606 0.19173759 0.31149766
tvåbitars 0.45619953 -0.56507266 -0.6696731 -1.0894027 0.21116367 -0.9935002 0.25774384 1.023951 -1.6166886 -0.17244491 1.3084371 0.5972843 -0.6405911 0.7098997 0.4220533 1.2265396 0.61862767 -0.5910893 -0.08041284 1.1269255
udda 1.4702951 -0.75296015 -0.6936543 -0.5075243 0.62456 -0.70514274 0.74267125 0.7420055 -0.35198516 -0.67036396 1.6845247 0.81222683 -0.20604225 -0.14290132 0.11401933 1.0985957 0.3913269 -0.45089272 -0.4755969 1.21112
påverkas 1.152493 -0.40466058 -0.75513864 0.10227196 0.9819166 -1.0734944 0.3506794 1.215961 -0.72100246 0.28939307 2.1635547 1.8849257 0.38288328 0.27359387 -0.041283667 1.7466017 0.008513426 -0.53376144 0.07026861 1.169995
innehåller 0.5210535 -1.0326062 -0.91364944 -0.3946405 0.8401989 -0.91555566 -1.1213125 1.0318743 -0.663885 -0.9124064 1.2567182 1.2158628 0.001557655 0.23689052 0.30947462 0.3993045 0.4203709 -0.08650216 0.55505764 0.6385773
ge 0.4655292 -0.14628333 -0.18396547 -0.8473482 0.27255312 -0.4574527 0.36477643 0.5434898 -1.1631856 -0.55800116 1.2322838 0.9755522 -0.10197927 0.43730444 0.8210788 0.63928276 0.76829875 0.37557748 -0.24520384 -0.13878053
south -0.4887331 -0.94142365 0.2007511 -0.7296992 0.20819469 -1.0336657 -0.06494481 -0.81564486 -0.118829556 0.81789786 0.046600316 -0.17672862 0.16972376 -0.19310385 0.22712427 0.06206356 0.17991029 -1.0307653 -0.65130305 0.5903836
phantom 0.7798558 -0.16465916 -0.3349035 -0.7346232 0.8644731 -1.2017965 -0.09862061 0.30855367 -0.52312744 -0.5063907 -0.22878209 -0.56934947 -0.11060881 -0.04967569 0.68058413 -0.3926082 -0.8323722 -0.601632 -0.13276653 0.2105482
standout 0.64129186 -0.45491028 0.83088976 -1.2143235 0.67380947 0.046324342 -0.6973997 0.6071736 -0.3634718 -0.001230858 0.17500003 0.3188061 -0.61319745 -0.19556795 -0.23095724 0.42734793 -0.019082157 -0.48717234 -0.22279845 -0.19261038
seniorer 0.34821796 -0.9112778 -0.66122484 -0.6736379 0.22766104 -0.1019002 -0.2943582 0.16211884 -0.21772909 -0.2975132 0.808915 0.80211544 1.0592588 -0.18105865 0.551246 0.5964448 0.24052277 -0.4560172 -0.6691285 0.36794978
tillbringade 0.009619021 -0.28246376 -1.2394503 -0.33670694 0.6683602 -0.9626151 -0.19936343 0.9560065 -1.0006707 0.64487725 1.0956742 0.9934796 0.1118141 0.26765612 -0.34199876 1.1942505 0.8754757 -0.28072295 0.38499698 0.33112702
interseting 0.46846718 0.03424137 -0.25588775 -0.42789808 0.44251582 0.09611328 -0.32280964 -0.47591057 -0.38378838 0.5851062 -0.255987 0.06699734 0.84702593 -0.1518879 0.40891093 0.75398344 -0.19079363 -0.58777755 -0.35125303 0.38821846
gb 1.182016 -0.12769067 -0.416105 0.24687043 1.4149351 0.14348055 -0.11080156 -0.47695225 0.004666687 0.46709174 0.37387034 0.5641916 1.3071437 0.62398255 -0.6327894 1.3381145 0.65547466 0.08159857 -0.2168066 0.39642924
alltså 0.85770875 -0.60215443 0.11817389 -1.0983794 0.4241833 -0.55313087 0.21232305 0.6473936 -0.7228113 -0.6693624 1.2583687 0.7530242 -0.5568196 0.69494057 0.05676725 0.58587813 -0.20867522 -0.5789833 0.12122692 0.7648252
misstag 0.20164956 -0.59808236 -0.68696207 -0.33477047 0.25838298 -0.38563347 0.45482984 0.4594699 -1.0758487 -0.36844236 1.3459252 0.5635014 0.37029514 0.3486151 0.123596966 0.9766286 0.2946822 -0.8538502 -0.106065094 0.43783283
kastas 0.5011391 -0.15994398 -1.2603388 -0.66139776 0.5185955 -0.8267985 -0.011490778 0.75268453 -0.74256223 -0.006889304 1.4886856 0.47255728 0.153407 0.28712592 -0.109543376 0.97800255 0.56546026 -0.28660846 0.58943284 1.1367111
rullgardins 0.41348606 -0.5884933 -0.3306189 -1.1088793 -0.11890022 -0.49320996 -0.14870252 0.2539954 -0.51036024 0.43026945 0.0451936 0.043899115 -0.11006538 -0.09744464 0.6923245 0.45682973 0.06191927 -1.1268042 -0.18340644 0.16440369
monotont 0.5219881 0.4385936 0.111578815 -1.0488343 0.7786941 -0.4951946 -1.0550593 0.16108288 -0.49258453 -0.31300163 -0.7725258 -0.065395616 -0.28265512 0.23221569 0.2609857 0.552248 -0.5830801 -0.39246753 -0.17662203 0.20707002
ägt 0.5290041 -0.92767197 -1.5945479 0.41897243 0.9169648 -0.7204968 0.0998379 0.8421765 -0.6433094 -0.4655526 0.52785975 1.2069197 -0.5431827 0.6664735 -0.9665357 1.1189363 0.8763861 -1.8043699 0.59337187 0.4391068
jämföra 0.56530535 -1.0435691 -0.28330156 -0.2897126 1.2819316 -0.8893454 0.825737 0.7834483 -1.1303977 0.12876569 1.0579408 1.2142147 0.11256819 0.4010587 -1.1768874 0.4335123 0.82518107 -1.4281222 0.13498099 0.99461806
sammanfattningsvis 1.6128421 0.12823571 -1.046966 0.7874788 1.8191899 -1.3918958 1.1937445 0.9867571 -0.502857 -1.0629686 0.7955939 1.2129573 -0.1283399 -0.22584935 -0.13335195 2.0102668 0.13370058 -0.5681669 0.6161312 1.3019472
följde 0.07972669 -0.34673968 -0.7784994 -0.33601552 0.08662244 -0.5794794 0.5810021 0.4039422 -0.54854184 -0.17210883 1.2488317 1.0729865 0.08554791 1.2959905 -0.6093841 1.4537015 0.9164678 -1.1616058 0.60846186 0.4418098
begåvade 0.34230366 -1.0953552 -0.28254017 -1.2848938 0.38891184 -0.9095519 -0.4277134 0.4613436 -1.4617769 -0.7486989 1.4304578 0.311183 -0.35271546 0.15793094 -0.1111183 0.16481291 -0.017310249 -1.0459285 -0.7107839 0.812383
fax 0.7071261 -0.30675274 -0.5584508 0.2996962 0.9633708 -0.41978854 1.1658828 0.17013629 -0.5218149 -0.17216137 0.63811207 0.6883434 1.958362 0.18769418 0.2532391 0.57046986 0.21720836 -0.42574137 -0.42639437 -0.10295345
tas -0.15105186 0.21808934 -0.78289855 -0.7235671 0.41978964 -0.62970203 0.13482152 0.84280497 -0.7390868 0.42054063 1.6390381 0.92501205 0.35932043 0.66050214 -0.032342903 1.0581528 -0.014881415 -0.6665802 0.7020201 0.7750415
lagt 0.61536527 -0.45142087 -0.9217138 -0.53521156 1.2427597 -0.061565474 0.2729329 0.7512656 -1.4498774 -0.006549651 0.9448567 0.98187566 0.17042118 0.3169036 -0.18991275 1.0480233 1.0788987 -0.62001437 -0.21815509 0.7636888
ögat -0.3263724 -0.7583649 -1.0274216 -1.2883013 0.21545498 -0.5275439 0.5941665 0.2740048 -0.8470931 0.051922027 0.59770674 0.93010885 0.5758949 -0.009598166 -0.772542 0.8225265 0.035408672 -0.02448067 -0.3549695 0.16821046
okej 1.0479741 -0.83077925 -1.5216575 -1.012836 0.25003886 -0.12375925 -0.018051224 0.87625575 -0.8612108 -0.40316677 1.39146 0.97749734 -0.63295764 0.17879914 -0.020013737 1.0984313 0.3021831 -0.8350029 0.35850886 1.0767589
nikon 0.01390204 -0.5060709 0.56892896 0.40727696 0.5056981 -0.80608076 0.8042212 -0.32510108 -0.03521875 0.06601472 0.6700696 0.37025195 0.27978134 0.562108 -0.3513126 1.00973 0.29221955 -0.83554846 0.7255294 -0.24103837
övergripande 0.51548 -0.7572775 -0.15863219 -0.41952905 0.3669617 -1.0067207 -0.118014865 1.0761577 -1.6213881 -0.0358488 1.1010227 1.1264384 -0.14969876 0.6310835 -1.033294 0.72093165 -0.22381605 -1.15575 0.95392644 0.68867433
överste 0.44937962 -1.0126663 -1.6278545 -0.32111782 -0.035978097 -0.19620852 -0.21888864 0.59094626 -1.5188485 -0.087186195 1.753028 0.9236641 -0.72343427 1.1295224 0.7585602 1.8844757 0.5300067 -1.7940861 0.106589615 -0.08839736
spelades 0.6443034 -0.97525114 -0.4672216 -0.775011 0.41246602 -0.5499473 -0.4124197 0.017719582 -0.744626 -0.47504213 1.0977465 0.6545245 -0.1633381 0.21404856 -0.34918568 0.5179989 -0.18660927 -0.58348197 -0.59615237 1.0244443
hatt -0.20952125 -1.8348238 -0.5745642 -1.4767412 -0.58913267 -0.87277627 1.2091888 0.25846356 -0.52895224 -1.0751578 0.96686697 1.5083638 -0.54479724 -0.44821322 0.058049202 1.0534797 0.65697265 -1.2362409 -0.40791854 1.0574847
shaker -0.7291963 -0.6494511 -0.027405469 -1.169411 -0.044743244 -0.019578537 -0.6048561 0.40254673 -0.45890683 -0.11535527 0.037929185 0.5970714 -0.15344313 -0.16116145 -0.5570533 0.99316484 0.28523943 -0.3936855 0.565062 0.25508374
processtyrning 0.5856621 -0.020968247 -0.40665126 0.050986722 0.4383758 -0.16169724 -0.09757599 0.17382324 -0.754446 0.22740461 0.18955782 0.33473283 0.801372 0.26503116 0.37281373 0.94283855 0.39478037 -0.42574558 -0.19076571 0.5154267
